{"learner":{"attributes":{"best_iteration":"6","best_score":"0.6367888138862102"},"feature_names":["zero_gamma","call_wall_oi","put_wall_oi","net_gex_oi","delta_rr","regime","one_zero_gamma","one_call_wall_oi","one_put_wall_oi","call_wall_strike","put_wall_strike","wall_spread","spot_vs_call_wall","spot_vs_put_wall","spot_vs_zero_gamma","minutes_since_open","minutes_to_close","zero_major_long_gamma","zero_major_short_gamma","one_major_long_gamma","one_major_short_gamma","zero_major_call","zero_major_put","one_major_call","one_major_put","zero_agg_dex","one_agg_dex","zero_net_dex","one_net_dex","dex_flow","gex_flow","cvr_flow","one_dex_flow","one_gex_flow","one_cvr_flow","greek_major_long","greek_major_short","mr1d","mr1u","mr2d","mr2u","or1d","or1u","vix","skew","iv_r1","iv_straddle","point_r1","mdvs","odvs","spot_in_mr1_pct","mr1_extremity","outside_mr1","spot_in_mr2_pct","dist_call_wall_pct","dist_put_wall_pct","wall_skew","spot_above_zg","dist_zg_pct","spot_vs_settle","spot_in_or_pct","outside_or","net_gamma_zero","net_gamma_one","call_put_pressure","net_dex_total","vanna_total","charm_total","gex_ratio_total","dex_flow_best","gex_flow_best","flow_convergence","flow_divergence","vanna_best","charm_best","greek_major_net","mm_composite","mr1_range_width","mr1_break_risk","vix_break_signal","vix_normalized","is_hedging_hour","is_close_hedging","gex_decay_factor","net_gex_decayed","wall_spread_decayed","wall_compression","regime_flip","regime_flip_momentum","charm_decay_signal","high_charm_stable","vix_x_mr_range","flip_x_decay","spot_L1","spot_L2","spot_L3","spot_D1","net_gex_oi_L1","net_gex_oi_L2","net_gex_oi_L3","net_gex_oi_D1","delta_rr_L1","delta_rr_L2","delta_rr_L3","delta_rr_D1","spot_vs_zero_gamma_L1","spot_vs_zero_gamma_L2","spot_vs_zero_gamma_L3","spot_vs_zero_gamma_D1","spot_in_mr1_pct_L1","spot_in_mr1_pct_L2","spot_in_mr1_pct_L3","spot_in_mr1_pct_D1","dex_flow_best_L1","dex_flow_best_L2","dex_flow_best_L3","dex_flow_best_D1","gex_flow_best_L1","gex_flow_best_L2","gex_flow_best_L3","gex_flow_best_D1","vanna_best_L1","vanna_best_L2","vanna_best_L3","vanna_best_D1","charm_best_L1","charm_best_L2","charm_best_L3","charm_best_D1","net_gamma_zero_L1","net_gamma_zero_L2","net_gamma_zero_L3","net_gamma_zero_D1","call_put_pressure_L1","call_put_pressure_L2","call_put_pressure_L3","call_put_pressure_D1","greek_major_net_L1","greek_major_net_L2","greek_major_net_L3","greek_major_net_D1","mm_composite_L1","mm_composite_L2","mm_composite_L3","mm_composite_D1","regime_flip_L1","regime_flip_L2","regime_flip_L3","regime_flip_D1","spot_MA3","spot_STD3","spot_MA6","spot_STD6","spot_MA12","spot_STD12","spot_MOM","net_gex_oi_MA3","net_gex_oi_STD3","net_gex_oi_MA6","net_gex_oi_STD6","net_gex_oi_MA12","net_gex_oi_STD12","net_gex_oi_MOM","dex_flow_best_MA3","dex_flow_best_STD3","dex_flow_best_MA6","dex_flow_best_STD6","dex_flow_best_MA12","dex_flow_best_STD12","dex_flow_best_MOM","gex_flow_best_MA3","gex_flow_best_STD3","gex_flow_best_MA6","gex_flow_best_STD6","gex_flow_best_MA12","gex_flow_best_STD12","gex_flow_best_MOM","vanna_best_MA3","vanna_best_STD3","vanna_best_MA6","vanna_best_STD6","vanna_best_MA12","vanna_best_STD12","vanna_best_MOM","charm_best_MA3","charm_best_STD3","charm_best_MA6","charm_best_STD6","charm_best_MA12","charm_best_STD12","charm_best_MOM","greek_major_net_MA3","greek_major_net_STD3","greek_major_net_MA6","greek_major_net_STD6","greek_major_net_MA12","greek_major_net_STD12","greek_major_net_MOM","mm_composite_MA3","mm_composite_STD3","mm_composite_MA6","mm_composite_STD6","mm_composite_MA12","mm_composite_STD12","mm_composite_MOM","spot_accel","vix_high","vix_low","skew_high","is_first_hour","is_last_hour","is_power_hour","day_of_week","regime_x_mr1pos","regime_x_zgdist","vanna_x_vix","charm_x_decay","gamma_x_extremity","pressure_x_pos","dex_mom_x_gamma","convergence_x_regime","spot_z_score"],"feature_types":[],"gradient_booster":{"model":{"cats":{"enc":[],"feature_segments":[],"sorted_idx":[]},"gbtree_model_param":{"num_parallel_tree":"1","num_trees":"47"},"iteration_indptr":[0,1,2,3,4,5,6,7,8,9,10,11,12,13,14,15,16,17,18,19,20,21,22,23,24,25,26,27,28,29,30,31,32,33,34,35,36,37,38,39,40,41,42,43,44,45,46,47],"tree_info":[0,0,0,0,0,0,0,0,0,0,0,0,0,0,0,0,0,0,0,0,0,0,0,0,0,0,0,0,0,0,0,0,0,0,0,0,0,0,0,0,0,0,0,0,0,0,0],"trees":[{"base_weights":[-0E0,-3.7544808E-1,6.000568E-1,-9.2147894E-2,-7.465894E-1,8.812365E-2,1.016583E0,2.4044281E-1,-1.8129298E-1,-9.412642E-1,2.2778308E-2,1.8145761E-1,-2.754736E-2,1.5075563E0,7.952702E-1,-7.0822954E-2,5.414072E-1,-8.495206E-2,-5.545098E-1,-3.7798834E-1,-1.1002146E0,7.8580785E-1,-3.9883524E-1,6.811353E-2,7.7404183E-1,2.6232209E-2,4.87937E-2,4.1530085E-1,1.2781733E0,-3.7128258E-1,1.0210277E-2,5.6879506E-3,2.0135129E-2,-1.447978E-1,1.9718673E-2,6.1144177E-2,-9.2458534E-1,2.2961287E-1,-1.0235686E0,-1.1972213E0,-6.7713996E-3,3.5934858E-2,5.4491647E-3,-2.4101246E-2,-6.1259414E-3,-4.3223754E-1,2.021894E-1,1.7182542E-3,3.6587507E-2,2.0932786E-1,3.5472736E-2,2.1858465E-2,1.4198877E0,1.7437012E-3,-2.5464287E-2,-1.9838397E-1,2.1925613E-2,1.3436073E-2,-8.084935E-3,-3.5529172E-3,-1.1634759E0,-2.0840492E-2,2.3861427E-2,-1.1338758E-2,-3.907958E-2,-8.3044815E-1,-1.3762939E0,1.693186E-2,-1.6759632E-2,-3.9554436E-2,8.334383E-2,1.6198345E-2,5.470317E-1,-1.1923219E-2,2.5100926E-2,1.0694085E0,5.1413916E-2,-8.272314E-4,-1.1570304E-2,-2.0326752E-2,-4.306349E-2,-3.741993E-2,1.3141973E-2,-1.5799608E-2,-4.3515835E-2,-1.0788126E-2,1.693186E-2,4.7780736E-3,-1.1017303E-2,8.5543925E-3,2.5838649E-2,1.1410667E-2,-1.7489998E-2,4.673312E-2,1.6486503E-2],"categories":[],"categories_nodes":[],"categories_segments":[],"categories_sizes":[],"default_left":[0,0,0,0,0,0,0,0,0,0,0,0,0,0,0,0,0,0,0,0,0,0,0,0,0,0,0,0,0,0,0,0,0,0,0,0,0,0,0,0,0,0,0,0,0,0,0,0,0,0,0,0,0,0,0,0,0,0,0,0,0,0,0,0,0,0,0,0,0,0,0,0,0,0,0,0,0,0,0,0,0,0,0,0,0,0,0,0,0,0,0,0,0,0,0],"id":0,"left_children":[1,3,5,7,9,11,13,15,17,19,21,23,-1,25,27,29,31,33,35,37,39,41,43,45,47,-1,-1,49,51,53,-1,-1,-1,55,-1,57,59,61,63,65,-1,-1,-1,-1,67,69,71,-1,-1,73,-1,-1,75,-1,-1,77,-1,-1,-1,-1,79,-1,-1,-1,-1,81,83,-1,-1,-1,85,87,89,91,-1,93,-1,-1,-1,-1,-1,-1,-1,-1,-1,-1,-1,-1,-1,-1,-1,-1,-1,-1,-1],"loss_changes":[2.5944174E2,7.389101E1,9.3803955E1,1.2053268E1,4.6253296E1,1.8902788E1,2.2933212E1,8.293071E0,1.1142188E1,2.0306091E1,2.1125597E1,1.2008898E1,0E0,1.3850555E0,2.9822334E1,5.559712E0,1.3403473E0,1.1433578E1,1.5243872E1,2.3427753E1,1.4766937E1,4.739685E0,6.187731E0,1.0764448E1,8.503666E0,0E0,0E0,1.4660624E1,2.66716E0,5.908907E0,0E0,0E0,0E0,1.1370961E1,0E0,3.6027033E0,6.965004E0,1.7295254E1,3.3374271E0,7.710205E0,0E0,0E0,0E0,0E0,8.108234E0,1.6177238E1,7.910104E0,0E0,0E0,1.1818754E1,0E0,0E0,7.6107025E-1,0E0,0E0,7.1299057E0,0E0,0E0,0E0,0E0,1.0773239E0,0E0,0E0,0E0,0E0,3.3967186E1,4.3959656E0,0E0,0E0,0E0,5.3556075E0,4.739297E0,2.5439386E0,1.4440121E1,0E0,5.321991E0,0E0,0E0,0E0,0E0,0E0,0E0,0E0,0E0,0E0,0E0,0E0,0E0,0E0,0E0,0E0,0E0,0E0,0E0,0E0],"parents":[2147483647,0,0,1,1,2,2,3,3,4,4,5,5,6,6,7,7,8,8,9,9,10,10,11,11,13,13,14,14,15,15,16,16,17,17,18,18,19,19,20,20,21,21,22,22,23,23,24,24,27,27,28,28,29,29,33,33,35,35,36,36,37,37,38,38,39,39,44,44,45,45,46,46,49,49,52,52,55,55,60,60,65,65,66,66,70,70,71,71,72,72,73,73,75,75],"right_children":[2,4,6,8,10,12,14,16,18,20,22,24,-1,26,28,30,32,34,36,38,40,42,44,46,48,-1,-1,50,52,54,-1,-1,-1,56,-1,58,60,62,64,66,-1,-1,-1,-1,68,70,72,-1,-1,74,-1,-1,76,-1,-1,78,-1,-1,-1,-1,80,-1,-1,-1,-1,82,84,-1,-1,-1,86,88,90,92,-1,94,-1,-1,-1,-1,-1,-1,-1,-1,-1,-1,-1,-1,-1,-1,-1,-1,-1,-1,-1],"split_conditions":[3.27E0,6.65995E3,1.3880562E0,1E0,-1.79E0,7.04665E3,-5.944E2,3.55302E-1,5.847217E2,-1.85E0,-1.73523E3,5.906939E-1,-2.754736E-2,4.3212315E1,6.622064E-1,4.54E0,-1.169805E3,1.0854557E2,1.1820069E-1,-1.73523E3,-2.16E0,6.91317E3,9.7875E-1,9.970833E-1,4.3166667E-1,2.6232209E-2,4.87937E-2,2.905E1,2.051E1,6.66109E3,1.0210277E-2,5.6879506E-3,2.0135129E-2,5.521622E-1,1.9718673E-2,6.7800426E-1,-2.064E1,7.82E-1,6.74522E3,-6.8558335E0,-6.7713996E-3,3.5934858E-2,5.4491647E-3,-2.4101246E-2,4.4E-1,4.6347517E-1,6.471462E-2,1.7182542E-3,3.6587507E-2,1.1167605E1,3.5472736E-2,2.1858465E-2,-1.012E1,1.7437012E-3,-2.5464287E-2,-1.7404547E4,2.1925613E-2,1.3436073E-2,-8.084935E-3,-3.5529172E-3,-5E-3,-2.0840492E-2,2.3861427E-2,-1.1338758E-2,-3.907958E-2,-1.771E1,-3.816E1,1.693186E-2,-1.6759632E-2,-3.9554436E-2,3.722105E0,1.4498E2,3.32E-1,6.9841046E0,2.5100926E-2,2.774631E0,5.1413916E-2,-8.272314E-4,-1.1570304E-2,-2.0326752E-2,-4.306349E-2,-3.741993E-2,1.3141973E-2,-1.5799608E-2,-4.3515835E-2,-1.0788126E-2,1.693186E-2,4.7780736E-3,-1.1017303E-2,8.5543925E-3,2.5838649E-2,1.1410667E-2,-1.7489998E-2,4.673312E-2,1.6486503E-2],"split_indices":[107,22,171,212,107,1,68,51,179,13,68,213,0,203,213,113,71,178,51,68,105,1,86,86,155,0,0,107,133,93,0,0,0,213,0,54,195,103,8,155,0,0,0,0,120,109,54,0,0,168,0,0,129,0,0,160,0,0,0,0,102,0,0,0,0,105,31,0,0,0,152,44,102,168,0,152,0,0,0,0,0,0,0,0,0,0,0,0,0,0,0,0,0,0,0],"split_type":[0,0,0,0,0,0,0,0,0,0,0,0,0,0,0,0,0,0,0,0,0,0,0,0,0,0,0,0,0,0,0,0,0,0,0,0,0,0,0,0,0,0,0,0,0,0,0,0,0,0,0,0,0,0,0,0,0,0,0,0,0,0,0,0,0,0,0,0,0,0,0,0,0,0,0,0,0,0,0,0,0,0,0,0,0,0,0,0,0,0,0,0,0,0,0],"sum_hessian":[1.1473969E3,7.060543E2,4.4134244E2,4.0259143E2,3.0346292E2,1.9962097E2,2.4172148E2,8.319535E1,3.193961E2,2.423449E2,6.1118023E1,1.8463365E2,1.4987316E1,7.079114E1,1.7093034E2,4.083288E1,4.236247E1,2.568807E2,6.251537E1,5.551541E1,1.8682948E2,2.1559065E1,3.9558956E1,1.5756895E2,2.70647E1,1.4498653E1,5.6292484E1,9.832183E1,7.2608505E1,2.4407286E1,1.6425594E1,1.3779514E1,2.8582952E1,2.3982729E2,1.7053425E1,2.3589909E1,3.892546E1,2.8863808E1,2.6651604E1,1.6699522E2,1.9834265E1,1.1157364E1,1.0401701E1,1.782861E1,2.1730349E1,3.15716E1,1.2599736E2,1.1669955E1,1.5394744E1,8.0031006E1,1.8290823E1,1.8126467E1,5.448204E1,1.3224732E1,1.1182553E1,2.2799297E2,1.1834312E1,1.1243006E1,1.2346904E1,1.0060393E1,2.8865067E1,1.0450819E1,1.8412989E1,1.0005608E1,1.6645996E1,5.940015E1,1.0759508E2,1.022475E1,1.1505599E1,1.0822984E1,2.0748617E1,8.415315E1,4.1844208E1,6.002672E1,2.0004288E1,2.9856874E1,2.4625168E1,1.2183995E2,1.06153015E2,1.3523849E1,1.5341218E1,4.5029327E1,1.4370821E1,1.0487343E1,9.7107735E1,1.0523867E1,1.022475E1,6.3087154E1,2.1065994E1,2.5772516E1,1.6071692E1,3.5460747E1,2.4565975E1,1.2839973E1,1.7016901E1],"tree_param":{"num_deleted":"0","num_feature":"222","num_nodes":"95","size_leaf_vector":"1"}},{"base_weights":[-2.8353333E-4,-3.7469095E-1,5.873187E-1,-1.0487763E-1,-7.388319E-1,7.751388E-2,1.0042117E0,7.0010625E-2,-3.6403444E-1,-9.1772896E-1,-2.6343161E-2,-3.3123683E-2,7.568304E-1,1.365274E0,6.663513E-1,-5.1759744E-1,1.7728665E-1,-2.6121706E-1,-3.0475741E-2,-6.0885847E-1,-1.2452092E0,6.706901E-1,-4.5675987E-1,2.5403377E-1,-2.8240797E-1,1.6250208E-3,3.2995194E-2,1.4629482E0,1.1274582E-2,-0E0,1.13889E0,-8.767903E-1,5.0419946E-3,5.493951E-1,-5.3287465E-3,-1.6331056E-1,-6.234607E-1,-1.3641413E0,-2.8258878E-1,-7.285062E-1,-1.4476222E0,2.520472E-3,3.3198524E-2,6.4599896E-3,-7.864612E-1,-5.6293342E-2,5.494845E-1,6.2569883E-3,-4.7102827E-1,4.6109963E-2,1.8548781E-2,-3.888276E-1,3.354246E-2,1.194153E-2,1.2854136E0,-3.281511E-2,-1.3271932E-2,-3.4819047E-3,7.6008993E-1,-1.17358506E-1,4.853324E-1,1.4198172E-1,-3.1879961E-1,-2.5272444E-2,-7.061791E-3,-2.2821473E-2,-4.73869E-2,4.773061E-1,-6.196517E-1,-3.6391564E-2,-2.7737895E-3,-4.827674E-2,-2.009335E-2,-2.8460638E-3,-3.6181845E-2,-8.890283E-3,5.4222243E-3,2.7868895E-2,1.647208E-1,4.156265E-3,-5.9249693E-1,1.3119984E-2,-7.729243E-1,4.441163E-2,7.775355E-1,3.236423E-2,1.3045158E-2,-6.3453172E-3,1.3864044E-2,2.8084086E-3,2.1912113E-2,-1.1919307E-3,1.7722433E-2,-1.3194258E-2,8.785001E-3,-9.643123E-3,2.9582225E-2,4.8035583E-3,-2.3960376E-2,-0E0,8.635943E-3,-3.0075848E-2,-8.4528085E-3,-3.589554E-2,-4.531624E-3,8.717608E-3,3.293604E-2],"categories":[],"categories_nodes":[],"categories_segments":[],"categories_sizes":[],"default_left":[0,0,0,0,0,0,0,0,0,0,0,0,0,0,0,0,0,0,0,0,0,0,0,0,0,0,0,0,0,0,0,0,0,0,0,0,0,0,0,0,0,0,0,0,0,0,0,0,0,0,0,0,0,0,0,0,0,0,0,0,0,0,0,0,0,0,0,0,0,0,0,0,0,0,0,0,0,0,0,0,0,0,0,0,0,0,0,0,0,0,0,0,0,0,0,0,0,0,0,0,0,0,0,0,0,0,0],"id":1,"left_children":[1,3,5,7,9,11,13,15,17,19,21,23,25,27,29,31,33,35,-1,37,39,41,43,45,47,-1,-1,49,-1,51,53,55,-1,57,59,61,63,65,67,69,71,-1,-1,-1,73,75,77,-1,79,-1,-1,81,-1,-1,83,-1,-1,-1,85,87,89,91,93,-1,-1,-1,-1,95,97,-1,-1,-1,-1,-1,-1,-1,-1,-1,99,-1,101,-1,103,-1,105,-1,-1,-1,-1,-1,-1,-1,-1,-1,-1,-1,-1,-1,-1,-1,-1,-1,-1,-1,-1,-1,-1],"loss_changes":[2.510503E2,6.798409E1,9.362315E1,1.8506182E1,3.7192535E1,1.5620398E1,2.6860825E1,1.5249889E1,9.837557E0,2.1415115E1,1.910691E1,1.27059765E1,6.307276E0,9.100311E0,4.1392437E1,9.787729E0,1.4317225E1,4.553109E0,0E0,2.9476433E1,8.494431E0,5.365963E0,9.480013E0,7.788277E0,9.191637E0,0E0,0E0,3.499466E0,0E0,2.4926075E1,6.443924E0,6.353054E-1,0E0,1.0163719E1,7.6073785E0,5.7856894E0,1.5371552E0,1.242981E0,2.3979582E1,1.0275595E1,6.4595337E0,0E0,0E0,0E0,7.17087E0,2.485148E0,5.3967915E0,0E0,5.611143E0,0E0,0E0,1.4523464E1,0E0,0E0,2.752411E0,0E0,0E0,0E0,3.8191528E0,6.407253E0,1.9013267E0,3.5969715E0,6.248948E0,0E0,0E0,0E0,0E0,1.2607344E1,9.563679E0,0E0,0E0,0E0,0E0,0E0,0E0,0E0,0E0,0E0,4.3394864E-1,0E0,6.418228E0,0E0,7.0157833E0,0E0,2.1378345E0,0E0,0E0,0E0,0E0,0E0,0E0,0E0,0E0,0E0,0E0,0E0,0E0,0E0,0E0,0E0,0E0,0E0,0E0,0E0,0E0,0E0,0E0],"parents":[2147483647,0,0,1,1,2,2,3,3,4,4,5,5,6,6,7,7,8,8,9,9,10,10,11,11,12,12,13,13,14,14,15,15,16,16,17,17,19,19,20,20,21,21,22,22,23,23,24,24,27,27,29,29,30,30,31,31,33,33,34,34,35,35,36,36,37,37,38,38,39,39,40,40,44,44,45,45,46,46,48,48,51,51,54,54,58,58,59,59,60,60,61,61,62,62,67,67,68,68,78,78,80,80,82,82,84,84],"right_children":[2,4,6,8,10,12,14,16,18,20,22,24,26,28,30,32,34,36,-1,38,40,42,44,46,48,-1,-1,50,-1,52,54,56,-1,58,60,62,64,66,68,70,72,-1,-1,-1,74,76,78,-1,80,-1,-1,82,-1,-1,84,-1,-1,-1,86,88,90,92,94,-1,-1,-1,-1,96,98,-1,-1,-1,-1,-1,-1,-1,-1,-1,100,-1,102,-1,104,-1,106,-1,-1,-1,-1,-1,-1,-1,-1,-1,-1,-1,-1,-1,-1,-1,-1,-1,-1,-1,-1,-1,-1],"split_conditions":[3.27E0,6.65995E3,9.602782E0,3.14E0,-1.42E0,1.6405642E0,1.0037E2,-4.8075E0,7.460699E-14,-8.5191E2,-1.96645E3,1.4368E2,-2.8534153E3,8.418512E0,7.424323E-2,6.8365E3,6.689E3,4.8738462E-1,-3.0475741E-2,-3.542E1,6.77597E3,5.102222E-1,-2.8173E1,2.2212942E-3,4.1541383E-1,1.6250208E-3,3.2995194E-2,2.6185005E1,1.1274582E-2,2.905E1,9.89E0,2.5384376E0,5.0419946E-3,-3.741085E4,6.92949E3,2.99E-1,7.02E-1,-4.8853E3,-1.85E0,8.688742E1,2.0356288E0,2.520472E-3,3.3198524E-2,6.4599896E-3,1.1721567E1,4.75E2,4.852E1,6.2569883E-3,-1.38E1,4.6109963E-2,1.8548781E-2,-9.855883E1,3.354246E-2,1.194153E-2,1.1264668E0,-3.281511E-2,-1.3271932E-2,-3.4819047E-3,2.3651423E0,-4.9E-1,-2.565E1,-5.63E-1,2.8978902E-1,-2.5272444E-2,-7.061791E-3,-2.2821473E-2,-4.73869E-2,1.0249198E3,1.7045486E1,-3.6391564E-2,-2.7737895E-3,-4.827674E-2,-2.009335E-2,-2.8460638E-3,-3.6181845E-2,-8.890283E-3,5.4222243E-3,2.7868895E-2,8.233651E-2,4.156265E-3,5.000525E-1,1.3119984E-2,6.75167E3,4.441163E-2,5.417E1,3.236423E-2,1.3045158E-2,-6.3453172E-3,1.3864044E-2,2.8084086E-3,2.1912113E-2,-1.1919307E-3,1.7722433E-2,-1.3194258E-2,8.785001E-3,-9.643123E-3,2.9582225E-2,4.8035583E-3,-2.3960376E-2,-0E0,8.635943E-3,-3.0075848E-2,-8.4528085E-3,-3.589554E-2,-4.531624E-3,8.717608E-3,3.293604E-2],"split_indices":[107,22,178,70,106,162,68,167,197,68,68,44,160,152,214,38,2,51,0,105,20,51,162,54,60,0,0,192,0,107,106,77,0,84,93,101,101,68,13,203,77,0,0,0,196,16,49,0,193,0,0,202,0,0,221,0,0,0,77,119,137,102,51,0,0,0,0,161,175,0,0,0,0,0,0,0,0,0,214,0,110,0,8,0,64,0,0,0,0,0,0,0,0,0,0,0,0,0,0,0,0,0,0,0,0,0,0],"split_type":[0,0,0,0,0,0,0,0,0,0,0,0,0,0,0,0,0,0,0,0,0,0,0,0,0,0,0,0,0,0,0,0,0,0,0,0,0,0,0,0,0,0,0,0,0,0,0,0,0,0,0,0,0,0,0,0,0,0,0,0,0,0,0,0,0,0,0,0,0,0,0,0,0,0,0,0,0,0,0,0,0,0,0,0,0,0,0,0,0,0,0,0,0,0,0,0,0,0,0,0,0,0,0,0,0,0,0],"sum_hessian":[1.1376068E3,6.958206E2,4.4178622E2,4.019451E2,2.9387552E2,2.0035269E2,2.4143353E2,2.3971036E2,1.6223474E2,2.3387462E2,6.00009E1,1.7329523E2,2.7057457E1,1.13054E2,1.2837953E2,3.5105904E1,2.0460446E2,1.4321315E2,1.9021587E1,1.24085655E2,1.09788956E2,2.2036316E1,3.7964584E1,7.958046E1,9.371477E1,1.0113413E1,1.6944044E1,1.0156553E2,1.1488471E1,5.383467E1,7.454486E1,2.3150158E1,1.1955746E1,6.693487E1,1.3766959E2,1.1611245E2,2.7100697E1,3.5051136E1,8.9034515E1,3.4187195E1,7.560177E1,1.0899766E1,1.113655E1,1.2223778E1,2.5740807E1,3.8777287E1,4.0803177E1,2.521594E1,6.849883E1,9.132756E1,1.0237969E1,4.11091E1,1.2725572E1,1.4099904E1,6.0444954E1,1.2644872E1,1.0505286E1,1.5741644E1,5.1193226E1,1.14147606E2,2.3521984E1,3.815526E1,7.79572E1,1.5004749E1,1.2095946E1,1.2216024E1,2.2835112E1,2.664619E1,6.238833E1,1.7928583E1,1.625861E1,6.0294666E1,1.5307099E1,1.1095995E1,1.4644813E1,2.0065506E1,1.871178E1,1.8464275E1,2.23389E1,1.0651025E1,5.7847805E1,1.2545596E1,2.8563503E1,4.0198574E1,2.0246382E1,2.2739521E1,2.8453705E1,1.000285E2,1.4119104E1,1.0901448E1,1.2620536E1,2.766287E1,1.0492386E1,6.623268E1,1.1724517E1,1.0272485E1,1.6373705E1,1.1167161E1,5.1221165E1,1.1132847E1,1.1206053E1,2.232598E1,3.5521828E1,1.541277E1,1.3150733E1,1.0166737E1,1.0079646E1],"tree_param":{"num_deleted":"0","num_feature":"222","num_nodes":"107","size_leaf_vector":"1"}},{"base_weights":[-1.14886E-2,-3.793402E-1,5.642468E-1,-9.264605E-1,-2.3728922E-1,6.33491E-2,9.5035344E-1,-5.601321E-1,-1.2357727E0,-1.9485907E-1,-4.258882E-2,-6.291161E-2,7.2047174E-1,4.7041407E-1,1.1592138E0,-1.2352717E0,-0E0,-1.3705058E0,-1.2646319E-2,-1.8535467E-2,-4.321281E-1,2.4143409E-2,-1.3378684E-1,3.97811E-2,1.3758707E-3,8.4267926E-1,-2.3380002E-1,1.2710252E0,-1.9752663E-3,-1.7132787E-2,-4.5755245E-2,4.9562407E-1,-2.7124383E-2,-1.8846551E-2,-4.4431303E-2,2.1101287E-2,-6.4510815E-2,-6.2985265E-1,-8.864747E-2,1.8920302E-1,-3.2885674E-1,1.2180126E0,2.2401085E-1,-2.37313E-2,4.250065E-3,1.7971047E-3,1.356198E0,3.0180776E-2,-7.2653294E-3,4.7020984E-1,-1.3956699E-1,-3.311833E-1,-9.2018294E-1,-6.3556576E-1,1.785572E-1,-9.680448E-3,4.2828754E-1,-5.232543E-1,1.0174748E-1,4.3257616E-2,1.9805236E-2,-1.2061306E-2,2.6357673E-2,1.4520468E0,1.766685E-2,2.0518769E-2,4.8219776E-3,-1.9953097E-3,-1.8928949E-2,1.6868963E-3,-1.5279266E-2,-7.6258644E-3,-3.2597113E-2,-5.3243903E-3,-2.8123882E-2,-3.9339787E-3,2.3522047E-2,1.898259E-2,1.6628666E-3,-3.0185655E-2,-9.020552E-3,6.106933E-3,-7.631996E-4,4.530138E-2,1.8279295E-2],"categories":[],"categories_nodes":[],"categories_segments":[],"categories_sizes":[],"default_left":[0,0,0,0,0,0,0,0,0,0,0,0,0,0,0,0,0,0,0,0,0,0,0,0,0,0,0,0,0,0,0,0,0,0,0,0,0,0,0,0,0,0,0,0,0,0,0,0,0,0,0,0,0,0,0,0,0,0,0,0,0,0,0,0,0,0,0,0,0,0,0,0,0,0,0,0,0,0,0,0,0,0,0,0,0],"id":2,"left_children":[1,3,5,7,9,11,13,15,17,19,-1,21,23,25,27,29,31,33,-1,35,37,-1,39,-1,-1,41,43,45,-1,-1,-1,47,-1,-1,-1,-1,49,51,53,55,57,59,61,-1,-1,-1,63,-1,-1,65,67,69,71,73,75,-1,77,79,81,-1,-1,-1,-1,83,-1,-1,-1,-1,-1,-1,-1,-1,-1,-1,-1,-1,-1,-1,-1,-1,-1,-1,-1,-1,-1],"loss_changes":[2.418114E2,5.3181297E1,8.539145E1,1.3845848E1,2.6586601E1,1.670721E1,2.3200653E1,2.591634E1,6.151741E0,2.2371536E1,0E0,1.0080676E1,1.2444481E1,2.1680487E1,2.4387512E1,3.2340965E0,1.9072342E1,2.2327423E0,0E0,1.0172373E1,1.5090546E1,0E0,9.997615E0,0E0,0E0,1.1100067E1,6.570234E0,1.5476807E1,0E0,0E0,0E0,1.1067051E1,0E0,0E0,0E0,0E0,1.1889694E1,1.1266186E1,1.3164202E1,7.536625E0,8.579489E0,1.0662727E0,1.039628E1,0E0,0E0,0E0,8.123352E0,0E0,0E0,1.7528963E0,9.005098E0,5.462041E0,6.659504E0,3.2026234E0,1.166484E1,0E0,2.762385E0,6.1718216E0,5.083039E-1,0E0,0E0,0E0,0E0,3.417694E0,0E0,0E0,0E0,0E0,0E0,0E0,0E0,0E0,0E0,0E0,0E0,0E0,0E0,0E0,0E0,0E0,0E0,0E0,0E0,0E0,0E0],"parents":[2147483647,0,0,1,1,2,2,3,3,4,4,5,5,6,6,7,7,8,8,9,9,11,11,12,12,13,13,14,14,15,15,16,16,17,17,19,19,20,20,22,22,25,25,26,26,27,27,31,31,36,36,37,37,38,38,39,39,40,40,41,41,42,42,46,46,49,49,50,50,51,51,52,52,53,53,54,54,56,56,57,57,58,58,63,63],"right_children":[2,4,6,8,10,12,14,16,18,20,-1,22,24,26,28,30,32,34,-1,36,38,-1,40,-1,-1,42,44,46,-1,-1,-1,48,-1,-1,-1,-1,50,52,54,56,58,60,62,-1,-1,-1,64,-1,-1,66,68,70,72,74,76,-1,78,80,82,-1,-1,-1,-1,84,-1,-1,-1,-1,-1,-1,-1,-1,-1,-1,-1,-1,-1,-1,-1,-1,-1,-1,-1,-1,-1],"split_conditions":[3.05E0,-2.776E1,7.154109E-7,-8.5191E2,6.96267E3,1.0928643E-3,9.96E0,-2.4543543E-1,1.27575E1,6.2E-1,-4.258882E-2,3.8494936E-1,5.123E1,3.1658332E0,1.0518693E1,-1.3E-1,4.3849777E1,5.26E0,-1.2646319E-2,9.608333E-1,-5.5421333E3,2.4143409E-2,6.6555E3,3.97811E-2,1.3758707E-3,3.461E2,-1.23E0,6.73965E3,-1.9752663E-3,-1.7132787E-2,-4.5755245E-2,1.24031166E2,-2.7124383E-2,-1.8846551E-2,-4.4431303E-2,2.1101287E-2,1.3E-1,2.0489178E-6,-2.1390225E2,-1.46125E1,1.41E1,8.308E0,6.88575E3,-2.37313E-2,4.250065E-3,1.7971047E-3,3.958408E2,3.0180776E-2,-7.2653294E-3,6.88521E3,8.678333E0,5.992E1,-4.3749172E-2,2.42E-1,-4.3E-1,-9.680448E-3,6.89887E3,6.614059E-1,7.4E-2,4.3257616E-2,1.9805236E-2,-1.2061306E-2,2.6357673E-2,2.4418462E3,1.766685E-2,2.0518769E-2,4.8219776E-3,-1.9953097E-3,-1.8928949E-2,1.6868963E-3,-1.5279266E-2,-7.6258644E-3,-3.2597113E-2,-5.3243903E-3,-2.8123882E-2,-3.9339787E-3,2.3522047E-2,1.898259E-2,1.6628666E-3,-3.0185655E-2,-9.020552E-3,6.106933E-3,-7.631996E-4,4.530138E-2,1.8279295E-2],"split_indices":[105,28,164,68,18,221,105,58,197,70,0,60,49,155,152,33,173,135,0,86,158,0,42,0,0,68,115,7,0,0,0,162,0,0,0,0,72,152,198,85,139,103,42,0,0,0,180,0,0,9,190,49,55,102,165,0,36,60,4,0,0,0,0,157,0,0,0,0,0,0,0,0,0,0,0,0,0,0,0,0,0,0,0,0,0],"split_type":[0,0,0,0,0,0,0,0,0,0,0,0,0,0,0,0,0,0,0,0,0,0,0,0,0,0,0,0,0,0,0,0,0,0,0,0,0,0,0,0,0,0,0,0,0,0,0,0,0,0,0,0,0,0,0,0,0,0,0,0,0,0,0,0,0,0,0,0,0,0,0,0,0,0,0,0,0,0,0,0,0,0,0,0,0],"sum_hessian":[1.1381921E3,6.95421E2,4.4277106E2,1.4033727E2,5.550838E2,1.943122E2,2.4845885E2,6.7560936E1,7.277633E1,5.385109E2,1.6572844E1,1.6387299E2,3.0439215E1,7.803684E1,1.70422E2,2.928715E1,3.8273785E1,6.0744297E1,1.203203E1,3.113778E2,2.2713312E2,1.0278142E1,1.5359485E2,1.4632168E1,1.5807047E1,5.1257572E1,2.677927E1,1.5647368E2,1.3948328E1,1.1227997E1,1.8059153E1,2.5080515E1,1.319327E1,1.0192055E1,5.0552242E1,1.6279612E1,2.950982E2,1.4216989E2,8.496322E1,5.6892014E1,9.670283E1,3.0193863E1,2.1063707E1,1.04251175E1,1.6354153E1,1.0890615E1,1.4558305E2,1.4795664E1,1.0284852E1,3.4207E1,2.608912E2,7.303784E1,6.913206E1,2.7595152E1,5.736807E1,1.722415E1,3.9667866E1,6.7128365E1,2.9574465E1,1.8644314E1,1.1549548E1,1.0770391E1,1.0293316E1,1.2725088E2,1.8332186E1,1.7845669E1,1.636133E1,2.29987E2,3.0904205E1,2.255141E1,5.0486427E1,1.5430403E1,5.3701653E1,1.28814E1,1.4713751E1,3.844594E1,1.8922129E1,2.3852661E1,1.5815204E1,1.824721E1,4.8881157E1,1.7941782E1,1.1632683E1,1.1702026E2,1.0230609E1],"tree_param":{"num_deleted":"0","num_feature":"222","num_nodes":"85","size_leaf_vector":"1"}},{"base_weights":[-1.0309382E-2,-3.7879112E-1,5.772274E-1,-2.6007387E-1,-1.118585E0,1.0056135E-1,9.6480656E-1,-6.0825986E-1,-1.10811315E-1,-7.679691E-3,-1.2606356E0,1.7215706E-1,-2.152206E-2,4.3007586E-2,7.5299627E-1,-1.2757661E0,-2.3726374E-1,5.4214664E-2,-3.4699905E-1,-1.87549E-2,-1.3893311E0,-2.8261667E-1,2.5740838E-1,1.4101572E-1,1.0258052E0,-1.4418006E0,-1.4799127E-2,-4.2034872E-2,-9.066458E-1,2.6483092E-2,-1.9971453E-2,-2.2857386E-1,-1.0702724E0,-1.510955E0,-2.2280874E-2,1.2273983E-2,-2.554146E-2,3.6985938E-2,1.4248243E-1,-1.9384432E-1,3.0400574E-2,-0E0,1.1632259E0,-2.24481E-2,-4.7247022E-2,-3.1126767E-1,5.5800873E-1,-3.6542103E-2,-1.2269933E-2,-5.85956E-1,9.049291E-2,-3.1169343E-1,1.8727077E-2,-4.1235384E-2,-1.6830146E-2,-4.910986E-2,-2.3390293E-2,-7.9202786E-2,2.729387E-1,1.2417097E-2,-5.258081E-1,1.2692565E0,8.453043E-3,-2.9743535E-2,6.234309E-4,3.4131594E-2,-1.0547913E-3,-2.658934E-2,-2.4168312E-3,1.0957813E-2,-2.510403E-3,-1.1437485E-2,9.189599E-3,-9.812768E-3,7.764582E-3,3.8148316E-3,2.0769697E-2,-2.9389711E-2,-0E0,4.3995712E-2,2.3081247E-2],"categories":[],"categories_nodes":[],"categories_segments":[],"categories_sizes":[],"default_left":[0,0,0,0,0,0,0,0,0,0,0,0,0,0,0,0,0,0,0,0,0,0,0,0,0,0,0,0,0,0,0,0,0,0,0,0,0,0,0,0,0,0,0,0,0,0,0,0,0,0,0,0,0,0,0,0,0,0,0,0,0,0,0,0,0,0,0,0,0,0,0,0,0,0,0,0,0,0,0,0,0],"id":3,"left_children":[1,3,5,7,9,11,13,15,17,-1,19,21,-1,-1,23,25,27,29,31,-1,33,35,37,39,41,43,-1,45,47,-1,49,51,53,55,-1,-1,-1,-1,57,59,-1,-1,61,-1,-1,63,65,-1,-1,67,69,71,-1,-1,-1,-1,-1,73,75,-1,77,79,-1,-1,-1,-1,-1,-1,-1,-1,-1,-1,-1,-1,-1,-1,-1,-1,-1,-1,-1],"loss_changes":[2.4817468E2,6.0669342E1,8.083829E1,3.1256092E1,1.0400688E1,1.17340975E1,2.0845276E1,4.367456E1,1.6985615E1,0E0,3.9379425E0,7.37587E0,0E0,0E0,2.786177E1,5.928444E0,1.5109288E1,1.6094297E1,1.4177919E1,0E0,1.792511E0,1.2532097E1,1.681927E1,1.7146519E1,1.6288506E1,1.2127304E0,0E0,1.56439E1,2.2788124E0,0E0,1.503072E1,1.1347496E1,1.2120533E0,1.0944443E0,0E0,0E0,0E0,0E0,4.3401566E0,8.903323E0,0E0,0E0,8.222519E0,0E0,0E0,1.5827113E1,1.0845292E1,0E0,0E0,5.3457575E0,9.649385E0,6.492938E0,0E0,0E0,0E0,0E0,0E0,4.72258E0,5.118034E0,0E0,6.481521E0,5.667221E0,0E0,0E0,0E0,0E0,0E0,0E0,0E0,0E0,0E0,0E0,0E0,0E0,0E0,0E0,0E0,0E0,0E0,0E0,0E0],"parents":[2147483647,0,0,1,1,2,2,3,3,4,4,5,5,6,6,7,7,8,8,10,10,11,11,14,14,15,15,16,16,17,17,18,18,20,20,21,21,22,22,23,23,24,24,25,25,27,27,28,28,30,30,31,31,32,32,33,33,38,38,39,39,42,42,45,45,46,46,49,49,50,50,51,51,57,57,58,58,60,60,61,61],"right_children":[2,4,6,8,10,12,14,16,18,-1,20,22,-1,-1,24,26,28,30,32,-1,34,36,38,40,42,44,-1,46,48,-1,50,52,54,56,-1,-1,-1,-1,58,60,-1,-1,62,-1,-1,64,66,-1,-1,68,70,72,-1,-1,-1,-1,-1,74,76,-1,78,80,-1,-1,-1,-1,-1,-1,-1,-1,-1,-1,-1,-1,-1,-1,-1,-1,-1,-1,-1],"split_conditions":[3.27E0,1.296E2,1.3880562E0,0E0,-2.9853333E1,7.04665E3,-6.3949E2,-2.851E1,4.8666668E-1,-7.679691E-3,-1.9519333E2,4.610959E-1,-2.152206E-2,4.3007586E-2,-2.8534153E3,1.30800705E1,2.8577E2,9.6166664E-1,7.3027545E2,-1.87549E-2,1E0,1.0345658E3,-6.3E-1,2.905E1,3.22E0,-2.068E1,-1.4799127E-2,5.418289E0,-4.2E-1,2.6483092E-2,-3.59E0,3.5623846E2,-7.0356E2,9.87283E1,-2.2280874E-2,1.2273983E-2,-2.554146E-2,3.6985938E-2,2.56E-1,1.296E2,3.0400574E-2,-0E0,1.03846E3,-2.24481E-2,-4.7247022E-2,-2.386058E-1,-8.5191E2,-3.6542103E-2,-1.2269933E-2,1.4589E2,6.72275E3,6.93827E3,1.8727077E-2,-4.1235384E-2,-1.6830146E-2,-4.910986E-2,-2.3390293E-2,6.81517E3,2.58268E-1,1.2417097E-2,2.2403008E1,3.0066667E0,8.453043E-3,-2.9743535E-2,6.234309E-4,3.4131594E-2,-1.0547913E-3,-2.658934E-2,-2.4168312E-3,1.0957813E-2,-2.510403E-3,-1.1437485E-2,9.189599E-3,-9.812768E-3,7.764582E-3,3.8148316E-3,2.0769697E-2,-2.9389711E-2,-0E0,4.3995712E-2,2.3081247E-2],"split_indices":[107,68,171,221,191,1,68,14,174,0,183,50,0,0,160,168,125,86,162,0,57,216,96,107,14,191,0,152,69,0,114,182,25,171,0,0,0,0,102,68,0,0,186,0,0,58,68,0,0,44,40,2,0,0,0,0,0,2,54,0,175,197,0,0,0,0,0,0,0,0,0,0,0,0,0,0,0,0,0,0,0],"split_type":[0,0,0,0,0,0,0,0,0,0,0,0,0,0,0,0,0,0,0,0,0,0,0,0,0,0,0,0,0,0,0,0,0,0,0,0,0,0,0,0,0,0,0,0,0,0,0,0,0,0,0,0,0,0,0,0,0,0,0,0,0,0,0,0,0,0,0,0,0,0,0,0,0,0,0,0,0,0,0,0,0],"sum_hessian":[1.1427599E3,7.032614E2,4.3949844E2,6.089242E2,9.4337204E1,1.9880551E2,2.4069293E2,1.79861E2,4.2906323E2,1.4628784E1,7.970842E1,1.848188E2,1.3986715E1,7.058243E1,1.701105E2,6.2029896E1,1.178311E2,2.5224318E2,1.7682005E2,1.6051226E1,6.3657196E1,2.7519682E1,1.5729912E2,5.3951042E1,1.1615947E2,4.9254116E1,1.2775777E1,9.344881E1,2.4382296E1,1.9491493E1,2.3275168E2,1.547976E2,2.202244E1,5.067867E1,1.2978528E1,1.2273958E1,1.5245724E1,1.4070183E1,1.4322894E2,3.969565E1,1.4255391E1,1.4231087E1,1.0192838E2,1.0667972E1,3.8586147E1,6.5745384E1,2.7703424E1,1.2598323E1,1.1783974E1,3.7341743E1,1.9540994E2,1.4274063E2,1.2056975E1,1.1044542E1,1.0977898E1,4.0531925E1,1.0146743E1,5.1932594E1,9.129634E1,1.331647E1,2.6379179E1,8.969216E1,1.2236219E1,2.0757948E1,4.4987434E1,1.3508372E1,1.4195052E1,2.1856024E1,1.5485722E1,7.607458E1,1.1933536E2,1.2971657E2,1.3024066E1,3.0851458E1,2.1081137E1,7.056623E1,2.073011E1,1.29288435E1,1.34503355E1,6.0822258E1,2.8869904E1],"tree_param":{"num_deleted":"0","num_feature":"222","num_nodes":"81","size_leaf_vector":"1"}},{"base_weights":[7.408937E-3,-3.3237052E-1,5.566305E-1,-7.595146E-2,-6.848781E-1,7.704573E-2,9.4868714E-1,5.998451E-2,-2.9267737E-1,-2.4243334E-1,-9.824065E-1,-3.3309966E-2,7.203021E-1,4.361125E-2,7.1742886E-1,-3.886909E-1,1.4859185E-1,-7.8626037E-1,-1.7440149E-1,-9.403444E-1,2.5414768E-1,-4.949839E-1,-1.1934857E0,4.1311353E-2,-2.4430143E-2,-0E0,3.349185E-2,-1.5541804E-1,9.11848E-1,-7.0827305E-1,5.7201236E-3,3.944351E-1,-5.3722214E-2,-1.1578041E-2,-3.6979016E-2,-2.6536214E-1,1.101158E-2,-1.2160556E0,6.549824E-4,6.035418E-1,-3.0002734E-1,-3.782301E-2,-1.0347754E-1,-1.4207276E0,-6.309042E-1,1.9152488E-1,-2.3662755E-1,1.2191635E-2,-1.9529026E-2,1.0548825E0,-1.6657624E-4,-3.1471852E-2,-5.3543155E-3,2.178747E-1,2.8846718E-2,-1.9242147E-1,2.0970881E-2,-8.272883E-2,-6.791285E-1,-1.3880526E-2,-4.6129238E-2,8.3596915E-1,-3.8097156E-3,4.17133E-3,-2.5453279E-2,1.792254E-2,-5.193673E-1,-4.555452E-2,-2.0286893E-2,-3.1386957E-2,-5.540478E-3,3.2409555E-1,-2.7227905E-1,8.322938E-3,-3.9904916E-1,1.1388389E0,2.043334E-3,1.0431491E-2,-5.0423373E-3,-1.0023679E-2,1.55435605E-2,-7.6175495E-3,4.949218E-3,-2.7304161E-2,-6.2216995E-3,3.2828666E-2,3.981037E-3,7.8933727E-4,-3.060478E-2,5.5320994E-3,2.2508508E-2,-1.7631637E-2,5.5500964E-4,-0E0,-1.6536303E-2,3.6603242E-2,7.6244622E-3],"categories":[],"categories_nodes":[],"categories_segments":[],"categories_sizes":[],"default_left":[0,0,0,0,0,0,0,0,0,0,0,0,0,0,0,0,0,0,0,0,0,0,0,0,0,0,0,0,0,0,0,0,0,0,0,0,0,0,0,0,0,0,0,0,0,0,0,0,0,0,0,0,0,0,0,0,0,0,0,0,0,0,0,0,0,0,0,0,0,0,0,0,0,0,0,0,0,0,0,0,0,0,0,0,0,0,0,0,0,0,0,0,0,0,0,0,0],"id":4,"left_children":[1,3,5,7,9,11,13,15,17,19,21,23,25,-1,27,29,31,33,35,37,39,41,43,45,-1,-1,-1,47,49,51,-1,53,55,-1,-1,57,-1,59,-1,61,63,-1,65,67,69,71,73,-1,-1,75,-1,-1,-1,77,-1,79,-1,81,83,-1,-1,85,-1,-1,-1,-1,87,-1,-1,-1,-1,89,91,-1,93,95,-1,-1,-1,-1,-1,-1,-1,-1,-1,-1,-1,-1,-1,-1,-1,-1,-1,-1,-1,-1,-1],"loss_changes":[2.1412137E2,6.350727E1,8.185803E1,1.231599E1,3.801471E1,1.4599349E1,2.4941895E1,1.009307E1,8.639472E0,4.336882E1,1.611084E1,1.0483248E1,8.648842E0,0E0,2.9465775E1,8.214605E0,1.0880449E1,3.5498352E0,6.7040224E0,1.4413647E1,1.4626556E1,1.62669E1,1.263472E1,6.681242E0,0E0,0E0,0E0,9.604972E0,1.8851639E1,4.0189524E0,0E0,8.822111E0,1.236703E1,0E0,0E0,8.271795E0,0E0,7.4534035E0,0E0,8.363813E0,7.5655584E0,0E0,1.2414694E1,2.9528809E0,6.2274857E0,6.6645813E0,4.899414E0,0E0,0E0,9.284973E0,0E0,0E0,0E0,4.121937E0,0E0,1.0526426E1,0E0,3.6726727E0,2.8128939E0,0E0,0E0,5.566963E0,0E0,0E0,0E0,0E0,7.927536E0,0E0,0E0,0E0,0E0,4.226383E0,2.4720843E0,0E0,2.4534512E0,6.632889E0,0E0,0E0,0E0,0E0,0E0,0E0,0E0,0E0,0E0,0E0,0E0,0E0,0E0,0E0,0E0,0E0,0E0,0E0,0E0,0E0,0E0],"parents":[2147483647,0,0,1,1,2,2,3,3,4,4,5,5,6,6,7,7,8,8,9,9,10,10,11,11,12,12,14,14,15,15,16,16,17,17,18,18,19,19,20,20,21,21,22,22,23,23,27,27,28,28,29,29,31,31,32,32,35,35,37,37,39,39,40,40,42,42,43,43,44,44,45,45,46,46,49,49,53,53,55,55,57,57,58,58,61,61,66,66,71,71,72,72,74,74,75,75],"right_children":[2,4,6,8,10,12,14,16,18,20,22,24,26,-1,28,30,32,34,36,38,40,42,44,46,-1,-1,-1,48,50,52,-1,54,56,-1,-1,58,-1,60,-1,62,64,-1,66,68,70,72,74,-1,-1,76,-1,-1,-1,78,-1,80,-1,82,84,-1,-1,86,-1,-1,-1,-1,88,-1,-1,-1,-1,90,92,-1,94,96,-1,-1,-1,-1,-1,-1,-1,-1,-1,-1,-1,-1,-1,-1,-1,-1,-1,-1,-1,-1,-1],"split_conditions":[3.27E0,5E0,1.3880562E0,3.14E0,-1.96645E3,1.6405642E0,-5.944E2,-3.23E0,3.974627E-1,-3.663806E-1,-1.6500671E3,7.04665E3,1E0,4.361125E-2,7.2E0,6.9375E3,6.76175E3,1.8182999E3,4.57E0,-3.9833334E-1,4.758333E0,-2.526E1,-1.4365546E-3,5.4398304E-1,-2.4430143E-2,-0E0,3.349185E-2,1.13277E3,2.5424503E1,1.168E2,5.7201236E-3,-1.012302E4,6.94637E3,-1.1578041E-2,-3.6979016E-2,6.91132E3,1.101158E-2,1.38775E2,6.549824E-4,9.55E0,3.1905617E1,-3.782301E-2,2.526034E1,2.2314104E2,2.0264851E2,2.901706E4,-1.344E1,1.2191635E-2,-1.9529026E-2,5.4421985E2,-1.6657624E-4,-3.1471852E-2,-5.3543155E-3,-1.302E1,2.8846718E-2,1.75E2,2.0970881E-2,1.1315075E-6,1.008E1,-1.3880526E-2,-4.6129238E-2,2.1278035E3,-3.8097156E-3,4.17133E-3,-2.5453279E-2,1.792254E-2,0E0,-4.555452E-2,-2.0286893E-2,-3.1386957E-2,-5.540478E-3,6.764E3,1.2242641E4,8.322938E-3,7.9E-2,9.45E0,2.043334E-3,1.0431491E-2,-5.0423373E-3,-1.0023679E-2,1.55435605E-2,-7.6175495E-3,4.949218E-3,-2.7304161E-2,-6.2216995E-3,3.2828666E-2,3.981037E-3,7.8933727E-4,-3.060478E-2,5.5320994E-3,2.2508508E-2,-1.7631637E-2,5.5500964E-4,-0E0,-1.6536303E-2,3.6603242E-2,7.6244622E-3],"split_indices":[107,134,171,70,68,162,68,163,110,58,162,1,5,0,106,38,2,161,114,155,172,105,58,60,0,0,0,68,194,85,0,84,35,0,0,7,0,85,0,75,171,0,175,141,182,89,75,0,0,182,0,0,0,105,0,15,0,203,75,0,0,161,0,0,0,0,167,0,0,0,0,41,84,0,102,101,0,0,0,0,0,0,0,0,0,0,0,0,0,0,0,0,0,0,0,0,0],"split_type":[0,0,0,0,0,0,0,0,0,0,0,0,0,0,0,0,0,0,0,0,0,0,0,0,0,0,0,0,0,0,0,0,0,0,0,0,0,0,0,0,0,0,0,0,0,0,0,0,0,0,0,0,0,0,0,0,0,0,0,0,0,0,0,0,0,0,0,0,0,0,0,0,0,0,0,0,0,0,0,0,0,0,0,0,0,0,0,0,0,0,0,0,0,0,0,0,0],"sum_hessian":[1.1428175E3,7.0595386E2,4.3686362E2,4.1090503E2,2.9504886E2,1.9814742E2,2.3871622E2,2.5198994E2,1.5891507E2,1.2076834E2,1.7428052E2,1.7008682E2,2.8060595E1,7.097876E1,1.6773746E2,3.9509907E1,2.1248004E2,2.7718565E1,1.3119652E2,4.9882076E1,7.088627E1,5.5403034E1,1.1887748E2,1.563982E2,1.3688631E1,1.0607332E1,1.7453262E1,3.016059E1,1.3757687E2,2.57332E1,1.3776706E1,9.61793E1,1.1630074E2,1.7169558E1,1.0549007E1,1.1399019E2,1.7206326E1,3.876572E1,1.1116356E1,4.39199E1,2.696637E1,1.6808344E1,3.859469E1,8.186892E1,3.7008564E1,1.03098724E2,5.3299465E1,1.38311E1,1.6329489E1,1.1923232E2,1.8344547E1,1.3892747E1,1.1840453E1,7.6128456E1,2.0050842E1,1.0002373E2,1.6277023E1,8.158672E1,3.240346E1,1.3521505E1,2.5244213E1,3.36193E1,1.0300597E1,1.5298947E1,1.1667421E1,1.359982E1,2.499487E1,6.993525E1,1.1933669E1,1.7194605E1,1.981396E1,8.148739E1,2.1611336E1,1.1717953E1,4.1581512E1,1.09132225E2,1.01001E1,5.8082165E1,1.804629E1,8.4862946E1,1.5160779E1,4.9408474E1,3.217825E1,1.9792511E1,1.261095E1,2.3254599E1,1.0364705E1,1.2390405E1,1.2604465E1,6.4413155E1,1.7074236E1,1.0211195E1,1.1400141E1,1.2665206E1,2.8916306E1,9.873849E1,1.0393731E1],"tree_param":{"num_deleted":"0","num_feature":"222","num_nodes":"97","size_leaf_vector":"1"}},{"base_weights":[-3.388201E-3,-3.5650432E-1,4.952851E-1,-8.897164E-2,-7.112193E-1,5.8945376E-2,8.5744125E-1,-4.701271E-2,-2.6641423E-2,-4.1345114E-1,-1.0378988E0,1.343578E-1,-2.8536512E-2,2.1530373E-1,1.0302182E0,5.340142E-1,-1.2472601E-1,-7.451157E-1,3.2728645E-1,-6.4004534E-1,-1.2313792E0,3.709208E-1,-1.1549621E-1,7.5714E-1,-5.0714403E-1,2.3682525E-3,1.1131408E0,7.908971E-1,-3.5570157E-3,1.4019407E-2,-3.3343926E-1,-3.7833158E-2,-4.5296168E-1,-1.3674247E-1,8.9756125E-1,-1.0093987E0,2.8881296E-3,-1.3204426E0,-1.3279334E-2,-0E0,7.6422065E-1,-2.6732184E-2,-2.434257E-3,2.7110027E-3,3.2483745E-2,-3.1628814E-2,6.876011E-3,1.1759824E0,1.1982117E-2,1.5568532E-3,3.32675E-2,-8.804766E-2,5.5390495E-1,-5.8970374E-1,-5.6292735E-2,-8.419458E-1,8.218004E-2,1.0575591E-2,-2.6304817E-2,3.5779133E-2,1.2291365E-2,-3.9531603E-2,-1.0819591E-2,-1.4684724E0,-2.3404289E-2,-1.4186202E-1,1.5121307E-2,4.5751274E-1,3.9871417E-2,-1.2810299E-1,1.4870324E-2,1.2516278E0,1.39069455E-2,1.2327681E-2,-6.808585E-3,2.4274655E-2,-0E0,-1.215615E-2,-3.104194E-2,3.1944616E-3,-1.2386078E-2,-1.218438E-2,-3.8972843E-2,1.9703422E-2,-1.3271838E-2,-2.4296405E-2,-4.7299568E-2,2.3553279E-5,-1.2252002E-2,2.201863E-2,-0E0,4.374154E-3,-1.3254154E-2,1.37395635E-2,3.974419E-2],"categories":[],"categories_nodes":[],"categories_segments":[],"categories_sizes":[],"default_left":[0,0,0,0,0,0,0,0,0,0,0,0,0,0,0,0,0,0,0,0,0,0,0,0,0,0,0,0,0,0,0,0,0,0,0,0,0,0,0,0,0,0,0,0,0,0,0,0,0,0,0,0,0,0,0,0,0,0,0,0,0,0,0,0,0,0,0,0,0,0,0,0,0,0,0,0,0,0,0,0,0,0,0,0,0,0,0,0,0,0,0,0,0,0,0],"id":5,"left_children":[1,3,5,7,9,11,13,15,-1,17,19,21,-1,23,25,27,29,31,33,35,37,39,41,43,45,-1,47,49,-1,51,53,-1,55,57,59,61,-1,63,-1,65,67,-1,69,-1,-1,-1,-1,71,-1,-1,-1,73,75,77,79,81,83,-1,-1,-1,-1,-1,-1,85,-1,87,-1,89,-1,91,-1,93,-1,-1,-1,-1,-1,-1,-1,-1,-1,-1,-1,-1,-1,-1,-1,-1,-1,-1,-1,-1,-1,-1,-1],"loss_changes":[2.009077E2,6.2937317E1,7.4117386E1,1.2334576E1,2.6279587E1,1.6386055E1,2.7498138E1,1.6538393E1,0E0,3.852505E1,7.838669E0,1.2285081E1,0E0,2.349075E1,1.5141403E1,7.734812E0,9.633581E0,1.419577E1,1.3471813E1,1.3978703E1,4.0932007E0,1.5161071E1,8.302425E0,6.640629E0,1.1186922E1,0E0,6.5671387E0,6.7490273E0,0E0,1.1175367E1,8.987771E0,0E0,1.5575422E1,1.102536E1,1.4643173E0,4.863449E0,0E0,2.7434998E0,0E0,4.4181347E0,6.7303524E0,0E0,5.557713E0,0E0,0E0,0E0,0E0,7.051056E0,0E0,0E0,0E0,1.1631916E1,4.3034105E0,3.979683E0,4.1054873E0,6.580324E0,1.0251786E1,0E0,0E0,0E0,0E0,0E0,0E0,3.4623718E-1,0E0,1.9384811E0,0E0,4.2806087E0,0E0,6.6365156E0,0E0,6.6253967E0,0E0,0E0,0E0,0E0,0E0,0E0,0E0,0E0,0E0,0E0,0E0,0E0,0E0,0E0,0E0,0E0,0E0,0E0,0E0,0E0,0E0,0E0,0E0],"parents":[2147483647,0,0,1,1,2,2,3,3,4,4,5,5,6,6,7,7,9,9,10,10,11,11,13,13,14,14,15,15,16,16,17,17,18,18,19,19,20,20,21,21,22,22,23,23,24,24,26,26,27,27,29,29,30,30,32,32,33,33,34,34,35,35,37,37,39,39,40,40,42,42,47,47,51,51,52,52,53,53,54,54,55,55,56,56,63,63,65,65,67,67,69,69,71,71],"right_children":[2,4,6,8,10,12,14,16,-1,18,20,22,-1,24,26,28,30,32,34,36,38,40,42,44,46,-1,48,50,-1,52,54,-1,56,58,60,62,-1,64,-1,66,68,-1,70,-1,-1,-1,-1,72,-1,-1,-1,74,76,78,80,82,84,-1,-1,-1,-1,-1,-1,86,-1,88,-1,90,-1,92,-1,94,-1,-1,-1,-1,-1,-1,-1,-1,-1,-1,-1,-1,-1,-1,-1,-1,-1,-1,-1,-1,-1,-1,-1],"split_conditions":[1.67E0,6.65995E3,1.3880562E0,5.791E1,-8.5191E2,7.04665E3,6.07E0,2.2E2,-2.6641423E-2,-8.96E0,-1.7234749E3,5.123E1,-2.8536512E-2,2.9789E2,6.69681E3,1.909E1,6.82891E3,-3.542E1,1.7043277E0,2.0876522E1,1.6042E2,-4.98125E0,4.6347517E-1,-4.128E1,6.90837E3,2.3682525E-3,4.6842056E3,1.3716E2,-3.5570157E-3,2.49E0,6.91975E3,-3.7833158E-2,6.9558644E0,3.40797E2,1.1754E2,4.972E1,2.8881296E-3,-1.29E0,-1.3279334E-2,6.8225E3,5.6748897E-1,-2.6732184E-2,1.1547006E-2,2.7110027E-3,3.2483745E-2,-3.1628814E-2,6.876011E-3,2.8637158E2,1.1982117E-2,1.5568532E-3,3.32675E-2,-6.525954E-1,3.8353586E3,-4.0423912E-1,6.9884E3,-3.265E3,-1.0641844E3,1.0575591E-2,-2.6304817E-2,3.5779133E-2,1.2291365E-2,-3.9531603E-2,-1.0819591E-2,6.7349E3,-2.3404289E-2,1.4151E2,1.5121307E-2,-4.36525E1,3.9871417E-2,5.003333E-1,1.4870324E-2,-1.6442727E4,1.39069455E-2,1.2327681E-2,-6.808585E-3,2.4274655E-2,-0E0,-1.215615E-2,-3.104194E-2,3.1944616E-3,-1.2386078E-2,-1.218438E-2,-3.8972843E-2,1.9703422E-2,-1.3271838E-2,-2.4296405E-2,-4.7299568E-2,2.3553279E-5,-1.2252002E-2,2.201863E-2,-0E0,4.374154E-3,-1.3254154E-2,1.37395635E-2,3.974419E-2],"split_indices":[107,22,171,67,68,1,106,16,0,107,162,49,0,68,1,117,94,105,77,218,63,85,109,12,7,0,162,44,0,167,0,0,154,162,66,67,0,106,0,37,60,0,192,0,0,0,0,198,0,0,0,213,98,213,0,68,162,0,0,0,0,0,0,20,0,44,0,174,0,60,0,158,0,0,0,0,0,0,0,0,0,0,0,0,0,0,0,0,0,0,0,0,0,0,0],"split_type":[0,0,0,0,0,0,0,0,0,0,0,0,0,0,0,0,0,0,0,0,0,0,0,0,0,0,0,0,0,0,0,0,0,0,0,0,0,0,0,0,0,0,0,0,0,0,0,0,0,0,0,0,0,0,0,0,0,0,0,0,0,0,0,0,0,0,0,0,0,0,0,0,0,0,0,0,0,0,0,0,0,0,0,0,0,0,0,0,0,0,0,0,0,0,0],"sum_hessian":[1.1373289E3,6.6676086E2,4.7056796E2,3.8231955E2,2.844413E2,2.1510605E2,2.5546191E2,3.658523E2,1.6467264E1,1.5197655E2,1.3246478E2,2.0223724E2,1.2868812E1,5.5728664E1,1.9973325E2,4.101615E1,3.2483615E2,1.0543244E2,4.6544098E1,4.7006256E1,8.545853E1,1.0441175E2,9.782549E1,3.2185543E1,2.3543123E1,1.6811205E1,1.8292204E2,2.9676533E1,1.1339619E1,1.9480588E2,1.3003026E2,3.509848E1,7.033396E1,2.6017494E1,2.0526604E1,3.1261875E1,1.574438E1,7.5006645E1,1.0451881E1,5.5384792E1,4.902696E1,1.0132713E1,8.769278E1,1.1903481E1,2.028206E1,1.3400878E1,1.0142245E1,1.6628548E2,1.6636568E1,1.0101544E1,1.957499E1,1.6446161E2,3.0344278E1,6.5451065E1,6.457919E1,4.0605972E1,2.9727991E1,1.5886712E1,1.0130781E1,1.0351313E1,1.0175292E1,1.9270391E1,1.1991484E1,5.5452675E1,1.9553967E1,4.3607357E1,1.1777434E1,3.46933E1,1.4333659E1,7.2013824E1,1.5678949E1,1.4832098E2,1.7964499E1,3.417678E1,1.3028482E2,1.972947E1,1.0614809E1,4.9764393E1,1.5686671E1,4.4339184E1,2.024001E1,2.3281923E1,1.7324047E1,1.4401832E1,1.532616E1,1.0870224E1,4.458245E1,2.8482279E1,1.512508E1,2.0204226E1,1.4489073E1,3.816592E1,3.3847908E1,1.4323901E1,1.3399709E2],"tree_param":{"num_deleted":"0","num_feature":"222","num_nodes":"95","size_leaf_vector":"1"}},{"base_weights":[2.9869473E-3,-3.1029966E-1,5.016863E-1,-3.0364295E-2,-6.241175E-1,7.9802744E-2,8.578609E-1,-1.6206755E-1,2.0724688E-1,-8.022685E-1,8.97617E-2,-1.8922513E-2,5.118681E-1,9.254254E-1,-7.711671E-3,-6.994401E-1,-9.2261866E-2,6.827034E-1,2.8762236E-2,-2.2019196E-1,-9.405251E-1,-3.610231E-1,4.9517834E-1,-4.219704E-1,1.6238602E-1,3.3449258E-3,2.4134113E-2,3.475534E-1,1.0932307E0,-1.0807669E-3,-3.437665E-2,-3.4448326E-1,3.6165245E-2,1.0698588E-2,3.1513486E-2,-4.156939E-1,1.9407846E-1,2.1658368E-2,-4.975557E-1,-6.789829E-1,-1.2326467E0,4.2171176E-3,-2.5541432E-2,-1.0853506E-2,8.691059E-1,-3.3084784E-2,-3.9577164E-2,-6.0891192E-2,5.834876E-1,6.087471E-1,-1.1635384E-2,1.2275769E0,6.510931E-1,6.370767E-2,-5.2738154E-1,1.3133608E-1,-3.3091825E-1,-2.0722777E-2,-3.1194152E-4,4.249218E-3,5.473021E-1,-5.0344213E-5,-8.891376E-1,-1.1455822E0,-2.982855E-1,-1.6201638E-2,-1.3222156E0,9.881384E-3,3.9489396E-2,-2.6745474E-1,6.2894733E-3,-1.2334541E-2,6.033293E-2,3.402133E-2,1.1312254E-1,8.636774E-1,-7.2275056E-4,1.9104553E-2,1.3062345E0,1.1323525E0,4.9511973E-2,-3.8347393E-3,8.950366E-3,-1.9102233E-2,-7.86716E-3,1.2966165E-3,1.8968506E-2,1.3142362E-3,-2.4685182E-2,9.0547595E-3,-6.2591755E-3,3.0806085E-2,-0E0,-3.57383E-2,-1.1534251E-2,-3.9371356E-2,-1.1625851E-2,-2.0787233E-2,1.3145061E-2,-4.2283274E-2,-1.9222582E-2,-0E0,-1.37351435E-2,1.8889142E-2,-5.3454265E-3,-7.824066E-3,1.717224E-2,3.6354244E-2,9.865471E-3,4.1763976E-2,2.536205E-2,1.7587652E-2,4.3247066E-2,1.6528444E-2,-1.3140757E-2],"categories":[],"categories_nodes":[],"categories_segments":[],"categories_sizes":[],"default_left":[0,0,0,0,0,0,0,0,0,0,0,0,0,0,0,0,0,0,0,0,0,0,0,0,0,0,0,0,0,0,0,0,0,0,0,0,0,0,0,0,0,0,0,0,0,0,0,0,0,0,0,0,0,0,0,0,0,0,0,0,0,0,0,0,0,0,0,0,0,0,0,0,0,0,0,0,0,0,0,0,0,0,0,0,0,0,0,0,0,0,0,0,0,0,0,0,0,0,0,0,0,0,0,0,0,0,0,0,0,0,0,0,0,0,0],"id":6,"left_children":[1,3,5,7,9,11,13,15,17,19,21,23,25,27,-1,29,31,33,35,37,39,41,43,45,47,-1,-1,49,51,-1,-1,53,55,-1,-1,57,59,-1,61,63,65,-1,-1,-1,67,69,-1,71,73,75,-1,77,79,81,83,85,87,-1,-1,89,91,-1,93,95,97,-1,99,-1,-1,101,-1,-1,103,-1,105,107,-1,-1,109,111,113,-1,-1,-1,-1,-1,-1,-1,-1,-1,-1,-1,-1,-1,-1,-1,-1,-1,-1,-1,-1,-1,-1,-1,-1,-1,-1,-1,-1,-1,-1,-1,-1,-1,-1],"loss_changes":[1.7948227E2,6.1530907E1,6.6052986E1,1.1790392E1,4.2626816E1,9.049555E0,1.8865448E1,8.626472E0,1.0923353E1,2.0399857E1,1.2740802E1,1.2587962E1,3.968216E0,2.0517502E1,0E0,7.299711E0,7.2742653E0,2.8102818E0,7.385198E0,1.4803696E1,1.3683487E1,8.584301E0,1.2709543E1,1.7983126E1,1.1321858E1,0E0,0E0,1.1080456E1,7.8094482E0,0E0,0E0,5.9286394E0,5.074988E0,0E0,0E0,2.6317158E0,4.744732E0,0E0,8.011475E0,1.95573E1,3.6895294E0,0E0,0E0,0E0,4.7522373E0,2.4121253E0,0E0,3.5121589E0,9.857593E0,7.1741953E0,0E0,3.4277344E0,1.2534252E1,1.2522917E0,7.5724506E-1,4.823524E0,5.894083E0,0E0,0E0,3.446682E0,6.254927E0,0E0,1.9215412E0,4.6735306E0,2.0578753E1,0E0,2.1808777E0,0E0,0E0,9.5917356E-1,0E0,0E0,8.352377E0,0E0,4.7602067E0,4.0701675E0,0E0,0E0,9.805145E-1,1.4917431E0,6.131103E0,0E0,0E0,0E0,0E0,0E0,0E0,0E0,0E0,0E0,0E0,0E0,0E0,0E0,0E0,0E0,0E0,0E0,0E0,0E0,0E0,0E0,0E0,0E0,0E0,0E0,0E0,0E0,0E0,0E0,0E0,0E0,0E0,0E0,0E0],"parents":[2147483647,0,0,1,1,2,2,3,3,4,4,5,5,6,6,7,7,8,8,9,9,10,10,11,11,12,12,13,13,15,15,16,16,17,17,18,18,19,19,20,20,21,21,22,22,23,23,24,24,27,27,28,28,31,31,32,32,35,35,36,36,38,38,39,39,40,40,44,44,45,45,47,47,48,48,49,49,51,51,52,52,53,53,54,54,55,55,56,56,59,59,60,60,62,62,63,63,64,64,66,66,69,69,72,72,74,74,75,75,78,78,79,79,80,80],"right_children":[2,4,6,8,10,12,14,16,18,20,22,24,26,28,-1,30,32,34,36,38,40,42,44,46,48,-1,-1,50,52,-1,-1,54,56,-1,-1,58,60,-1,62,64,66,-1,-1,-1,68,70,-1,72,74,76,-1,78,80,82,84,86,88,-1,-1,90,92,-1,94,96,98,-1,100,-1,-1,102,-1,-1,104,-1,106,108,-1,-1,110,112,114,-1,-1,-1,-1,-1,-1,-1,-1,-1,-1,-1,-1,-1,-1,-1,-1,-1,-1,-1,-1,-1,-1,-1,-1,-1,-1,-1,-1,-1,-1,-1,-1,-1,-1],"split_conditions":[3E0,8.187962E1,1.566211E0,6.5E-1,-1.79E0,6.96845E3,1.0670572E1,0E0,6.75559E3,-3.01E0,1.663E1,-4.814E1,-6.17E0,8.22E0,-7.711671E-3,1.58E1,1.4131E2,1.88E0,6.83494E3,-1.2364E2,6.75799E3,-6.3666666E-1,1.945883E2,4.5E1,8.5E1,3.3449258E-3,2.4134113E-2,4.8E0,3.5531E2,-1.0807669E-3,-3.437665E-2,6.66226E3,1.206287E3,1.0698588E-2,3.1513486E-2,1.1629818E4,3.5E1,2.1658368E-2,-6.6755325E-1,2.3886824E2,3.43043E1,4.2171176E-3,-2.5541432E-2,-1.0853506E-2,-5.4E0,1.8E-1,-3.9577164E-2,1.25E-1,3.5572E2,2.4287917E2,-1.1635384E-2,2.1634134E1,-1.031E1,-4.568876E4,1.3994E2,6.186E2,-6.11E0,-2.0722777E-2,-3.1194152E-4,1.765E1,1.879E0,-5.0344213E-5,6.721614E1,3.1E-1,6.76932E3,-1.6201638E-2,-4.76E0,9.881384E-3,3.9489396E-2,2.872204E5,6.2894733E-3,-1.2334541E-2,6.74291E3,3.402133E-2,2.15E2,-7.0356E2,-7.2275056E-4,1.9104553E-2,5.1E0,1.1133333E0,4.1159657E1,-3.8347393E-3,8.950366E-3,-1.9102233E-2,-7.86716E-3,1.2966165E-3,1.8968506E-2,1.3142362E-3,-2.4685182E-2,9.0547595E-3,-6.2591755E-3,3.0806085E-2,-0E0,-3.57383E-2,-1.1534251E-2,-3.9371356E-2,-1.1625851E-2,-2.0787233E-2,1.3145061E-2,-4.2283274E-2,-1.9222582E-2,-0E0,-1.37351435E-2,1.8889142E-2,-5.3454265E-3,-7.824066E-3,1.717224E-2,3.6354244E-2,9.865471E-3,4.1763976E-2,2.536205E-2,1.7587652E-2,4.3247066E-2,1.6528444E-2,-1.3140757E-2],"split_indices":[106,182,166,69,107,7,152,221,2,13,43,12,193,106,0,43,44,13,35,125,24,155,182,15,15,0,0,155,25,0,0,2,98,0,0,84,15,0,221,182,203,0,0,0,137,13,0,102,123,188,0,201,67,99,44,89,137,0,0,43,101,0,203,32,36,0,107,0,0,216,0,0,2,0,15,25,0,0,114,174,189,0,0,0,0,0,0,0,0,0,0,0,0,0,0,0,0,0,0,0,0,0,0,0,0,0,0,0,0,0,0,0,0,0,0],"split_type":[0,0,0,0,0,0,0,0,0,0,0,0,0,0,0,0,0,0,0,0,0,0,0,0,0,0,0,0,0,0,0,0,0,0,0,0,0,0,0,0,0,0,0,0,0,0,0,0,0,0,0,0,0,0,0,0,0,0,0,0,0,0,0,0,0,0,0,0,0,0,0,0,0,0,0,0,0,0,0,0,0,0,0,0,0,0,0,0,0,0,0,0,0,0,0,0,0,0,0,0,0,0,0,0,0,0,0,0,0,0,0,0,0,0,0],"sum_hessian":[1.1441854E3,7.025754E2,4.4161008E2,3.7333533E2,3.2924002E2,2.039208E2,2.3768925E2,2.4196112E2,1.3137419E2,2.638485E2,6.5391525E1,1.6660695E2,3.731386E1,2.2485153E2,1.2837733E1,2.492018E1,2.1704094E2,3.355018E1,9.782402E1,5.2330914E1,2.115176E2,3.0483015E1,3.4908516E1,5.1725174E1,1.14881775E2,1.764329E1,1.9670574E1,5.2652805E1,1.7219873E2,1.13442135E1,1.3575967E1,7.340585E1,1.4363509E2,2.0591043E1,1.2959134E1,2.4880009E1,7.294401E1,1.0763034E1,4.156788E1,1.1601096E2,9.550663E1,1.5270062E1,1.5212952E1,1.0218257E1,2.4690258E1,3.792086E1,1.3804311E1,7.541731E1,3.9464462E1,3.9609093E1,1.3043713E1,1.2847658E2,4.3722137E1,2.2271065E1,5.1134792E1,1.1616454E2,2.747054E1,1.3247137E1,1.1632872E1,4.9683E1,2.3261013E1,1.9791044E1,2.1776834E1,4.97291E1,6.628186E1,1.3186122E1,8.232051E1,1.3268204E1,1.1422054E1,2.023718E1,1.7683681E1,1.9221304E1,5.619601E1,1.6392387E1,2.3072075E1,2.827818E1,1.1330913E1,1.7980764E1,1.1049582E2,2.2848122E1,2.0874018E1,1.158988E1,1.0681184E1,3.2883175E1,1.8251617E1,1.01484344E2,1.46802025E1,1.6049858E1,1.1420681E1,2.135126E1,2.8331738E1,1.1107739E1,1.2153274E1,1.1299836E1,1.0476998E1,3.9021114E1,1.0707983E1,4.367578E1,2.2606083E1,7.043467E1,1.1885842E1,1.0072806E1,1.0164373E1,1.6242844E1,3.9953167E1,1.2594223E1,1.0477852E1,1.5029021E1,1.3249159E1,8.881426E1,2.1681559E1,1.0938624E1,1.1909496E1,1.0667666E1,1.0206351E1],"tree_param":{"num_deleted":"0","num_feature":"222","num_nodes":"115","size_leaf_vector":"1"}},{"base_weights":[-5.921872E-3,-3.5805205E-1,4.67762E-1,-1.0343477E-1,-7.029224E-1,8.673184E-2,7.699558E-1,-3.468609E-1,5.479615E-2,-8.0073035E-1,4.843968E-2,-4.2777127E-3,5.8824605E-1,2.787865E-1,9.720071E-1,-9.418922E-2,-5.140223E-1,3.1306502E-1,-1.4928505E-1,-5.527543E-1,-1.0979445E0,-1.4458201E-2,2.475747E-2,-2.6171774E-1,1.5042453E-1,-2.9292083E-3,9.8007977E-1,6.870284E-1,-3.5658032E-1,1.8930443E-3,1.0291415E0,6.2879296E-3,-1.6216885E-2,-7.878899E-1,-1.5787452E-1,5.9885424E-1,-6.948782E-2,1.7527217E-2,-2.3694238E-1,-1.0566933E0,-2.1778654E-1,-5.0781614E-1,-1.2562549E0,1.2816982E-1,-3.2907717E-2,3.0648896E-1,-1.9673915E-1,1.5050833E-2,3.7621465E-2,1.0628381E0,-6.446955E-4,-3.2383237E-2,5.849042E-2,1.098887E0,7.0600584E-3,-8.672168E-2,9.454761E-3,-9.2348343E-1,-5.6495527E-3,-4.0926918E-1,3.9936835E-3,8.1672525E-1,2.2713928E-1,-1.6051244E-2,1.0993832E-1,-3.4250396E-1,8.419275E-3,-1.1151772E-2,-1.2364981E0,4.6013686E-1,-5.582825E-1,-2.919264E-2,-0E0,-8.868782E-1,-4.590733E-2,-2.546957E-1,2.3337834E-2,7.519484E-2,4.7634766E-1,1.9817564E-3,-1.3522467E-2,4.1053962E-2,8.645021E-3,1.0053909E-2,-5.858482E-3,1.362301E-2,1.1638708E0,-1.2214711E-2,9.8942E-4,-1.7043402E-2,-3.2836128E-2,-2.704047E-3,-1.8280847E-2,3.0654218E-2,5.9145014E-3,-0E0,1.2943575E-2,8.905105E-3,-4.1742995E-3,-1.7275548E-2,-4.5286925E-3,-2.5287027E-2,-4.57387E-2,-7.2737085E-3,2.8380847E-2,-3.218255E-3,-2.8695019E-2,-5.262973E-3,-3.3746902E-2,1.09283505E-2,-2.3255978E-2,-1.9198584E-3,1.2424275E-2,3.9855987E-3,2.076277E-2,3.730362E-2,1.4154447E-2],"categories":[],"categories_nodes":[],"categories_segments":[],"categories_sizes":[],"default_left":[0,0,0,0,0,0,0,0,0,0,0,0,0,0,0,0,0,0,0,0,0,0,0,0,0,0,0,0,0,0,0,0,0,0,0,0,0,0,0,0,0,0,0,0,0,0,0,0,0,0,0,0,0,0,0,0,0,0,0,0,0,0,0,0,0,0,0,0,0,0,0,0,0,0,0,0,0,0,0,0,0,0,0,0,0,0,0,0,0,0,0,0,0,0,0,0,0,0,0,0,0,0,0,0,0,0,0,0,0,0,0,0,0,0,0,0,0],"id":7,"left_children":[1,3,5,7,9,11,13,15,17,19,21,23,25,27,29,31,33,35,37,39,41,-1,-1,43,45,-1,47,49,51,-1,53,55,-1,57,59,61,63,-1,65,67,69,71,73,75,-1,77,79,-1,-1,81,-1,-1,83,85,-1,87,-1,89,-1,91,-1,93,95,-1,97,99,-1,-1,101,103,105,-1,-1,107,-1,109,-1,111,113,-1,-1,-1,-1,-1,-1,-1,115,-1,-1,-1,-1,-1,-1,-1,-1,-1,-1,-1,-1,-1,-1,-1,-1,-1,-1,-1,-1,-1,-1,-1,-1,-1,-1,-1,-1,-1,-1],"loss_changes":[1.903767E2,5.7006775E1,5.5424446E1,1.4830166E1,2.0825531E1,1.0249188E1,2.5645615E1,5.9900894E0,1.2347275E1,1.6090271E1,1.46564E1,7.5300307E0,9.864115E0,2.1995708E1,9.18573E0,3.139286E0,8.000786E0,1.1681052E1,8.415222E0,2.2373547E1,8.01947E0,0E0,0E0,2.4096237E1,6.463052E0,0E0,8.135109E-1,1.4213207E1,1.0544542E1,0E0,8.671936E0,1.6975278E0,0E0,3.1008663E0,3.3318896E0,3.9897156E0,4.120073E0,0E0,6.643253E0,4.9769897E0,2.0561995E1,6.0339665E0,4.5653076E0,1.3152967E1,0E0,2.8676805E0,2.6693444E0,0E0,0E0,6.4304466E0,0E0,0E0,1.7758061E0,4.943802E0,0E0,1.7950318E0,0E0,2.945633E-1,0E0,1.0752835E0,0E0,3.6118011E0,1.0791974E0,0E0,1.7271472E0,3.9012508E0,0E0,0E0,9.698143E-1,1.0906101E1,9.871399E0,0E0,0E0,5.9406586E0,0E0,1.128199E1,0E0,2.0337079E0,2.78016E0,0E0,0E0,0E0,0E0,0E0,0E0,0E0,5.9913177E0,0E0,0E0,0E0,0E0,0E0,0E0,0E0,0E0,0E0,0E0,0E0,0E0,0E0,0E0,0E0,0E0,0E0,0E0,0E0,0E0,0E0,0E0,0E0,0E0,0E0,0E0,0E0,0E0,0E0,0E0],"parents":[2147483647,0,0,1,1,2,2,3,3,4,4,5,5,6,6,7,7,8,8,9,9,10,10,11,11,12,12,13,13,14,14,15,15,16,16,17,17,18,18,19,19,20,20,23,23,24,24,26,26,27,27,28,28,30,30,31,31,33,33,34,34,35,35,36,36,38,38,39,39,40,40,41,41,42,42,43,43,45,45,46,46,49,49,52,52,53,53,55,55,57,57,59,59,61,61,62,62,64,64,65,65,68,68,69,69,70,70,73,73,75,75,77,77,78,78,86,86],"right_children":[2,4,6,8,10,12,14,16,18,20,22,24,26,28,30,32,34,36,38,40,42,-1,-1,44,46,-1,48,50,52,-1,54,56,-1,58,60,62,64,-1,66,68,70,72,74,76,-1,78,80,-1,-1,82,-1,-1,84,86,-1,88,-1,90,-1,92,-1,94,96,-1,98,100,-1,-1,102,104,106,-1,-1,108,-1,110,-1,112,114,-1,-1,-1,-1,-1,-1,-1,116,-1,-1,-1,-1,-1,-1,-1,-1,-1,-1,-1,-1,-1,-1,-1,-1,-1,-1,-1,-1,-1,-1,-1,-1,-1,-1,-1,-1,-1,-1],"split_conditions":[7.7E-1,5E0,6.51035E3,-7.69E0,-1.42E0,1.6405642E0,8.22E0,-2.437E1,6.75559E3,-8.5191E2,3.8211605E-1,4.65E2,6.74721E3,3.461E2,6.72247E3,6.85848E3,-8E-2,6.885E1,2.602941E-1,-2.851E1,-3.12E0,-1.4458201E-2,2.475747E-2,6.849858E-1,5.003333E-1,-2.9292083E-3,1.8891797E3,3.815E0,6.82909E3,1.8930443E-3,3.0393333E1,6.7165E3,-1.6216885E-2,9.446E0,4.662162E-1,6.7525E2,7.82E-1,1.7527217E-2,6.99679E3,-4.7283325E-2,-4.661667E0,4.974E1,-1.2461504E3,5.706E1,-3.2907717E-2,6.6145E3,-4.9132E2,1.5050833E-2,3.7621465E-2,9E-2,-6.446955E-4,-3.2383237E-2,-3.02E0,1.3776E2,7.0600584E-3,4.75E2,9.454761E-3,-9.82E0,-5.6495527E-3,1.44E-1,3.9936835E-3,3.47676E3,6.2335485E-1,-1.6051244E-2,2.2980833E2,-4.6423397E5,8.419275E-3,-1.1151772E-2,-4.423515E1,1.1E2,-2.998E3,-2.919264E-2,-0E0,4.13E-1,-4.590733E-2,2.45E2,2.3337834E-2,6.73175E3,3.12E-1,1.9817564E-3,-1.3522467E-2,4.1053962E-2,8.645021E-3,1.0053909E-2,-5.858482E-3,1.362301E-2,2.5424503E1,-1.2214711E-2,9.8942E-4,-1.7043402E-2,-3.2836128E-2,-2.704047E-3,-1.8280847E-2,3.0654218E-2,5.9145014E-3,-0E0,1.2943575E-2,8.905105E-3,-4.1742995E-3,-1.7275548E-2,-4.5286925E-3,-2.5287027E-2,-4.57387E-2,-7.2737085E-3,2.8380847E-2,-3.218255E-3,-2.8695019E-2,-5.262973E-3,-3.3746902E-2,1.09283505E-2,-2.3255978E-2,-1.9198584E-3,1.2424275E-2,3.9855987E-3,2.076277E-2,3.730362E-2,1.4154447E-2],"split_indices":[106,134,24,72,106,162,106,106,2,68,51,16,0,68,7,1,114,48,111,14,169,0,0,54,60,0,160,155,35,0,191,41,0,103,110,122,103,0,7,55,155,134,162,48,0,41,72,0,0,34,0,0,128,44,0,16,0,191,0,101,0,72,60,0,85,126,0,0,198,16,68,0,0,101,0,16,0,37,101,0,0,0,0,0,0,0,194,0,0,0,0,0,0,0,0,0,0,0,0,0,0,0,0,0,0,0,0,0,0,0,0,0,0,0,0,0,0],"split_type":[0,0,0,0,0,0,0,0,0,0,0,0,0,0,0,0,0,0,0,0,0,0,0,0,0,0,0,0,0,0,0,0,0,0,0,0,0,0,0,0,0,0,0,0,0,0,0,0,0,0,0,0,0,0,0,0,0,0,0,0,0,0,0,0,0,0,0,0,0,0,0,0,0,0,0,0,0,0,0,0,0,0,0,0,0,0,0,0,0,0,0,0,0,0,0,0,0,0,0,0,0,0,0,0,0,0,0,0,0,0,0,0,0,0,0,0,0],"sum_hessian":[1.1376788E3,6.5345386E2,4.8422498E2,3.7824545E2,2.752084E2,2.1604575E2,2.6817923E2,1.4931361E2,2.2893182E2,2.4398225E2,3.1226156E1,1.836964E2,3.2349342E1,8.027406E1,1.8790515E2,6.1886913E1,8.7426704E1,1.01660446E2,1.27271385E2,1.3704375E2,1.069385E2,1.8625086E1,1.2601071E1,6.964637E1,1.14050026E2,1.1843474E1,2.0505869E1,4.9252323E1,3.1021742E1,1.1879754E1,1.7602539E2,5.121115E1,1.0675762E1,4.7258114E1,4.016859E1,5.8290344E1,4.3370102E1,1.1767298E1,1.1550409E2,5.240366E1,8.464009E1,2.506782E1,8.187068E1,4.822746E1,2.1418915E1,7.983532E1,3.4214714E1,1.0193735E1,1.0312135E1,3.1989891E1,1.7262432E1,1.058717E1,2.0434572E1,1.6052298E2,1.5502419E1,3.922044E1,1.199071E1,3.6980534E1,1.0277582E1,2.2036478E1,1.8132114E1,3.4392563E1,2.3897781E1,1.1737576E1,3.1632526E1,9.7301895E1,1.820219E1,1.274959E1,3.965407E1,2.757246E1,5.706763E1,1.1743941E1,1.3323879E1,3.925204E1,4.2618637E1,3.0627136E1,1.7600323E1,3.6272533E1,4.3562782E1,1.6576334E1,1.7638378E1,2.1377474E1,1.0612417E1,1.0412699E1,1.0021873E1,1.6863987E1,1.43659E2,1.0496418E1,2.8724022E1,1.5774368E1,2.1206163E1,1.0573006E1,1.1463472E1,2.425773E1,1.0134831E1,1.2922731E1,1.0975049E1,1.899988E1,1.2632646E1,4.0879093E1,5.6422802E1,2.0811094E1,1.8842978E1,1.1261469E1,1.6310991E1,2.8539362E1,2.852827E1,1.1237512E1,2.801453E1,1.382562E1,1.6801517E1,2.5817654E1,1.0454881E1,1.8946524E1,2.4616259E1,1.2676554E2,1.6893446E1],"tree_param":{"num_deleted":"0","num_feature":"222","num_nodes":"117","size_leaf_vector":"1"}},{"base_weights":[-7.5283013E-3,-3.5693392E-1,4.8560724E-1,-9.195557E-2,-7.039146E-1,8.454905E-2,7.844662E-1,-1.7979626E-1,2.750916E-1,-8.746486E-1,-1.5696347E-1,2.116619E-1,-3.7540135E-1,1.6010649E-3,8.9825046E-1,-2.7758809E-2,-1.2894642E-1,2.3581864E-2,7.3742956E-2,-3.753082E-1,-9.983579E-1,6.7259294E-1,-6.292624E-1,-1.8862458E-1,3.273837E-1,-6.4108145E-1,1.0477845E-2,4.0181023E-1,-2.4356527E-2,9.509035E-1,-2.1635437E-4,1.0348249E-1,-2.9156822E-1,3.5907966E-1,-2.0503218E-1,2.1090621E-2,-8.313272E-1,-1.0742704E0,-3.229507E-3,3.7084535E-2,2.2031597E-3,-2.7901733E-1,-3.3661734E-2,6.094885E-2,-2.0438513E-2,1.9214153E-1,9.058924E-1,-8.993798E-3,-3.1472046E-2,-6.209845E-3,2.5335109E-2,1.2229632E0,6.749303E-1,-1.9329065E-2,2.74598E-2,-3.490093E-1,1.1084703E-2,2.1401724E-2,-0E0,2.196509E-3,-1.1790884E-2,-9.758595E-3,-4.2613417E-2,-5.27442E-1,-1.2101063E0,2.8753704E-3,-2.5774831E-2,8.427676E-3,-5.462775E-3,-1.53736E-1,3.3870262E-1,4.2411875E-2,6.806953E-3,1.2949479E0,1.175707E-2,1.6013975E-1,1.0242853E0,9.862088E-3,-6.3154874E-3,-8.1354985E-3,-2.8431958E-2,-2.720616E-2,-4.6711465E-4,-2.4328673E-2,-4.0517587E-2,-2.0394258E-2,6.3503818E-3,1.3230132E-2,-6.0349773E-3,2.2709787E-2,4.1616887E-2,-6.317493E-3,3.581004E-2,3.7483506E-2,1.7561328E-2],"categories":[],"categories_nodes":[],"categories_segments":[],"categories_sizes":[],"default_left":[0,0,0,0,0,0,0,0,0,0,0,0,0,0,0,0,0,0,0,0,0,0,0,0,0,0,0,0,0,0,0,0,0,0,0,0,0,0,0,0,0,0,0,0,0,0,0,0,0,0,0,0,0,0,0,0,0,0,0,0,0,0,0,0,0,0,0,0,0,0,0,0,0,0,0,0,0,0,0,0,0,0,0,0,0,0,0,0,0,0,0,0,0,0,0],"id":8,"left_children":[1,3,5,7,9,11,13,15,17,19,21,23,25,27,29,-1,31,-1,33,35,37,39,41,43,45,47,-1,49,-1,51,-1,53,55,57,59,-1,61,63,-1,-1,-1,65,-1,67,-1,69,71,-1,-1,-1,-1,73,75,77,-1,79,-1,-1,-1,-1,-1,-1,-1,81,83,-1,-1,-1,-1,85,87,-1,-1,89,-1,91,93,-1,-1,-1,-1,-1,-1,-1,-1,-1,-1,-1,-1,-1,-1,-1,-1,-1,-1],"loss_changes":[1.96496E2,6.0913895E1,5.6067085E1,1.2368242E1,2.6126266E1,1.2045614E1,2.3579697E1,1.100706E1,7.012067E0,1.2063278E1,2.8918625E1,7.720981E0,9.102353E0,1.2427424E1,1.1689011E1,0E0,1.1254923E1,0E0,4.647358E0,2.4540516E1,1.0884476E1,8.14412E0,6.804184E0,4.9113774E0,9.099473E0,3.3678703E0,0E0,7.7872295E0,0E0,1.4114639E1,0E0,1.25578575E1,6.8766966E0,3.5462272E0,1.7089573E0,0E0,8.504019E0,9.650085E0,0E0,0E0,0E0,7.2428265E0,0E0,1.5178434E0,0E0,5.6105185E0,6.459009E0,0E0,0E0,0E0,0E0,4.646103E0,1.9921822E1,7.1740193E0,0E0,6.4411736E0,0E0,0E0,0E0,0E0,0E0,0E0,0E0,6.4782124E0,3.73349E0,0E0,0E0,0E0,0E0,6.7014976E0,4.5308666E0,0E0,0E0,1.7244415E0,0E0,2.007557E1,4.3487473E0,0E0,0E0,0E0,0E0,0E0,0E0,0E0,0E0,0E0,0E0,0E0,0E0,0E0,0E0,0E0,0E0,0E0,0E0],"parents":[2147483647,0,0,1,1,2,2,3,3,4,4,5,5,6,6,7,7,8,8,9,9,10,10,11,11,12,12,13,13,14,14,16,16,18,18,19,19,20,20,21,21,22,22,23,23,24,24,25,25,27,27,29,29,31,31,32,32,33,33,34,34,36,36,37,37,41,41,43,43,45,45,46,46,51,51,52,52,53,53,55,55,63,63,64,64,69,69,70,70,73,73,75,75,76,76],"right_children":[2,4,6,8,10,12,14,16,18,20,22,24,26,28,30,-1,32,-1,34,36,38,40,42,44,46,48,-1,50,-1,52,-1,54,56,58,60,-1,62,64,-1,-1,-1,66,-1,68,-1,70,72,-1,-1,-1,-1,74,76,78,-1,80,-1,-1,-1,-1,-1,-1,-1,82,84,-1,-1,-1,-1,86,88,-1,-1,90,-1,92,94,-1,-1,-1,-1,-1,-1,-1,-1,-1,-1,-1,-1,-1,-1,-1,-1,-1,-1],"split_conditions":[1.67E0,6.65995E3,4.9472033E-6,4.2233334E0,-4.69E0,4.787299E2,3.05E0,-2.3387822E3,9.975E-1,-3.01E0,-1.43952E3,6.77837E3,1.2439591E3,1.37784E3,1.0670572E1,-2.7758809E-2,-1.498E1,2.3581864E-2,5.4873875E1,-4.22651E3,3.740565E2,1.3755006E3,8.183333E-1,4.34E0,2.7134847E-6,4.7676E2,1.0477845E-2,4.8561984E-1,-2.4356527E-2,1.296E2,-2.1635437E-4,3.9940234E4,6.66466E3,1.069E1,-2.06315E2,2.1090621E-2,-7.410623E2,-4.6E-1,-3.229507E-3,3.7084535E-2,2.2031597E-3,2.29743E3,-3.3661734E-2,1.08491E3,-2.0438513E-2,4.7E2,1.6774292E1,-8.993798E-3,-3.1472046E-2,-6.209845E-3,2.5335109E-2,3.008E1,1.0453417E-1,-6.2172325E1,2.74598E-2,2.5384376E0,1.1084703E-2,2.1401724E-2,-0E0,2.196509E-3,-1.1790884E-2,-9.758595E-3,-4.2613417E-2,-1.659E1,-2.024E1,2.8753704E-3,-2.5774831E-2,8.427676E-3,-5.462775E-3,1.509281E3,1.5439204E4,4.2411875E-2,6.806953E-3,6.66965E3,1.175707E-2,2.85E1,4.8E0,9.862088E-3,-6.3154874E-3,-8.1354985E-3,-2.8431958E-2,-2.720616E-2,-4.6711465E-4,-2.4328673E-2,-4.0517587E-2,-2.0394258E-2,6.3503818E-3,1.3230132E-2,-6.0349773E-3,2.2709787E-2,4.1616887E-2,-6.317493E-3,3.581004E-2,3.7483506E-2,1.7561328E-2],"split_indices":[107,22,201,167,107,215,105,162,86,13,68,36,161,68,152,0,105,0,215,68,178,161,155,13,150,89,0,50,0,68,0,89,21,114,172,0,162,140,0,0,0,68,0,74,0,16,194,0,0,0,0,75,214,215,0,77,0,0,0,0,0,0,0,107,129,0,0,0,0,84,3,0,0,2,0,107,155,0,0,0,0,0,0,0,0,0,0,0,0,0,0,0,0,0,0],"split_type":[0,0,0,0,0,0,0,0,0,0,0,0,0,0,0,0,0,0,0,0,0,0,0,0,0,0,0,0,0,0,0,0,0,0,0,0,0,0,0,0,0,0,0,0,0,0,0,0,0,0,0,0,0,0,0,0,0,0,0,0,0,0,0,0,0,0,0,0,0,0,0,0,0,0,0,0,0,0,0,0,0,0,0,0,0,0,0,0,0,0,0,0,0,0,0],"sum_hessian":[1.1367625E3,6.6625867E2,4.7050375E2,3.800201E2,2.8623853E2,2.0271126E2,2.6779248E2,3.0855914E2,7.1460976E1,2.1653381E2,6.970473E1,1.6051712E2,4.2194145E1,3.4797695E1,2.329948E2,1.6878687E1,2.9168045E2,1.7855957E1,5.360502E1,4.5398132E1,1.7113568E2,2.4596342E1,4.5108383E1,3.474658E1,1.2577054E2,3.1548355E1,1.0645789E1,2.4413692E1,1.0384002E1,2.2061761E2,1.237718E1,1.1910338E2,1.7257707E2,2.709239E1,2.6512629E1,1.28448105E1,3.255332E1,1.5679865E2,1.4337031E1,1.1148938E1,1.3447405E1,2.879201E1,1.6316374E1,2.355278E1,1.1193798E1,1.04799385E2,2.0971155E1,1.9734905E1,1.1813449E1,1.0251253E1,1.4162438E1,1.0672821E2,1.138894E2,1.04614365E2,1.4489015E1,1.6034474E2,1.2232323E1,1.2338707E1,1.4753683E1,1.0110239E1,1.640239E1,1.9637873E1,1.2915449E1,3.3875263E1,1.22923386E2,1.798113E1,1.081088E1,1.3279347E1,1.0273434E1,3.014622E1,7.465317E1,1.0338304E1,1.0632852E1,9.6639496E1,1.0088716E1,4.7800774E1,6.608863E1,3.5652737E1,6.896163E1,1.4521031E2,1.5134434E1,1.8007126E1,1.5868136E1,3.6453022E1,8.647037E1,1.2212286E1,1.7933933E1,6.3846962E1,1.0806205E1,1.7638777E1,7.900072E1,3.5997364E1,1.1803408E1,4.0486115E1,2.5602514E1],"tree_param":{"num_deleted":"0","num_feature":"222","num_nodes":"95","size_leaf_vector":"1"}},{"base_weights":[9.057379E-4,-3.210391E-1,4.4361445E-1,-8.257065E-2,-6.3988507E-1,7.6874524E-2,7.4210835E-1,7.162031E-2,-3.0727696E-1,-7.861671E-1,-2.4546366E-2,-1.7110169E-1,3.017591E-1,2.9045936E-1,9.235643E-1,5.1133484E-1,-0E0,-1.05635755E-1,-4.881703E-1,-2.9324186E-1,-9.213009E-1,2.2099525E-1,-1.9444115E-2,-7.626115E-1,6.856101E-2,1.3435197E-1,8.32468E-1,4.346778E-2,2.8455548E-2,3.8140167E-3,1.0132396E0,2.6063655E-2,-0E0,-7.2628185E-2,5.5538815E-1,2.3437254E-2,-1.6074637E-2,-8.0830944E-1,-8.6100936E-2,-0E0,-2.7420243E-2,-0E0,-9.8018456E-1,2.3283012E-2,-8.2630776E-2,-4.8298878E-3,-3.4858026E-2,1.9059168E-1,-1.1063362E-2,1.4202618E-2,-5.3391095E-2,3.554222E-2,7.60464E-3,6.9243515E-1,-3.1074947E-1,5.590803E-1,1.1356399E0,2.7850997E-1,-1.7840901E-1,2.2776795E-3,2.7735028E-2,-1.4203681E-1,2.9600704E-1,-3.0371778E-2,-1.4567191E-2,-1.0597619E-2,7.785665E-3,-4.223711E-1,2.2998882E-2,-1.0508938E0,-7.137729E-3,-2.1545252E-2,1.3338711E-2,1.711589E-2,1.7206715E-2,-6.5208655E-3,1.722232E-3,2.7329024E-2,9.501408E-3,-2.6876876E-2,1.3795154E-1,8.0631506E-1,-0E0,1.3223227E0,8.533034E-1,-2.8469847E-3,1.4949731E-2,2.9878933E-3,-1.0698393E-2,-1.7027253E-2,6.0454877E-3,2.83449E-3,1.2541987E-2,-2.525269E-2,1.3628924E-3,-3.472768E-2,-1.806982E-2,5.9874216E-3,-1.0599874E-2,-8.004404E-3,1.7618855E-2,6.5568103E-3,3.36412E-2,2.3079861E-2,4.245271E-2,9.739943E-3,3.2257557E-2],"categories":[],"categories_nodes":[],"categories_segments":[],"categories_sizes":[],"default_left":[0,0,0,0,0,0,0,0,0,0,0,0,0,0,0,0,0,0,0,0,0,0,0,0,0,0,0,0,0,0,0,0,0,0,0,0,0,0,0,0,0,0,0,0,0,0,0,0,0,0,0,0,0,0,0,0,0,0,0,0,0,0,0,0,0,0,0,0,0,0,0,0,0,0,0,0,0,0,0,0,0,0,0,0,0,0,0,0,0,0,0,0,0,0,0,0,0,0,0,0,0,0,0,0,0,0,0],"id":9,"left_children":[1,3,5,7,9,11,13,15,17,19,21,23,25,27,29,31,33,35,37,39,41,43,-1,45,47,49,51,53,-1,-1,55,-1,-1,57,59,61,-1,63,65,67,-1,-1,69,-1,71,-1,-1,73,-1,-1,75,-1,-1,77,79,81,83,85,87,-1,-1,89,91,-1,-1,-1,-1,93,-1,95,-1,-1,-1,97,-1,-1,-1,-1,-1,-1,99,101,-1,103,105,-1,-1,-1,-1,-1,-1,-1,-1,-1,-1,-1,-1,-1,-1,-1,-1,-1,-1,-1,-1,-1,-1],"loss_changes":[1.6109727E2,4.9221664E1,5.1623344E1,1.3226356E1,2.4618454E1,1.2254643E1,2.0298355E1,7.0789175E0,5.2589245E0,1.3788757E1,9.104984E0,1.5094423E1,9.548826E0,1.2212142E1,1.2380432E1,5.7845335E0,7.898921E0,4.569197E0,9.700754E0,9.102527E0,9.477005E0,7.425375E0,0E0,6.3036346E0,4.0403337E0,6.0442843E0,4.101568E0,1.4383126E1,0E0,0E0,7.075638E0,0E0,0E0,6.505671E0,3.3653588E0,2.8863628E0,0E0,1.1370792E0,3.771935E0,1.2729532E1,0E0,0E0,7.4532013E0,0E0,1.0118612E1,0E0,0E0,3.7142158E0,0E0,0E0,1.1827487E0,0E0,0E0,6.365509E-1,1.10260935E1,5.6574917E0,3.3733978E0,3.5735898E0,6.931917E0,0E0,0E0,5.9391336E0,2.7020836E-1,0E0,0E0,0E0,0E0,5.565157E0,0E0,4.826309E0,0E0,0E0,0E0,3.0856264E0,0E0,0E0,0E0,0E0,0E0,0E0,4.778441E0,4.0046883E0,0E0,4.2510986E-1,5.340843E0,0E0,0E0,0E0,0E0,0E0,0E0,0E0,0E0,0E0,0E0,0E0,0E0,0E0,0E0,0E0,0E0,0E0,0E0,0E0,0E0,0E0,0E0],"parents":[2147483647,0,0,1,1,2,2,3,3,4,4,5,5,6,6,7,7,8,8,9,9,10,10,11,11,12,12,13,13,14,14,15,15,16,16,17,17,18,18,19,19,20,20,21,21,23,23,24,24,25,25,26,26,27,27,30,30,33,33,34,34,35,35,37,37,38,38,39,39,42,42,44,44,47,47,50,50,53,53,54,54,55,55,56,56,57,57,58,58,61,61,62,62,67,67,69,69,73,73,80,80,81,81,83,83,84,84],"right_children":[2,4,6,8,10,12,14,16,18,20,22,24,26,28,30,32,34,36,38,40,42,44,-1,46,48,50,52,54,-1,-1,56,-1,-1,58,60,62,-1,64,66,68,-1,-1,70,-1,72,-1,-1,74,-1,-1,76,-1,-1,78,80,82,84,86,88,-1,-1,90,92,-1,-1,-1,-1,94,-1,96,-1,-1,-1,98,-1,-1,-1,-1,-1,-1,100,102,-1,104,106,-1,-1,-1,-1,-1,-1,-1,-1,-1,-1,-1,-1,-1,-1,-1,-1,-1,-1,-1,-1,-1,-1],"split_conditions":[9.7E-1,6.65995E3,1.3880562E0,3.14E0,-3.65E0,6.3596773E-1,7.16E0,2.5591895E-1,-1.146E1,-1.85E0,9.476587E2,-4.814E1,1.0879113E-7,1.273E1,6.70529E3,5.02E-1,3.5644493E-1,7.1886E2,-8E-2,6.86837E3,1.1395746E1,-1.62194E3,-1.9444115E-2,2.5E1,1.6127332E4,5.15E0,7.07106E2,6.75253E3,2.8455548E-2,3.8140167E-3,1.7125748E-1,2.6063655E-2,-0E0,1E0,9.083E1,9.562498E1,-1.6074637E-2,-1.5349E2,4.67758E-1,6.80275E3,-2.7420243E-2,-0E0,1.3538524E3,2.3283012E-2,-3.7392E2,-4.8298878E-3,-3.4858026E-2,8E1,-1.1063362E-2,1.4202618E-2,6.80059E3,3.554222E-2,7.60464E-3,-6.0234E2,4.328E1,7.624428E0,5.4166665E0,3.55302E-1,9.522492E-2,2.2776795E-3,2.7735028E-2,4.8E2,-1.089E1,-3.0371778E-2,-1.4567191E-2,-1.0597619E-2,7.785665E-3,2.193931E-1,2.2998882E-2,2.8880643E2,-7.137729E-3,-2.1545252E-2,1.3338711E-2,4.34E0,1.7206715E-2,-6.5208655E-3,1.722232E-3,2.7329024E-2,9.501408E-3,-2.6876876E-2,-9.66E0,-1.8866667E0,-0E0,1.004E1,1.7795099E0,-2.8469847E-3,1.4949731E-2,2.9878933E-3,-1.0698393E-2,-1.7027253E-2,6.0454877E-3,2.83449E-3,1.2541987E-2,-2.525269E-2,1.3628924E-3,-3.472768E-2,-1.806982E-2,5.9874216E-3,-1.0599874E-2,-8.004404E-3,1.7618855E-2,6.5568103E-3,3.36412E-2,2.3079861E-2,4.245271E-2,9.739943E-3,3.2257557E-2],"split_indices":[107,22,171,70,107,53,14,60,107,13,162,12,192,172,1,101,55,179,115,19,175,25,0,15,71,14,100,17,0,0,51,0,0,212,11,200,0,72,110,37,0,0,175,0,65,0,0,15,0,0,2,0,0,27,49,154,155,51,51,0,0,16,113,0,0,0,0,192,0,180,0,0,0,13,0,0,0,0,0,0,129,172,0,14,78,0,0,0,0,0,0,0,0,0,0,0,0,0,0,0,0,0,0,0,0,0,0],"split_type":[0,0,0,0,0,0,0,0,0,0,0,0,0,0,0,0,0,0,0,0,0,0,0,0,0,0,0,0,0,0,0,0,0,0,0,0,0,0,0,0,0,0,0,0,0,0,0,0,0,0,0,0,0,0,0,0,0,0,0,0,0,0,0,0,0,0,0,0,0,0,0,0,0,0,0,0,0,0,0,0,0,0,0,0,0,0,0,0,0,0,0,0,0,0,0,0,0,0,0,0,0,0,0,0,0,0,0],"sum_hessian":[1.1258583E3,6.514985E2,4.7435983E2,3.7506744E2,2.7643103E2,2.1472787E2,2.5963196E2,2.2192345E2,1.5314398E2,2.2223274E2,5.4198296E1,1.01291016E2,1.1343686E2,7.66944E1,1.8293756E2,2.946723E1,1.9245622E2,7.5224014E1,7.791997E1,4.9976063E1,1.7225668E2,3.9237694E1,1.4960604E1,2.8549767E1,7.274125E1,8.885639E1,2.4580465E1,5.786692E1,1.8827478E1,1.956719E1,1.6337038E2,1.6564096E1,1.2903132E1,1.7182077E2,2.0635456E1,5.8423386E1,1.6800627E1,4.1562443E1,3.6357525E1,3.5730175E1,1.4245885E1,1.0443686E1,1.6181299E2,1.3355329E1,2.5882366E1,1.30090065E1,1.554076E1,5.8648323E1,1.4092928E1,3.1530842E1,5.732555E1,1.3444338E1,1.1136127E1,2.0256517E1,3.7610405E1,3.7913765E1,1.25456604E2,3.7927696E1,1.3389307E2,1.0614084E1,1.0021371E1,3.5808094E1,2.2615292E1,2.1894405E1,1.9668037E1,2.1297728E1,1.5059799E1,2.394701E1,1.1783167E1,1.4636476E2,1.54482355E1,1.18376045E1,1.4044761E1,4.270073E1,1.5947595E1,2.4160133E1,3.316542E1,1.0164541E1,1.0091975E1,1.5941847E1,2.1668558E1,2.5891308E1,1.2022457E1,7.00206E1,5.5436005E1,1.3632094E1,2.4295603E1,5.154979E1,8.234328E1,1.606303E1,1.9745066E1,1.141434E1,1.1200953E1,1.2347488E1,1.1599521E1,1.1478594E2,3.1578821E1,3.0131496E1,1.2569233E1,1.1241766E1,1.0426793E1,1.0771343E1,1.5119966E1,1.3503197E1,5.6517403E1,1.8515062E1,3.6920944E1],"tree_param":{"num_deleted":"0","num_feature":"222","num_nodes":"107","size_leaf_vector":"1"}},{"base_weights":[-3.1537164E-3,-2.9698387E-1,4.6316573E-1,-5.578532E-2,-6.40172E-1,4.6099506E-2,7.824677E-1,1.07981116E-1,-3.1038615E-1,-2.4919556E-1,-8.942801E-1,-1.9638816E-1,2.9418948E-1,1.0954146E0,4.5917425E-1,2.6988378E-1,-3.687833E-2,-2.0331316E-1,-8.088129E-1,-5.49772E-1,7.696237E-1,-1.1536342E0,-6.312486E-1,1.208907E-2,-2.8488588E-2,7.96477E-1,7.892303E-2,1.2057748E0,8.266668E-3,-2.6090905E-1,7.8909516E-1,3.688868E-1,-1.50706135E-2,-2.8817466E-1,1.8039949E-1,-3.4906778E-1,-0E0,-3.571829E-2,-5.0655827E-3,1.6449448E-1,-8.144463E-1,3.712852E-2,-0E0,-7.2715986E-1,-1.3245468E0,1.0325712E-3,-7.890323E-1,-1.2185005E-1,1.8590357E-2,3.5694297E-2,9.113568E-3,2.26442E-1,-1.0865838E-2,1.7209133E-2,1.256357E0,-8.478906E-1,1.3129836E-2,9.0044E-1,-0E0,-1.0500675E-2,5.0543404E-1,-4.1427174E-1,3.3558838E-3,-7.686489E-3,3.0309036E-2,-4.6131334E-1,6.909937E-3,1.0271036E-1,-9.183572E-3,-1.057001E-2,2.1629684E-2,-3.491665E-2,-4.1608438E-1,-3.5046082E-2,-7.824839E-4,-4.42216E-2,-1.4828789E-2,-4.2042673E-1,-1.1042958E0,-2.1112709E-1,6.6381725E-3,4.185475E-1,-2.9522718E-3,1.7183362E-2,1.3163068E0,-3.7139945E-2,-8.955261E-3,3.789538E-1,1.1354458E0,9.321275E-3,3.634626E-2,-7.176777E-3,-2.4699232E-2,6.943608E-3,-6.2658424E-3,-1.7269494E-2,1.4482341E-3,-1.1191947E-3,1.43941E-2,7.815455E-3,-2.4438675E-2,-2.3651615E-2,4.840707E-3,-4.1540563E-2,-1.6119644E-2,-7.21367E-4,-1.5181842E-2,1.927209E-2,-0E0,4.254377E-2,2.500921E-2,3.2179926E-2,-4.8512896E-3,3.9836332E-2,2.004615E-2],"categories":[],"categories_nodes":[],"categories_segments":[],"categories_sizes":[],"default_left":[0,0,0,0,0,0,0,0,0,0,0,0,0,0,0,0,0,0,0,0,0,0,0,0,0,0,0,0,0,0,0,0,0,0,0,0,0,0,0,0,0,0,0,0,0,0,0,0,0,0,0,0,0,0,0,0,0,0,0,0,0,0,0,0,0,0,0,0,0,0,0,0,0,0,0,0,0,0,0,0,0,0,0,0,0,0,0,0,0,0,0,0,0,0,0,0,0,0,0,0,0,0,0,0,0,0,0,0,0,0,0,0,0,0,0],"id":10,"left_children":[1,3,5,7,9,11,13,15,17,19,21,23,25,27,29,31,33,35,37,39,41,43,45,47,-1,49,51,53,-1,55,57,59,-1,61,63,65,67,-1,-1,69,71,-1,-1,73,75,-1,77,79,-1,-1,-1,81,-1,-1,83,85,-1,87,-1,-1,89,91,-1,93,-1,95,-1,97,-1,-1,-1,-1,99,-1,-1,-1,-1,101,103,105,-1,107,-1,-1,109,-1,-1,111,113,-1,-1,-1,-1,-1,-1,-1,-1,-1,-1,-1,-1,-1,-1,-1,-1,-1,-1,-1,-1,-1,-1,-1,-1,-1,-1],"loss_changes":[1.5473607E2,5.701074E1,5.7589943E1,1.7283552E1,2.7328209E1,1.1709377E1,2.312561E1,6.0019054E0,7.83167E0,3.6239586E1,9.341995E0,1.5759869E1,9.88994E0,9.71228E0,3.0449863E1,9.476068E0,7.3719935E0,3.9311585E0,5.5688286E0,1.7809393E1,9.8308E0,3.0916061E0,9.932568E0,6.7156243E0,0E0,3.9732609E0,4.6897573E0,1.0701904E0,0E0,1.7515574E1,8.065346E0,1.1039689E1,0E0,3.4270315E0,1.160274E1,5.452632E0,2.0391855E0,0E0,0E0,8.105713E0,7.6090775E0,0E0,0E0,8.306982E0,4.5001984E0,0E0,6.887089E0,2.0668395E0,0E0,0E0,0E0,3.6735327E0,0E0,0E0,1.5149536E0,3.427599E0,0E0,7.7821465E0,0E0,0E0,1.1165695E1,2.608634E0,0E0,2.942718E0,0E0,4.246236E0,0E0,2.6735373E0,0E0,0E0,0E0,0E0,1.0200566E1,0E0,0E0,0E0,0E0,8.700552E0,3.564312E0,2.658775E0,0E0,3.2951312E0,0E0,0E0,7.751007E-1,0E0,0E0,1.111298E1,1.8318481E0,0E0,0E0,0E0,0E0,0E0,0E0,0E0,0E0,0E0,0E0,0E0,0E0,0E0,0E0,0E0,0E0,0E0,0E0,0E0,0E0,0E0,0E0,0E0,0E0,0E0,0E0],"parents":[2147483647,0,0,1,1,2,2,3,3,4,4,5,5,6,6,7,7,8,8,9,9,10,10,11,11,12,12,13,13,14,14,15,15,16,16,17,17,18,18,19,19,20,20,21,21,22,22,23,23,25,25,26,26,27,27,29,29,30,30,31,31,33,33,34,34,35,35,36,36,39,39,40,40,43,43,44,44,46,46,47,47,51,51,54,54,55,55,57,57,60,60,61,61,63,63,65,65,67,67,72,72,77,77,78,78,79,79,81,81,84,84,87,87,88,88],"right_children":[2,4,6,8,10,12,14,16,18,20,22,24,26,28,30,32,34,36,38,40,42,44,46,48,-1,50,52,54,-1,56,58,60,-1,62,64,66,68,-1,-1,70,72,-1,-1,74,76,-1,78,80,-1,-1,-1,82,-1,-1,84,86,-1,88,-1,-1,90,92,-1,94,-1,96,-1,98,-1,-1,-1,-1,100,-1,-1,-1,-1,102,104,106,-1,108,-1,-1,110,-1,-1,112,114,-1,-1,-1,-1,-1,-1,-1,-1,-1,-1,-1,-1,-1,-1,-1,-1,-1,-1,-1,-1,-1,-1,-1,-1,-1,-1],"split_conditions":[2.94E0,6.6717E3,1.2701707E-1,3.14E0,-1.73523E3,-4.72453E3,2.115E2,6.75559E3,1.5205859E3,-4.69E0,-1.046E1,6.3679536E3,-7.56E0,2.6185005E1,1.088E1,1.838E1,6.93668E3,6.3E0,-4.3E-1,-3.01E0,2.0016668E0,6.77835E3,-1.05E0,6.764E3,-2.8488588E-2,4.7458043E0,5.420069E-1,6.64258E3,8.266668E-3,6.79925E3,4.5605835E1,-3.44E0,-1.50706135E-2,6.6384614E-1,6.95123E3,2.901706E4,2.9867843E-1,-3.571829E-2,-5.0655827E-3,-1.35E0,-2.511E1,3.712852E-2,-0E0,7.46E0,1.997731E0,1.0325712E-3,5.7573E2,7.21875E0,1.8590357E-2,3.5694297E-2,9.113568E-3,2.901706E4,-1.0865838E-2,1.7209133E-2,-6.842E1,1.51E1,1.3129836E-2,-1.8E1,-0E0,-1.0500675E-2,-1.4206264E4,6.9066E3,3.3558838E-3,2E0,3.0309036E-2,1.4995E2,6.909937E-3,6.65874E3,-9.183572E-3,-1.057001E-2,2.1629684E-2,-3.491665E-2,1.4402E2,-3.5046082E-2,-7.824839E-4,-4.42216E-2,-1.4828789E-2,6.3E-1,1.23276665E2,1.346E1,6.6381725E-3,4E0,-2.9522718E-3,1.7183362E-2,6.92884E3,-3.7139945E-2,-8.955261E-3,5.778632E0,6.83319E3,9.321275E-3,3.634626E-2,-7.176777E-3,-2.4699232E-2,6.943608E-3,-6.2658424E-3,-1.7269494E-2,1.4482341E-3,-1.1191947E-3,1.43941E-2,7.815455E-3,-2.4438675E-2,-2.3651615E-2,4.840707E-3,-4.1540563E-2,-1.6119644E-2,-7.21367E-4,-1.5181842E-2,1.927209E-2,-0E0,4.254377E-2,2.500921E-2,3.2179926E-2,-4.8512896E-3,3.9836332E-2,2.004615E-2],"split_indices":[107,22,164,70,68,84,68,10,161,107,106,89,12,192,106,67,1,75,114,13,174,20,13,41,0,152,110,0,0,37,176,69,0,53,35,89,213,0,0,31,105,0,0,218,77,0,68,89,0,0,0,89,0,0,128,13,0,12,0,0,160,1,0,212,0,44,0,6,0,0,0,0,44,0,0,0,0,114,183,43,0,212,0,0,19,0,0,166,22,0,0,0,0,0,0,0,0,0,0,0,0,0,0,0,0,0,0,0,0,0,0,0,0,0,0],"split_type":[0,0,0,0,0,0,0,0,0,0,0,0,0,0,0,0,0,0,0,0,0,0,0,0,0,0,0,0,0,0,0,0,0,0,0,0,0,0,0,0,0,0,0,0,0,0,0,0,0,0,0,0,0,0,0,0,0,0,0,0,0,0,0,0,0,0,0,0,0,0,0,0,0,0,0,0,0,0,0,0,0,0,0,0,0,0,0,0,0,0,0,0,0,0,0,0,0,0,0,0,0,0,0,0,0,0,0,0,0,0,0,0,0,0,0],"sum_hessian":[1.1259048E3,6.91798E2,4.3410678E2,4.0848776E2,2.833102E2,1.8990764E2,2.4419913E2,2.4809438E2,1.6039339E2,1.1393547E2,1.6937473E2,9.522975E1,9.4677895E1,1.2087213E2,1.23326996E2,1.1797012E2,1.3012425E2,1.3517403E2,2.5219374E1,8.9069374E1,2.48661E1,8.091662E1,8.845811E1,7.560744E1,1.9622314E1,2.6086613E1,6.859128E1,1.05164764E2,1.5707366E1,3.840573E1,8.4921265E1,1.0606446E2,1.1905661E1,6.1103077E1,6.902119E1,7.679811E1,5.837591E1,1.4228528E1,1.0990845E1,2.377542E1,6.529395E1,1.4807597E1,1.0058503E1,2.6993917E1,5.3922703E1,1.6642118E1,7.181599E1,6.2586613E1,1.30208235E1,1.23680725E1,1.371854E1,5.298035E1,1.5610927E1,1.0352573E1,9.4812195E1,2.102635E1,1.7379383E1,7.470118E1,1.0220085E1,1.5846343E1,9.021812E1,4.73549E1,1.3748173E1,5.7392864E1,1.162832E1,6.5399086E1,1.1399025E1,4.3767387E1,1.4608524E1,1.224163E1,1.1533791E1,3.206665E1,3.3227303E1,1.5314123E1,1.1679795E1,4.386984E1,1.0052864E1,3.598985E1,3.5826138E1,5.143129E1,1.1155324E1,3.3897106E1,1.9083248E1,1.0019037E1,8.479315E1,1.0297362E1,1.0728987E1,2.5490206E1,4.9210976E1,7.352903E1,1.6689085E1,3.6238728E1,1.1116175E1,2.4949064E1,3.24438E1,5.4004074E1,1.139501E1,3.2263836E1,1.150355E1,1.21085825E1,2.1118721E1,2.2137648E1,1.3852203E1,2.1451324E1,1.4374814E1,3.383045E1,1.760084E1,2.1222883E1,1.267422E1,6.5965546E1,1.8827612E1,1.0707956E1,1.4782249E1,3.1488495E1,1.7722479E1],"tree_param":{"num_deleted":"0","num_feature":"222","num_nodes":"115","size_leaf_vector":"1"}},{"base_weights":[-1.8612886E-2,-3.2375005E-1,4.2006412E-1,-8.814887E-2,-6.3873893E-1,4.3275654E-2,7.405631E-1,-4.5236252E-2,-2.6758986E-2,-2.768607E-1,-8.702855E-1,-6.498887E-2,5.549913E-1,1.1854912E0,5.331545E-1,-1.501947E-1,2.4855143E-1,-9.804575E-1,6.436819E-2,-4.496265E-1,-1.0998861E0,-5.4510224E-1,1.8087193E-2,3.31012E-2,-1.3638341E-3,7.5880676E-3,1.317757E0,1.8923646E-1,1.0006005E0,3.831017E-2,-2.8904527E-1,2.2438163E-2,7.413073E-2,-3.6389142E-2,-8.724508E-3,-3.091657E-1,5.632434E-1,-3.4760598E-2,-3.0334352E-2,-1.1879824E0,-8.207958E-3,-3.3104613E-2,5.282179E-4,2.5755472E-2,-6.0586907E-2,4.3388616E-2,2.418205E-2,-0E0,2.7599525E-2,1.133546E0,7.16974E-3,-2.6082683E-1,1.946687E-1,-9.296662E-2,-5.4349273E-1,1.2711283E-2,-5.6587504E-3,-6.608216E-1,1.517888E-2,3.331779E-2,-6.431731E-3,-4.481911E-1,2.0556215E-2,-1.9270118E-2,-3.8504444E-2,-0E0,-1.9938225E-2,2.7905412E-2,-2.0473696E-1,4.023918E-2,7.3386437E-1,-0E0,-1.2907353E-2,-1.359373E-4,1.1861583E-2,-5.727808E-3,1.6555369E-2,-1.1690635E-2,-3.3659462E-2,4.4919336E-3,-4.515977E-3,-3.4243695E-2,5.008816E-3,2.8255389E-3,-2.4147652E-2,-2.455159E-3,9.238349E-3,4.138592E-3,-2.3862412E-2,5.5202646E-3,3.0933645E-2],"categories":[],"categories_nodes":[],"categories_segments":[],"categories_sizes":[],"default_left":[0,0,0,0,0,0,0,0,0,0,0,0,0,0,0,0,0,0,0,0,0,0,0,0,0,0,0,0,0,0,0,0,0,0,0,0,0,0,0,0,0,0,0,0,0,0,0,0,0,0,0,0,0,0,0,0,0,0,0,0,0,0,0,0,0,0,0,0,0,0,0,0,0,0,0,0,0,0,0,0,0,0,0,0,0,0,0,0,0,0,0],"id":11,"left_children":[1,3,5,7,9,11,13,15,-1,17,19,21,23,25,27,29,31,33,35,37,39,41,43,-1,-1,-1,45,47,49,51,53,-1,55,-1,-1,57,59,-1,61,63,-1,-1,-1,-1,65,-1,-1,67,-1,69,-1,71,73,75,77,-1,79,81,-1,-1,-1,83,-1,-1,-1,85,-1,-1,87,-1,89,-1,-1,-1,-1,-1,-1,-1,-1,-1,-1,-1,-1,-1,-1,-1,-1,-1,-1,-1,-1],"loss_changes":[1.514397E2,4.9101303E1,5.553238E1,1.274523E1,2.2794647E1,1.22805605E1,2.0918335E1,1.1390863E1,0E0,2.8155167E1,1.4829132E1,7.431512E0,1.3380699E1,8.043976E0,2.7112007E1,7.3208485E0,7.8851094E0,4.652977E0,1.5146504E1,1.8604156E1,6.5526123E0,9.187503E0,1.06742115E1,0E0,0E0,0E0,9.1439056E-1,1.4123906E1,6.160248E0,5.5167704E0,7.5423603E0,0E0,2.2916994E0,0E0,0E0,1.3857014E1,1.5818004E1,0E0,1.3419782E1,2.4605408E0,0E0,0E0,0E0,0E0,5.0413594E0,0E0,0E0,1.6676985E1,0E0,2.061676E0,0E0,1.6898205E0,3.347339E0,5.945699E0,4.4137077E0,0E0,1.429087E0,1.4097146E1,0E0,0E0,0E0,6.106247E0,0E0,0E0,0E0,3.3090975E0,0E0,0E0,1.4881909E1,0E0,3.28121E0,0E0,0E0,0E0,0E0,0E0,0E0,0E0,0E0,0E0,0E0,0E0,0E0,0E0,0E0,0E0,0E0,0E0,0E0,0E0,0E0],"parents":[2147483647,0,0,1,1,2,2,3,3,4,4,5,5,6,6,7,7,9,9,10,10,11,11,12,12,13,13,14,14,15,15,16,16,17,17,18,18,19,19,20,20,21,21,22,22,26,26,27,27,28,28,29,29,30,30,32,32,35,35,36,36,38,38,39,39,44,44,47,47,49,49,51,51,52,52,53,53,54,54,56,56,57,57,61,61,65,65,68,68,70,70],"right_children":[2,4,6,8,10,12,14,16,-1,18,20,22,24,26,28,30,32,34,36,38,40,42,44,-1,-1,-1,46,48,50,52,54,-1,56,-1,-1,58,60,-1,62,64,-1,-1,-1,-1,66,-1,-1,68,-1,70,-1,72,74,76,78,-1,80,82,-1,-1,-1,84,-1,-1,-1,86,-1,-1,88,-1,90,-1,-1,-1,-1,-1,-1,-1,-1,-1,-1,-1,-1,-1,-1,-1,-1,-1,-1,-1,-1],"split_conditions":[1.67E0,6.65995E3,5.769674E0,5.791E1,-1.96645E3,6.611438E-2,-6.7936E2,2.051E1,-2.6758986E-2,-3.002E1,-1.6500671E3,9.970833E-1,5.123E1,6.664197E3,6.622064E-1,-1.6442727E4,7E1,6.8845E3,6.8340327E3,-2.449E1,1.6042E2,-5.176E1,3.8494936E-1,3.31012E-2,-1.3638341E-3,7.5880676E-3,2.1425173E3,2.905E1,3.78833E3,-2.81E0,1E0,2.2438163E-2,3.6E2,-3.6389142E-2,-8.724508E-3,-4.94E0,6.90974E3,-3.4760598E-2,5.5165377E0,-2.1E0,-8.207958E-3,-3.3104613E-2,5.282179E-4,2.5755472E-2,5.76938E2,4.3388616E-2,2.418205E-2,1.992E1,2.7599525E-2,1.06E0,7.16974E-3,6.80525E3,6.7655E3,1.0928643E-3,2.8975427E2,1.2711283E-2,6.68466E3,1E-2,1.517888E-2,3.331779E-2,-6.431731E-3,1.2416769E3,2.0556215E-2,-1.9270118E-2,-3.8504444E-2,1.3501886E5,-1.9938225E-2,2.7905412E-2,1.2848E3,4.023918E-2,-2.0839E2,-0E0,-1.2907353E-2,-1.359373E-4,1.1861583E-2,-5.727808E-3,1.6555369E-2,-1.1690635E-2,-3.3659462E-2,4.4919336E-3,-4.515977E-3,-3.4243695E-2,5.008816E-3,2.8255389E-3,-2.4147652E-2,-2.455159E-3,9.238349E-3,4.138592E-3,-2.3862412E-2,5.5202646E-3,3.0933645E-2],"split_indices":[107,22,187,67,68,221,68,43,0,106,162,86,49,151,213,158,85,42,153,14,63,12,60,0,0,0,162,107,68,13,90,0,16,0,0,107,18,0,152,13,0,0,0,0,215,0,0,133,0,163,0,9,42,221,159,0,6,32,0,0,0,159,0,0,0,76,0,0,68,0,26,0,0,0,0,0,0,0,0,0,0,0,0,0,0,0,0,0,0,0,0],"split_type":[0,0,0,0,0,0,0,0,0,0,0,0,0,0,0,0,0,0,0,0,0,0,0,0,0,0,0,0,0,0,0,0,0,0,0,0,0,0,0,0,0,0,0,0,0,0,0,0,0,0,0,0,0,0,0,0,0,0,0,0,0,0,0,0,0,0,0,0,0,0,0,0,0,0,0,0,0,0,0,0,0,0,0,0,0,0,0,0,0,0,0],"sum_hessian":[1.127685E3,6.660526E2,4.6163245E2,3.8341672E2,2.8263586E2,2.1394373E2,2.4768872E2,3.66581E2,1.683572E1,1.1283685E2,1.6979903E2,1.7721825E2,3.6725468E1,7.498674E1,1.7270198E2,2.7206326E2,9.4517746E1,3.610625E1,7.67306E1,6.2812454E1,1.06986565E2,2.5388514E1,1.5182974E2,1.8754705E1,1.7970762E1,1.0507469E1,6.447927E1,1.0173265E2,7.096934E1,1.14484795E2,1.5757846E2,2.2022318E1,7.249543E1,2.5325119E1,1.0781131E1,4.373913E1,3.2991474E1,2.158721E1,4.1225243E1,9.5340996E1,1.164557E1,1.2224486E1,1.3164027E1,1.1843492E1,1.3998625E2,4.783381E1,1.664546E1,8.265605E1,1.9076597E1,5.903163E1,1.1937705E1,3.774293E1,7.674186E1,9.1649E1,6.592946E1,1.3034345E1,5.9461086E1,3.1249664E1,1.2489464E1,1.9237505E1,1.3753967E1,2.6939405E1,1.4285839E1,1.7282614E1,7.805838E1,1.293928E2,1.0593434E1,1.3843938E1,6.881211E1,3.4917927E1,2.4113703E1,1.6008198E1,2.1734735E1,3.8247402E1,3.8494453E1,8.14572E1,1.0191807E1,5.5409214E1,1.0520248E1,2.6991741E1,3.2469345E1,1.9673061E1,1.1576604E1,1.0716422E1,1.6222982E1,1.0398307E2,2.5409744E1,4.398181E1,2.48303E1,1.0188139E1,1.3925563E1],"tree_param":{"num_deleted":"0","num_feature":"222","num_nodes":"91","size_leaf_vector":"1"}},{"base_weights":[5.054133E-3,-2.7058816E-1,4.4607595E-1,-7.011668E-2,-5.7776433E-1,-1.1646988E-2,6.9824004E-1,-2.3639467E-2,-5.816577E-1,-1.0320197E0,-3.9469567E-1,3.0432293E-2,-9.922113E-2,1.1795397E0,5.215371E-1,2.9292805E-2,-6.689338E-2,-2.4885423E-5,-8.232851E-1,-1.187395E0,-8.203129E-3,1.7387842E-1,-7.054105E-1,-0E0,-2.4272837E-2,1.4047691E-2,3.856042E-2,2.1773939E-1,9.2983854E-1,4.2893223E-2,-2.4312498E-1,-3.4329493E-2,-9.548702E-3,-8.561247E-1,-4.337783E-2,4.2572737E-1,-2.7035322E-2,1.6443077E-2,-1.0268637E0,-1.7690918E-1,1.14991695E-1,4.9347326E-2,9.2748743E-1,1.1342009E-2,1.0388958E0,5.387901E-1,-3.5894565E-2,-7.314895E-1,-1.358713E-1,-1.3170783E-2,-3.4302767E-2,-4.2860326E-4,8.104044E-1,-1.6158978E-2,3.4922737E-1,-1.1867738E0,-7.974098E-3,-0E0,-1.5279377E-2,1.0400369E-2,1.513554E-2,-3.4038657E-1,3.3744374E-1,3.5347544E-2,1.3759656E-2,1.1356682E0,1.0772372E-2,6.1333766E-3,2.3011385E-2,-6.0449443E-3,6.4185746E-3,-7.835611E-3,-3.292428E-2,-7.2369524E-3,5.9305597E-3,1.415006E-2,-1.8106688E-2,6.201401E-3,3.2887492E-2,2.5511099E-2,-9.051207E-3,-1.4712715E-2,-3.8287323E-2,6.9814455E-3,-5.416222E-3,-2.4944476E-3,9.28713E-3,-0E0,-2.3472132E-2,1.9631742E-2,-4.2695426E-3,2.1962948E-2,3.800109E-2],"categories":[],"categories_nodes":[],"categories_segments":[],"categories_sizes":[],"default_left":[0,0,0,0,0,0,0,0,0,0,0,0,0,0,0,0,0,0,0,0,0,0,0,0,0,0,0,0,0,0,0,0,0,0,0,0,0,0,0,0,0,0,0,0,0,0,0,0,0,0,0,0,0,0,0,0,0,0,0,0,0,0,0,0,0,0,0,0,0,0,0,0,0,0,0,0,0,0,0,0,0,0,0,0,0,0,0,0,0,0,0,0,0],"id":12,"left_children":[1,3,5,7,9,11,13,15,17,19,21,-1,23,25,27,-1,29,-1,31,33,-1,35,37,39,-1,-1,-1,41,43,45,47,-1,-1,49,-1,51,-1,53,55,57,59,61,63,-1,65,67,69,71,73,-1,-1,75,77,-1,79,81,-1,83,-1,-1,85,87,89,-1,-1,91,-1,-1,-1,-1,-1,-1,-1,-1,-1,-1,-1,-1,-1,-1,-1,-1,-1,-1,-1,-1,-1,-1,-1,-1,-1,-1,-1],"loss_changes":[1.3783595E2,4.2493736E1,5.0742363E1,9.769277E0,2.1244583E1,1.3789954E1,2.1918762E1,1.664947E1,4.41442E0,7.6529922E0,3.5703426E1,0E0,1.00467205E1,3.4462051E0,2.5163734E1,0E0,7.443657E0,0E0,2.3798447E0,1.7227478E0,0E0,1.9869076E1,3.0652397E1,2.7202697E0,0E0,0E0,0E0,1.4258743E1,3.8374405E0,9.399491E0,7.084196E0,0E0,0E0,2.1749153E0,0E0,1.017715E1,0E0,7.942678E0,9.632584E0,2.994128E0,1.6447066E0,1.1796576E1,8.1962013E-1,0E0,3.1788101E0,1.7159462E0,8.445799E0,3.090601E0,4.478152E0,0E0,0E0,9.080827E0,4.407917E0,0E0,9.825326E0,2.4442444E0,0E0,1.6406157E0,0E0,0E0,1.873778E0,6.95572E0,9.715113E0,0E0,0E0,3.995514E-1,0E0,0E0,0E0,0E0,0E0,0E0,0E0,0E0,0E0,0E0,0E0,0E0,0E0,0E0,0E0,0E0,0E0,0E0,0E0,0E0,0E0,0E0,0E0,0E0,0E0,0E0,0E0],"parents":[2147483647,0,0,1,1,2,2,3,3,4,4,5,5,6,6,7,7,8,8,9,9,10,10,12,12,13,13,14,14,16,16,18,18,19,19,21,21,22,22,23,23,27,27,28,28,29,29,30,30,33,33,35,35,37,37,38,38,39,39,40,40,41,41,42,42,44,44,45,45,46,46,47,47,48,48,51,51,52,52,54,54,55,55,57,57,60,60,61,61,62,62,65,65],"right_children":[2,4,6,8,10,12,14,16,18,20,22,-1,24,26,28,-1,30,-1,32,34,-1,36,38,40,-1,-1,-1,42,44,46,48,-1,-1,50,-1,52,-1,54,56,58,60,62,64,-1,66,68,70,72,74,-1,-1,76,78,-1,80,82,-1,84,-1,-1,86,88,90,-1,-1,92,-1,-1,-1,-1,-1,-1,-1,-1,-1,-1,-1,-1,-1,-1,-1,-1,-1,-1,-1,-1,-1,-1,-1,-1,-1,-1,-1],"split_conditions":[3E0,5.08E0,3.474124E-6,6.8017E3,-2.526E1,3.8494936E-1,-6.7936E2,-2.0529518E1,-9.4445E2,-7.333333E-2,-1.86025E3,3.0432293E-2,5.76938E2,6.6639507E3,6.622064E-1,2.9292805E-2,6.4E-1,-2.4885423E-5,2.3450157E-1,1.0975872E-2,-8.203129E-3,1.0340975E3,-1.6033971E3,2.7043E2,-2.4272837E-2,1.4047691E-2,3.856042E-2,2.85E1,-4.1705E2,6.65333E3,4.0824562E-1,-3.4329493E-2,-9.548702E-3,-3.02E0,-4.337783E-2,6.7705117E3,-2.7035322E-2,-1.5779E2,1.67E0,6.66525E3,4E2,3.4152672E-1,2.200534E0,1.1342009E-2,3.4334E2,6.59495E3,6.93668E3,-9.5E0,0E0,-1.3170783E-2,-3.4302767E-2,1.1274675E-1,-2.0529518E1,-1.6158978E-2,-5.17E0,-4.7569897E-2,-7.974098E-3,7.507127E1,-1.5279377E-2,1.0400369E-2,1.0684309E-2,6.9558644E0,4.6066666E0,3.5347544E-2,1.3759656E-2,2.051E1,1.0772372E-2,6.1333766E-3,2.3011385E-2,-6.0449443E-3,6.4185746E-3,-7.835611E-3,-3.292428E-2,-7.2369524E-3,5.9305597E-3,1.415006E-2,-1.8106688E-2,6.201401E-3,3.2887492E-2,2.5511099E-2,-9.051207E-3,-1.4712715E-2,-3.8287323E-2,6.9814455E-3,-5.416222E-3,-2.4944476E-3,9.28713E-3,-0E0,-2.3472132E-2,1.9631742E-2,-4.2695426E-3,2.1962948E-2,3.800109E-2],"split_indices":[106,135,154,20,106,60,68,204,68,155,68,0,215,153,213,0,119,0,55,56,0,162,162,123,0,0,0,106,28,2,109,0,0,128,0,153,0,28,105,41,16,55,77,0,184,8,1,75,69,0,0,214,204,0,139,55,0,141,0,0,56,154,155,0,0,133,0,0,0,0,0,0,0,0,0,0,0,0,0,0,0,0,0,0,0,0,0,0,0,0,0,0,0],"split_type":[0,0,0,0,0,0,0,0,0,0,0,0,0,0,0,0,0,0,0,0,0,0,0,0,0,0,0,0,0,0,0,0,0,0,0,0,0,0,0,0,0,0,0,0,0,0,0,0,0,0,0,0,0,0,0,0,0,0,0,0,0,0,0,0,0,0,0,0,0,0,0,0,0,0,0,0,0,0,0,0,0,0,0,0,0,0,0,0,0,0,0,0,0],"sum_hessian":[1.129145E3,6.946329E2,4.3451212E2,4.227918E2,2.7184106E2,1.5431946E2,2.8019266E2,3.9039175E2,3.2400055E1,7.4636566E1,1.9720451E2,1.0021923E1,1.4429753E2,7.143617E1,2.0875648E2,1.3916748E1,3.76475E2,1.0716268E1,2.1683788E1,6.0462708E1,1.417386E1,6.942887E1,1.27775635E2,1.2875032E2,1.5547204E1,1.1267563E1,6.0168606E1,1.22156654E2,8.659983E1,2.3115126E2,1.4532373E2,1.1103232E1,1.0580556E1,3.1130564E1,2.9332144E1,5.7606674E1,1.1822199E1,3.94744E1,8.830124E1,5.1386765E1,7.736356E1,1.0103016E2,2.1126492E1,1.6522572E1,7.0077255E1,3.0959396E1,2.0019186E2,2.3233063E1,1.2209067E2,1.5469194E1,1.5661369E1,2.766101E1,2.9945663E1,1.3768797E1,2.5705603E1,7.1501915E1,1.6799324E1,3.5403038E1,1.5983729E1,2.030377E1,5.705979E1,4.2048645E1,5.8981514E1,1.1097809E1,1.0028683E1,5.952697E1,1.0550286E1,1.49876795E1,1.5971717E1,1.2182927E2,7.8362595E1,1.2265302E1,1.0967761E1,9.434311E1,2.7747562E1,1.5295441E1,1.2365571E1,1.1292338E1,1.8653324E1,1.4611686E1,1.1093916E1,1.0253099E1,6.1248814E1,1.4523874E1,2.0879162E1,4.258258E1,1.4477209E1,2.4348904E1,1.7699743E1,3.5706642E1,2.3274876E1,1.875475E1,4.077222E1],"tree_param":{"num_deleted":"0","num_feature":"222","num_nodes":"93","size_leaf_vector":"1"}},{"base_weights":[-1.1574032E-2,-3.7525845E-1,3.0553752E-1,-1.11158E-1,-6.879495E-1,6.867844E-2,6.723413E-1,1.1221479E-2,-3.2743675E-1,2.2988177E-3,-7.596842E-1,-2.4833546E-3,7.347984E-1,4.1252846E-1,9.176512E-1,6.83366E-2,-2.3084324E-2,-7.588642E-1,-1.04478516E-1,-1.1684128E0,-6.073656E-1,-7.4536584E-2,5.259538E-1,7.1836873E-3,3.345233E-2,6.242769E-1,-4.2512175E-1,4.200126E-3,1.0253683E0,3.520007E-1,-4.437886E-2,-3.6157448E-2,-9.467974E-3,-3.2939854E-1,1.3393169E-2,-1.3413094E-2,-3.9824408E-2,2.637731E-1,-7.3860264E-1,3.1975344E-1,-1.5078175E-1,1.4887045E-1,3.3616215E-2,-7.5211534E-3,7.530074E-1,-2.9036267E-2,1.2637882E-3,1.2836424E0,6.6636395E-1,1.5545698E-1,2.6935626E-2,7.591951E-2,-4.3393221E-1,-1.3535644E-2,-6.2784094E-1,-5.3356243E-3,2.05616E-2,-4.8187163E-1,-1.069459E0,5.3489965E-1,-9.829477E-3,-7.991385E-2,-8.030767E-1,-0E0,7.955949E-3,3.4023833E-1,1.0524402E0,4.2254325E-2,2.1119671E-2,9.785497E-1,-4.0346845E-3,9.523908E-3,-7.3571387E-3,-1.4302924E-2,5.3066374E-3,-2.4370868E-2,-3.081196E-3,-1.2719081E-2,7.6342844E-3,-2.6944406E-2,-9.263225E-3,8.846498E-3,-2.2071797E-2,-3.6824983E-2,-6.859248E-3,1.5355553E-4,2.601078E-2,-3.729791E-3,1.6459929E-2,-9.882846E-3,-3.48193E-2,2.7086576E-2,-5.1868437E-3,3.7232883E-2,1.7849535E-2,9.550788E-3,3.96496E-2],"categories":[],"categories_nodes":[],"categories_segments":[],"categories_sizes":[],"default_left":[0,0,0,0,0,0,0,0,0,0,0,0,0,0,0,0,0,0,0,0,0,0,0,0,0,0,0,0,0,0,0,0,0,0,0,0,0,0,0,0,0,0,0,0,0,0,0,0,0,0,0,0,0,0,0,0,0,0,0,0,0,0,0,0,0,0,0,0,0,0,0,0,0,0,0,0,0,0,0,0,0,0,0,0,0,0,0,0,0,0,0,0,0,0,0,0,0],"id":13,"left_children":[1,3,5,7,9,11,13,15,17,-1,19,21,23,25,27,29,-1,31,33,35,37,39,41,-1,-1,43,45,-1,47,49,51,-1,-1,53,-1,-1,-1,55,57,59,61,63,-1,-1,65,-1,-1,67,69,71,-1,73,75,77,79,-1,-1,81,83,85,-1,87,89,-1,-1,91,93,-1,-1,95,-1,-1,-1,-1,-1,-1,-1,-1,-1,-1,-1,-1,-1,-1,-1,-1,-1,-1,-1,-1,-1,-1,-1,-1,-1,-1,-1],"loss_changes":[1.3086916E2,4.3143745E1,5.2129005E1,7.8439317E0,1.36772995E1,1.7950119E1,1.3648422E1,8.0361185E0,9.642104E0,0E0,1.145974E1,1.26610775E1,5.660652E0,2.181878E1,9.098419E0,5.796358E0,0E0,5.4358864E0,9.3079195E0,4.4632034E0,1.9622547E1,8.989076E0,7.950609E0,0E0,0E0,1.1513992E1,6.838196E0,0E0,6.9240646E0,4.707605E0,6.1546803E0,0E0,0E0,4.7324886E0,0E0,0E0,0E0,4.7295303E0,1.0546097E1,7.1350665E0,1.1109267E1,4.5347857E-1,0E0,0E0,9.12331E0,0E0,0E0,1.1075287E0,1.2769333E1,2.8454127E0,0E0,5.4358726E0,3.2655206E0,3.4892411E0,1.153039E0,0E0,0E0,1.7686165E1,6.822876E0,6.1253195E0,0E0,6.3674936E0,2.5289116E0,0E0,0E0,1.2080412E1,1.7257347E0,0E0,0E0,6.372402E0,0E0,0E0,0E0,0E0,0E0,0E0,0E0,0E0,0E0,0E0,0E0,0E0,0E0,0E0,0E0,0E0,0E0,0E0,0E0,0E0,0E0,0E0,0E0,0E0,0E0,0E0,0E0],"parents":[2147483647,0,0,1,1,2,2,3,3,4,4,5,5,6,6,7,7,8,8,10,10,11,11,12,12,13,13,14,14,15,15,17,17,18,18,19,19,20,20,21,21,22,22,25,25,26,26,28,28,29,29,30,30,33,33,37,37,38,38,39,39,40,40,41,41,44,44,47,47,48,48,49,49,51,51,52,52,53,53,54,54,57,57,58,58,59,59,61,61,62,62,65,65,66,66,69,69],"right_children":[2,4,6,8,10,12,14,16,18,-1,20,22,24,26,28,30,-1,32,34,36,38,40,42,-1,-1,44,46,-1,48,50,52,-1,-1,54,-1,-1,-1,56,58,60,62,64,-1,-1,66,-1,-1,68,70,72,-1,74,76,78,80,-1,-1,82,84,86,-1,88,90,-1,-1,92,94,-1,-1,96,-1,-1,-1,-1,-1,-1,-1,-1,-1,-1,-1,-1,-1,-1,-1,-1,-1,-1,-1,-1,-1,-1,-1,-1,-1,-1,-1],"split_conditions":[-7.3E-1,5E0,1.0928643E-3,-1.481E1,-4.05899E3,6.87486E3,6.1064845E-1,3.0750061E1,-3.149619E4,2.2988177E-3,-2.773E1,8.303072E-1,3.05E0,2.7703058E2,6.71033E3,3.8344285E-1,-2.3084324E-2,4.9133006E-1,7.910257E2,-1.542495E2,-9.231667E0,3.8932693E-1,2.6019466E0,7.1836873E-3,3.345233E-2,-1.2019917E3,6.8675E3,4.200126E-3,3.5654E2,2.5E1,6.85828E3,-3.6157448E-2,-9.467974E-3,-4.69E0,1.3393169E-2,-1.3413094E-2,-3.9824408E-2,-9.871686E3,6.85908E3,6.539272E2,6.69138E3,6.87831E3,3.3616215E-2,-7.5211534E-3,8.6E0,-2.9036267E-2,1.2637882E-3,2.7685E2,-2.6968E2,6.85517E3,2.6935626E-2,6.63775E3,2.3245416E2,-5.45E0,7.2999E2,-5.3356243E-3,2.05616E-2,-9.309889E-1,-1.4E0,-4.98125E0,-9.829477E-3,5.1864533E0,2.0142E2,-0E0,7.955949E-3,-1.01023E3,2.1818945E3,4.2254325E-2,2.1119671E-2,2.3397514E-1,-4.0346845E-3,9.523908E-3,-7.3571387E-3,-1.4302924E-2,5.3066374E-3,-2.4370868E-2,-3.081196E-3,-1.2719081E-2,7.6342844E-3,-2.6944406E-2,-9.263225E-3,8.846498E-3,-2.2071797E-2,-3.6824983E-2,-6.859248E-3,1.5355553E-4,2.601078E-2,-3.729791E-3,1.6459929E-2,-9.882846E-3,-3.48193E-2,2.7086576E-2,-5.1868437E-3,3.7232883E-2,1.7849535E-2,9.550788E-3,3.96496E-2],"split_indices":[107,135,221,107,27,21,60,204,200,0,106,109,105,200,1,54,0,110,157,71,155,111,185,0,0,186,38,0,66,15,0,0,0,105,0,0,0,98,19,157,19,1,0,0,105,0,0,121,25,0,0,38,85,115,172,0,0,221,105,85,0,173,67,0,0,27,161,0,0,58,0,0,0,0,0,0,0,0,0,0,0,0,0,0,0,0,0,0,0,0,0,0,0,0,0,0,0],"split_type":[0,0,0,0,0,0,0,0,0,0,0,0,0,0,0,0,0,0,0,0,0,0,0,0,0,0,0,0,0,0,0,0,0,0,0,0,0,0,0,0,0,0,0,0,0,0,0,0,0,0,0,0,0,0,0,0,0,0,0,0,0,0,0,0,0,0,0,0,0,0,0,0,0,0,0,0,0,0,0,0,0,0,0,0,0,0,0,0,0,0,0,0,0,0,0,0,0],"sum_hessian":[1.1304603E3,5.271267E2,6.033336E2,2.8810324E2,2.3902348E2,3.6887476E2,2.3445883E2,1.8372717E2,1.0437605E2,1.9892715E1,2.1913077E2,3.3439334E2,3.4481415E1,1.17458084E2,1.1700075E2,1.7349953E2,1.0227656E1,3.3160393E1,7.121566E1,5.4978455E1,1.6415231E2,2.966137E2,3.777965E1,1.6961712E1,1.7519703E1,9.464043E1,2.2817657E1,1.5359141E1,1.0164161E2,4.9390812E1,1.2410871E2,1.4247052E1,1.8913342E1,5.1785313E1,1.9430344E1,1.187858E1,4.3099873E1,2.072855E1,1.4342375E2,4.5965416E1,2.5064828E2,2.5163063E1,1.2616591E1,1.1396852E1,8.3243576E1,1.0059635E1,1.2758022E1,5.530812E1,4.6333485E1,3.8877796E1,1.0513015E1,9.507516E1,2.9033554E1,2.698803E1,2.4797285E1,1.0109527E1,1.0619022E1,8.4375725E1,5.904803E1,3.5340767E1,1.0624649E1,2.288019E2,2.1846395E1,1.215559E1,1.3007472E1,3.7496666E1,4.5746906E1,4.244482E1,1.2863302E1,3.346777E1,1.2865717E1,2.886894E1,1.0008855E1,1.2771315E1,8.230384E1,1.1490622E1,1.7542933E1,1.0938529E1,1.6049501E1,1.0610993E1,1.4186291E1,2.0218264E1,6.415746E1,4.8430553E1,1.0617476E1,1.498083E1,2.0359936E1,2.1594412E2,1.2857778E1,1.1652256E1,1.0194139E1,1.7625595E1,1.987107E1,2.9189846E1,1.6557062E1,1.3262155E1,2.0205612E1],"tree_param":{"num_deleted":"0","num_feature":"222","num_nodes":"97","size_leaf_vector":"1"}},{"base_weights":[-2.0656534E-2,-2.8288755E-1,4.068101E-1,-6.243571E-2,-5.289823E-1,-3.862572E-2,6.600725E-1,8.0785066E-2,-2.9974076E-1,-6.6333663E-1,4.486577E-2,1.7687617E-1,-2.376199E-1,4.3121403E-1,1.0085142E0,4.5274168E-1,-2.107132E-2,-2.2070104E-2,-2.1409571E-1,8.850424E-3,-7.1069443E-1,-5.177139E-1,5.596336E-1,3.8841125E-1,-8.9361764E-2,-3.897852E-1,7.285638E-3,3.1681743E-1,3.301766E-2,7.2065616E-1,1.2123495E0,2.4381598E-2,1.6378175E-1,-9.596666E-2,1.5966022E-2,-2.8707913E-1,1.2833739E-2,-4.157589E-1,-8.7912714E-1,3.2849475E-3,-2.584935E-2,-7.4514025E-3,3.1119876E-2,1.7832411E-2,-0E0,-1.7106317E-2,1.67201E-1,-6.6276126E-2,-7.690137E-1,-8.740158E-4,5.2415663E-1,-2.4326167E-3,9.4362193E-1,3.972079E-2,1.6186286E-2,-4.478541E-3,1.9333696E-2,-1.7327629E-1,1.8650044E-2,-3.394753E-1,2.8827228E-3,-6.664146E-1,2.2452807E-1,-5.590599E-1,-1.0709258E0,-1.4658837E-3,1.1439379E-2,2.3222254E-3,-6.122264E-3,-3.054902E-2,-1.3236762E-2,-2.3771571E-2,3.0609062E-1,1.0510751E0,2.4481869E-1,1.22585E-2,3.5572458E-2,-1.4698512E-2,4.9570834E-5,-6.8628513E-3,-1.7603923E-2,-2.7585872E-2,-5.9408904E-4,2.5662119E-2,-1.6056366E-2,-9.481958E-3,-3.636075E-2,-3.5373796E-2,-1.1926621E-2,1.7622478E-2,-4.4818865E-3,4.1679792E-2,1.6255617E-2,1.6311122E-2,-8.074754E-3],"categories":[],"categories_nodes":[],"categories_segments":[],"categories_sizes":[],"default_left":[0,0,0,0,0,0,0,0,0,0,0,0,0,0,0,0,0,0,0,0,0,0,0,0,0,0,0,0,0,0,0,0,0,0,0,0,0,0,0,0,0,0,0,0,0,0,0,0,0,0,0,0,0,0,0,0,0,0,0,0,0,0,0,0,0,0,0,0,0,0,0,0,0,0,0,0,0,0,0,0,0,0,0,0,0,0,0,0,0,0,0,0,0,0,0],"id":14,"left_children":[1,3,5,7,9,11,13,15,17,19,21,23,25,27,29,31,33,-1,35,-1,37,39,41,43,45,47,-1,49,-1,51,53,-1,55,57,-1,59,-1,61,63,-1,-1,-1,-1,-1,-1,-1,65,67,69,71,73,-1,75,-1,-1,-1,-1,77,-1,79,-1,81,83,85,87,-1,-1,-1,-1,-1,-1,-1,89,91,93,-1,-1,-1,-1,-1,-1,-1,-1,-1,-1,-1,-1,-1,-1,-1,-1,-1,-1,-1,-1],"loss_changes":[1.271194E2,3.7822712E1,4.894957E1,1.2889419E1,2.5906677E1,6.8596745E0,2.0372246E1,9.095371E0,4.5389147E0,1.2846222E1,1.913659E1,4.4684134E0,6.3922987E0,1.165646E1,3.5537872E0,4.5941772E0,7.5272107E0,0E0,5.940811E0,0E0,1.1420029E1,7.286065E0,1.4360863E1,3.4222689E0,4.5850697E0,7.4831915E0,0E0,1.0086052E1,0E0,9.563608E0,2.0415878E0,0E0,5.22518E0,9.142655E0,0E0,2.4436102E0,0E0,1.6332314E1,7.8780136E0,0E0,0E0,0E0,0E0,0E0,0E0,0E0,1.2689207E0,8.49321E-1,7.5188637E-1,1.5291375E1,1.226037E1,0E0,3.408512E0,0E0,0E0,0E0,0E0,8.616058E0,0E0,2.074829E0,0E0,1.1256641E1,1.4809178E1,8.867361E0,5.3838425E0,0E0,0E0,0E0,0E0,0E0,0E0,0E0,6.055342E0,2.7596016E0,1.0081508E1,0E0,0E0,0E0,0E0,0E0,0E0,0E0,0E0,0E0,0E0,0E0,0E0,0E0,0E0,0E0,0E0,0E0,0E0,0E0,0E0],"parents":[2147483647,0,0,1,1,2,2,3,3,4,4,5,5,6,6,7,7,8,8,9,9,10,10,11,11,12,12,13,13,14,14,15,15,16,16,18,18,20,20,21,21,22,22,23,23,24,24,25,25,27,27,29,29,30,30,32,32,33,33,35,35,37,37,38,38,46,46,47,47,48,48,49,49,50,50,52,52,57,57,59,59,61,61,62,62,63,63,64,64,72,72,73,73,74,74],"right_children":[2,4,6,8,10,12,14,16,18,20,22,24,26,28,30,32,34,-1,36,-1,38,40,42,44,46,48,-1,50,-1,52,54,-1,56,58,-1,60,-1,62,64,-1,-1,-1,-1,-1,-1,-1,66,68,70,72,74,-1,76,-1,-1,-1,-1,78,-1,80,-1,82,84,86,88,-1,-1,-1,-1,-1,-1,-1,90,92,94,-1,-1,-1,-1,-1,-1,-1,-1,-1,-1,-1,-1,-1,-1,-1,-1,-1,-1,-1,-1],"split_conditions":[3.27E0,8.187962E1,1.05E2,3.042E1,-1.79E0,1.4465E2,1.3736916E-1,6.68E3,9.9375E-1,-5.27633E3,1.663E1,4.715E1,3.998E0,2.905E1,-6.51E0,4.65E2,3.7362212E-1,-2.2070104E-2,3E1,8.850424E-3,6.73261E3,1.3130808E3,1.945883E2,2.6316786E-1,4.75E2,-6.3183206E-1,7.285638E-3,4.3212315E1,3.301766E-2,-4.1705E2,5.9984996E4,2.4381598E-2,6.6899E3,6.97275E3,1.5966022E-2,1.5252E2,1.2833739E-2,6.77774E3,2.7566153E1,3.2849475E-3,-2.584935E-2,-7.4514025E-3,3.1119876E-2,1.7832411E-2,-0E0,-1.7106317E-2,6.86007E3,-6.51E0,4.8E2,-5.176E1,-1.23395E3,-2.4326167E-3,2.25E1,3.972079E-2,1.6186286E-2,-4.478541E-3,1.9333696E-2,4.8E2,1.8650044E-2,-3.992E-1,2.8827228E-3,4.2234045E2,6.82166E3,1.704E1,1.22425E1,-1.4658837E-3,1.1439379E-2,2.3222254E-3,-6.122264E-3,-3.054902E-2,-1.3236762E-2,-2.3771571E-2,5.123E1,-6.7333335E-1,6.88981E0,1.22585E-2,3.5572458E-2,-1.4698512E-2,4.9570834E-5,-6.8628513E-3,-1.7603923E-2,-2.7585872E-2,-5.9408904E-4,2.5662119E-2,-1.6056366E-2,-9.481958E-3,-3.636075E-2,-3.5373796E-2,-1.1926621E-2,1.7622478E-2,-4.4818865E-3,4.1679792E-2,1.6255617E-2,1.6311122E-2,-8.074754E-3],"split_indices":[107,182,15,117,107,44,214,94,86,65,43,174,102,107,62,16,55,0,15,0,20,161,182,214,16,213,0,203,0,28,200,0,6,42,0,44,0,93,175,0,0,0,0,0,0,0,1,70,16,12,25,0,218,0,0,0,0,16,0,213,0,182,17,191,197,0,0,0,0,0,0,0,49,165,154,0,0,0,0,0,0,0,0,0,0,0,0,0,0,0,0,0,0,0,0],"split_type":[0,0,0,0,0,0,0,0,0,0,0,0,0,0,0,0,0,0,0,0,0,0,0,0,0,0,0,0,0,0,0,0,0,0,0,0,0,0,0,0,0,0,0,0,0,0,0,0,0,0,0,0,0,0,0,0,0,0,0,0,0,0,0,0,0,0,0,0,0,0,0,0,0,0,0,0,0,0,0,0,0,0,0,0,0,0,0,0,0,0,0,0,0,0,0],"sum_hessian":[1.130532E3,7.018349E2,4.2869714E2,3.725993E2,3.2923557E2,1.5529182E2,2.734053E2,2.3187056E2,1.4072874E2,2.67229E2,6.2006573E1,7.345403E1,8.18378E1,1.6858669E2,1.0481861E2,4.9419765E1,1.824508E2,1.9657152E1,1.210716E2,1.1593886E1,2.5563512E2,2.9157814E1,3.284876E1,4.1467186E1,3.1986841E1,6.3230854E1,1.8606945E1,1.4713481E2,2.1451876E1,4.8230717E1,5.658789E1,1.9620995E1,2.9798773E1,1.6294946E2,1.9501335E1,1.1040308E2,1.0668511E1,9.652301E1,1.5911212E2,1.0294203E1,1.8863611E1,1.217253E1,2.0676226E1,2.624537E1,1.5221816E1,1.0956347E1,2.1030495E1,3.61016E1,2.7129255E1,5.793899E1,8.919582E1,1.028346E1,3.7947258E1,4.6234596E1,1.0353295E1,1.8250656E1,1.1548116E1,1.4910089E2,1.3848574E1,9.847077E1,1.1932315E1,6.987E1,2.6653004E1,6.353072E1,9.558139E1,1.0073498E1,1.0956997E1,1.6326244E1,1.9775354E1,1.2150282E1,1.4978972E1,1.5762178E1,4.2176815E1,2.8368525E1,6.08273E1,1.414114E1,2.3806118E1,5.279054E1,9.6310356E1,7.207708E1,2.6393694E1,4.905151E1,2.0818495E1,1.4783399E1,1.1869605E1,4.902163E1,1.4509092E1,8.04152E1,1.5166192E1,2.63936E1,1.5783214E1,1.4378808E1,1.3989716E1,3.900338E1,2.182392E1],"tree_param":{"num_deleted":"0","num_feature":"222","num_nodes":"95","size_leaf_vector":"1"}},{"base_weights":[1.9059799E-3,-2.4338953E-1,3.9115316E-1,-7.1997213E-1,-1.1933841E-1,1.6997632E-2,6.0461706E-1,-5.370805E-1,-3.5832908E-2,-7.846559E-2,-8.1439793E-1,1.5334879E-1,-4.030189E-1,3.9416504E-1,9.336429E-1,1.0553783E-2,-6.8580025E-1,-3.9698744E-1,-7.78613E-3,-9.2577E-3,-3.1720426E-2,3.104993E-1,-1.508862E-1,-2.7236702E-2,6.261162E-3,5.4008675E-1,-1.9906133E-1,1.0364293E0,8.262513E-3,-4.3248641E-1,-4.006477E-2,-7.907608E-1,3.111799E-1,-4.6272844E-2,2.1697635E-2,2.0115344E-2,4.2876375E-1,-1.6865732E-2,6.538907E-2,1.5691271E-1,7.937746E-1,2.2741939E-1,-2.5410134E-2,8.766757E-3,1.1238816E0,-1.4944403E-1,-8.6839694E-1,-2.8637527E-3,-1.0088305E0,2.5925422E-2,-9.997534E-3,-2.9390347E-1,2.7929543E-2,-2.0805905E-3,5.5847866E-3,5.872219E-1,5.8424873E-3,6.6554244E-3,-4.2642653E-3,-1.6744422E-2,3.8368937E-1,9.3242776E-1,-2.1275482E-3,1.3633215E-2,-0E0,3.996409E-2,8.321864E-1,1.2405385E-2,-1.8975886E-2,-3.532045E-2,-1.4028114E-2,-8.564697E-3,-3.654121E-2,-1.6397646E-2,-7.052806E-5,-7.9299783E-4,1.5800562E-2,2.4324087E-2,2.511104E-3,2.0005967E-2,-1.2048009E-2,3.454944E-2,1.0958339E-2,1.0960707E-3,3.3505708E-2],"categories":[],"categories_nodes":[],"categories_segments":[],"categories_sizes":[],"default_left":[0,0,0,0,0,0,0,0,0,0,0,0,0,0,0,0,0,0,0,0,0,0,0,0,0,0,0,0,0,0,0,0,0,0,0,0,0,0,0,0,0,0,0,0,0,0,0,0,0,0,0,0,0,0,0,0,0,0,0,0,0,0,0,0,0,0,0,0,0,0,0,0,0,0,0,0,0,0,0,0,0,0,0,0,0],"id":15,"left_children":[1,3,5,7,9,11,13,15,-1,17,19,21,23,25,27,-1,29,31,33,-1,-1,35,37,-1,-1,39,41,43,-1,45,-1,47,49,51,-1,53,55,-1,57,59,61,63,-1,-1,65,67,69,-1,71,-1,-1,73,75,-1,-1,77,-1,-1,-1,-1,79,81,-1,-1,-1,-1,83,-1,-1,-1,-1,-1,-1,-1,-1,-1,-1,-1,-1,-1,-1,-1,-1,-1,-1],"loss_changes":[1.0756278E2,4.0189915E1,3.448922E1,1.010701E1,1.5066734E1,9.235468E0,1.775914E1,1.4706408E1,0E0,1.1562961E1,2.3123207E0,6.107053E0,1.2828697E1,1.5373293E1,5.914261E0,0E0,1.3143768E1,2.6841537E1,1.1861742E1,0E0,0E0,2.6283445E0,4.10546E0,0E0,0E0,1.2901352E1,1.0357361E1,4.4867935E0,0E0,7.8542385E0,0E0,8.533257E0,1.3114839E1,7.7236514E0,0E0,4.9287584E-1,1.5333862E0,0E0,1.0403414E0,9.927061E0,1.0521141E1,1.3365612E0,0E0,0E0,1.5090027E0,1.3002411E1,1.3457432E0,