{"learner":{"attributes":{"best_iteration":"0","best_score":"0.6295805207328833"},"feature_names":["zero_gamma","call_wall_oi","put_wall_oi","net_gex_oi","delta_rr","regime","one_zero_gamma","one_call_wall_oi","one_put_wall_oi","call_wall_strike","put_wall_strike","wall_spread","spot_vs_call_wall","spot_vs_put_wall","spot_vs_zero_gamma","minutes_since_open","minutes_to_close","zero_major_long_gamma","zero_major_short_gamma","one_major_long_gamma","one_major_short_gamma","zero_major_call","zero_major_put","one_major_call","one_major_put","zero_agg_dex","one_agg_dex","zero_net_dex","one_net_dex","dex_flow","gex_flow","cvr_flow","one_dex_flow","one_gex_flow","one_cvr_flow","greek_major_long","greek_major_short","mr1d","mr1u","mr2d","mr2u","or1d","or1u","vix","skew","iv_r1","iv_straddle","point_r1","mdvs","odvs","spot_in_mr1_pct","mr1_extremity","outside_mr1","spot_in_mr2_pct","dist_call_wall_pct","dist_put_wall_pct","wall_skew","spot_above_zg","dist_zg_pct","spot_vs_settle","spot_in_or_pct","outside_or","net_gamma_zero","net_gamma_one","call_put_pressure","net_dex_total","vanna_total","charm_total","gex_ratio_total","dex_flow_best","gex_flow_best","flow_convergence","flow_divergence","vanna_best","charm_best","greek_major_net","mm_composite","mr1_range_width","mr1_break_risk","vix_break_signal","vix_normalized","is_hedging_hour","is_close_hedging","gex_decay_factor","net_gex_decayed","wall_spread_decayed","wall_compression","regime_flip","regime_flip_momentum","charm_decay_signal","high_charm_stable","vix_x_mr_range","flip_x_decay","spot_L1","spot_L2","spot_L3","spot_D1","net_gex_oi_L1","net_gex_oi_L2","net_gex_oi_L3","net_gex_oi_D1","delta_rr_L1","delta_rr_L2","delta_rr_L3","delta_rr_D1","spot_vs_zero_gamma_L1","spot_vs_zero_gamma_L2","spot_vs_zero_gamma_L3","spot_vs_zero_gamma_D1","spot_in_mr1_pct_L1","spot_in_mr1_pct_L2","spot_in_mr1_pct_L3","spot_in_mr1_pct_D1","dex_flow_best_L1","dex_flow_best_L2","dex_flow_best_L3","dex_flow_best_D1","gex_flow_best_L1","gex_flow_best_L2","gex_flow_best_L3","gex_flow_best_D1","vanna_best_L1","vanna_best_L2","vanna_best_L3","vanna_best_D1","charm_best_L1","charm_best_L2","charm_best_L3","charm_best_D1","net_gamma_zero_L1","net_gamma_zero_L2","net_gamma_zero_L3","net_gamma_zero_D1","call_put_pressure_L1","call_put_pressure_L2","call_put_pressure_L3","call_put_pressure_D1","greek_major_net_L1","greek_major_net_L2","greek_major_net_L3","greek_major_net_D1","mm_composite_L1","mm_composite_L2","mm_composite_L3","mm_composite_D1","regime_flip_L1","regime_flip_L2","regime_flip_L3","regime_flip_D1","spot_MA3","spot_STD3","spot_MA6","spot_STD6","spot_MA12","spot_STD12","spot_MOM","net_gex_oi_MA3","net_gex_oi_STD3","net_gex_oi_MA6","net_gex_oi_STD6","net_gex_oi_MA12","net_gex_oi_STD12","net_gex_oi_MOM","dex_flow_best_MA3","dex_flow_best_STD3","dex_flow_best_MA6","dex_flow_best_STD6","dex_flow_best_MA12","dex_flow_best_STD12","dex_flow_best_MOM","gex_flow_best_MA3","gex_flow_best_STD3","gex_flow_best_MA6","gex_flow_best_STD6","gex_flow_best_MA12","gex_flow_best_STD12","gex_flow_best_MOM","vanna_best_MA3","vanna_best_STD3","vanna_best_MA6","vanna_best_STD6","vanna_best_MA12","vanna_best_STD12","vanna_best_MOM","charm_best_MA3","charm_best_STD3","charm_best_MA6","charm_best_STD6","charm_best_MA12","charm_best_STD12","charm_best_MOM","greek_major_net_MA3","greek_major_net_STD3","greek_major_net_MA6","greek_major_net_STD6","greek_major_net_MA12","greek_major_net_STD12","greek_major_net_MOM","mm_composite_MA3","mm_composite_STD3","mm_composite_MA6","mm_composite_STD6","mm_composite_MA12","mm_composite_STD12","mm_composite_MOM","spot_accel","vix_high","vix_low","skew_high","is_first_hour","is_last_hour","is_power_hour","day_of_week","regime_x_mr1pos","regime_x_zgdist","vanna_x_vix","charm_x_decay","gamma_x_extremity","pressure_x_pos","dex_mom_x_gamma","convergence_x_regime","spot_z_score"],"feature_types":[],"gradient_booster":{"model":{"cats":{"enc":[],"feature_segments":[],"sorted_idx":[]},"gbtree_model_param":{"num_parallel_tree":"1","num_trees":"41"},"iteration_indptr":[0,1,2,3,4,5,6,7,8,9,10,11,12,13,14,15,16,17,18,19,20,21,22,23,24,25,26,27,28,29,30,31,32,33,34,35,36,37,38,39,40,41],"tree_info":[0,0,0,0,0,0,0,0,0,0,0,0,0,0,0,0,0,0,0,0,0,0,0,0,0,0,0,0,0,0,0,0,0,0,0,0,0,0,0,0,0],"trees":[{"base_weights":[1.216075E-3,-4.1968572E-1,5.900067E-1,-7.25675E-2,-7.355947E-1,8.886449E-2,9.9332213E-1,1.3403992E-1,-2.8661296E-1,-1.0272584E0,-4.4580412E-1,1.6424729E-1,-2.5508266E-2,1.2848918E0,5.587097E-1,-2.6557547E-1,2.8726253E-1,-1.8116961E-1,-7.601759E-1,2.8371492E-3,-1.1149381E0,1.21550344E-1,-7.3963684E-1,6.1997835E-2,7.503427E-1,9.456495E-1,4.670157E-2,-3.8800237E-1,8.9329696E-1,-6.8825924E-1,1.0157338E-1,8.8825244E-1,1.0238701E-1,-5.161587E-1,-4.545948E-2,-2.9465294E-2,-1.0724283E-2,-5.23778E-1,-1.2430011E0,7.018296E-1,-2.7850384E-1,-1.0130082E0,-6.3821435E-2,1.7871645E-1,-3.087403E-1,-0E0,3.411141E-2,1.1210371E0,-7.409173E-4,-3.1649817E-2,6.3127414E-3,1.0392452E0,-0E0,-8.735595E-3,-2.7805256E-2,-0E0,6.2506595E-3,1.2799071E-2,3.9730333E-2,3.3244893E-1,-2.8639075E-1,-7.61562E-3,-1.9196512E-2,-5.9426314E-1,1.1043066E-1,4.1640406E-3,-4.0516447E-2,-9.8771906E-1,-4.680707E-2,-0E0,3.8147632E-2,-2.8976759E-2,1.672475E-1,-4.1279587E-1,-1.2631291E0,1.2476719E-2,-2.0717084E-2,4.0589267E-1,2.1004498E-2,-3.0710384E-2,1.799478E-1,7.2796256E-3,1.3020911E0,1.2388271E-2,1.2328324E0,1.6488178E-2,2.8088125E-3,-3.4073044E-3,-1.5267511E-2,-2.7236542E-2,-3.5529172E-3,2.8320367E-2,-1.3231892E-3,-3.6496677E-2,-9.108915E-3,-1.0281254E-2,2.039535E-2,7.944625E-3,-2.5850017E-2,-1.7763447E-2,-4.5590747E-2,-0E0,1.910724E-2,5.614201E-3,-1.6606284E-2,1.9582959E-2,-6.53638E-3,4.4814426E-2,1.5243389E-2,1.6323257E-2,4.109889E-2],"categories":[],"categories_nodes":[],"categories_segments":[],"categories_sizes":[],"default_left":[0,0,0,0,0,0,0,0,0,0,0,0,0,0,0,0,0,0,0,0,0,0,0,0,0,0,0,0,0,0,0,0,0,0,0,0,0,0,0,0,0,0,0,0,0,0,0,0,0,0,0,0,0,0,0,0,0,0,0,0,0,0,0,0,0,0,0,0,0,0,0,0,0,0,0,0,0,0,0,0,0,0,0,0,0,0,0,0,0,0,0,0,0,0,0,0,0,0,0,0,0,0,0,0,0,0,0,0,0,0,0],"id":0,"left_children":[1,3,5,7,9,11,13,15,17,19,21,23,-1,25,27,29,31,33,35,-1,37,39,41,43,45,47,-1,49,51,53,55,57,59,61,63,-1,-1,65,67,69,71,73,75,77,79,-1,-1,81,-1,-1,-1,83,-1,-1,-1,-1,-1,-1,-1,85,87,-1,-1,89,91,-1,-1,93,-1,-1,-1,-1,95,97,99,-1,-1,101,103,-1,105,-1,107,-1,109,-1,-1,-1,-1,-1,-1,-1,-1,-1,-1,-1,-1,-1,-1,-1,-1,-1,-1,-1,-1,-1,-1,-1,-1,-1,-1],"loss_changes":[2.8601218E2,7.3212845E1,9.659213E1,1.4450697E1,2.8014877E1,1.5329751E1,3.1351501E1,1.0247052E1,7.2742605E0,1.7692719E1,3.0572933E1,1.1693113E1,0E0,1.02803955E1,3.611673E1,7.537363E0,1.275646E1,5.803104E0,1.1098022E0,0E0,9.973175E0,1.516013E1,2.1456154E1,7.6670623E0,8.341614E0,1.3494049E1,0E0,1.2840082E1,1.1125786E1,9.5147705E-1,3.3082137E-1,3.5397873E0,8.742699E0,4.4936943E-1,8.86275E0,0E0,0E0,1.8920479E1,6.160187E0,1.030738E1,1.2378241E1,1.0819969E1,1.1881297E1,4.651226E0,1.5423113E1,0E0,0E0,8.87381E0,0E0,0E0,0E0,6.8463364E0,0E0,0E0,0E0,0E0,0E0,0E0,0E0,2.7723327E0,9.466975E-1,0E0,0E0,2.700345E0,1.0614241E1,0E0,0E0,1.0755127E1,0E0,0E0,0E0,0E0,6.997053E0,9.406341E0,7.1565857E0,0E0,0E0,4.9189625E0,8.025791E0,0E0,5.423133E0,0E0,5.4960938E0,0E0,2.568779E0,0E0,0E0,0E0,0E0,0E0,0E0,0E0,0E0,0E0,0E0,0E0,0E0,0E0,0E0,0E0,0E0,0E0,0E0,0E0,0E0,0E0,0E0,0E0,0E0,0E0,0E0],"parents":[2147483647,0,0,1,1,2,2,3,3,4,4,5,5,6,6,7,7,8,8,9,9,10,10,11,11,13,13,14,14,15,15,16,16,17,17,18,18,20,20,21,21,22,22,23,23,24,24,25,25,27,27,28,28,29,29,30,30,31,31,32,32,33,33,34,34,37,37,38,38,39,39,40,40,41,41,42,42,43,43,44,44,47,47,51,51,59,59,60,60,63,63,64,64,67,67,72,72,73,73,74,74,77,77,78,78,80,80,82,82,84,84],"right_children":[2,4,6,8,10,12,14,16,18,20,22,24,-1,26,28,30,32,34,36,-1,38,40,42,44,46,48,-1,50,52,54,56,58,60,62,64,-1,-1,66,68,70,72,74,76,78,80,-1,-1,82,-1,-1,-1,84,-1,-1,-1,-1,-1,-1,-1,86,88,-1,-1,90,92,-1,-1,94,-1,-1,-1,-1,96,98,100,-1,-1,102,104,-1,106,-1,108,-1,110,-1,-1,-1,-1,-1,-1,-1,-1,-1,-1,-1,-1,-1,-1,-1,-1,-1,-1,-1,-1,-1,-1,-1,-1,-1,-1],"split_conditions":[1.67E0,3.8584053E-6,6.33114E-1,6.60975E3,-1.253E1,7.04665E3,4.8297E2,-3.19E0,8.501818E-1,-1.06E2,-1.19134E3,1.6405642E0,-2.5508266E-2,-6.433333E-1,8.22E0,1.5310212E0,3.8E2,6.662E3,2.3566828E0,2.8371492E-3,-3.01E0,-2.568418E2,5.9467397E0,6.3679536E3,6.7683E3,4.763244E4,4.670157E-2,6.86072E3,2.5696503E2,6.81134E3,6.6575E3,1.7E-1,-1.171E1,-8.85E0,-1.5942167E-2,-2.9465294E-2,-1.0724283E-2,-1.73523E3,6.75799E3,-1.5420183E4,1.0693089E2,-1.3658905E3,2.4299333E2,1.4294E2,-1.272174E3,-0E0,3.411141E-2,5.064407E0,-7.409173E-4,-3.1649817E-2,6.3127414E-3,-5.981317E-2,-0E0,-8.735595E-3,-2.7805256E-2,-0E0,6.2506595E-3,1.2799071E-2,3.9730333E-2,2E0,6.59375E3,-7.61562E-3,-1.9196512E-2,5.262E1,9.970833E-1,4.1640406E-3,-4.0516447E-2,6.75352E3,-4.680707E-2,-0E0,3.8147632E-2,-2.8976759E-2,-1.26E0,-4.6885645E3,1E1,1.2476719E-2,-2.0717084E-2,6.65625E3,3.45E0,-3.0710384E-2,4.380007E2,7.2796256E-3,5.3836174E0,1.2388271E-2,-1.58E0,1.6488178E-2,2.8088125E-3,-3.4073044E-3,-1.5267511E-2,-2.7236542E-2,-3.5529172E-3,2.8320367E-2,-1.3231892E-3,-3.6496677E-2,-9.108915E-3,-1.0281254E-2,2.039535E-2,7.944625E-3,-2.5850017E-2,-1.7763447E-2,-4.5590747E-2,-0E0,1.910724E-2,5.614201E-3,-1.6606284E-2,1.9582959E-2,-6.53638E-3,4.4814426E-2,1.5243389E-2,1.6323257E-2,4.109889E-2],"split_indices":[107,152,171,41,106,1,68,113,53,118,68,162,0,172,106,78,16,41,78,0,13,162,152,89,36,203,0,36,142,94,0,13,14,13,214,0,0,68,24,3,178,162,179,44,97,0,0,218,0,0,0,214,0,0,0,0,0,0,0,212,37,0,0,49,86,0,0,10,0,0,0,0,105,156,135,0,0,41,13,0,215,0,152,0,167,0,0,0,0,0,0,0,0,0,0,0,0,0,0,0,0,0,0,0,0,0,0,0,0,0,0],"split_type":[0,0,0,0,0,0,0,0,0,0,0,0,0,0,0,0,0,0,0,0,0,0,0,0,0,0,0,0,0,0,0,0,0,0,0,0,0,0,0,0,0,0,0,0,0,0,0,0,0,0,0,0,0,0,0,0,0,0,0,0,0,0,0,0,0,0,0,0,0,0,0,0,0,0,0,0,0,0,0,0,0,0,0,0,0,0,0,0,0,0,0,0,0,0,0,0,0,0,0,0,0,0,0,0,0,0,0,0,0,0,0],"sum_hessian":[1.1497563E3,6.7030707E2,4.7944928E2,3.213035E2,3.4900357E2,2.15437E2,2.6401227E2,1.6268417E2,1.5861932E2,1.7054306E2,1.7846053E2,2.0144968E2,1.3987322E1,1.5497829E2,1.0903398E2,4.3778076E1,1.1890609E2,1.3285815E2,2.576118E1,1.1938216E1,1.5860484E2,6.0709335E1,1.1775119E2,1.7413498E2,2.7314697E1,7.374326E1,8.123503E1,2.7998573E1,8.103541E1,2.0169905E1,2.3608171E1,2.5546448E1,9.335964E1,3.562636E1,9.723179E1,1.3950798E1,1.1810383E1,3.0748556E1,1.2785629E2,2.466862E1,3.6040718E1,8.260089E1,3.5150295E1,1.3425298E2,3.9882004E1,1.0096917E1,1.7217781E1,6.262809E1,1.1115173E1,1.2914281E1,1.5084292E1,6.965198E1,1.1383433E1,1.00238695E1,1.0146035E1,1.1901692E1,1.1706479E1,1.488908E1,1.0657367E1,5.964196E1,3.371768E1,1.4669937E1,2.0956425E1,2.0974686E1,7.62571E1,1.7657326E1,1.3091231E1,7.6277885E1,5.1578407E1,1.2169952E1,1.2498666E1,1.37008E1,2.2339916E1,2.6443796E1,5.6157097E1,1.9839931E1,1.5310362E1,5.242286E1,8.183012E1,1.5719049E1,2.4162954E1,1.1974739E1,5.065335E1,1.8535154E1,5.111682E1,2.8778166E1,3.0863796E1,2.1943823E1,1.1773859E1,1.0914292E1,1.0060393E1,1.0834318E1,6.542278E1,5.5443623E1,2.0834259E1,1.1042126E1,1.12977915E1,1.0419963E1,1.6023834E1,1.7901657E1,3.825544E1,2.0193834E1,3.2229027E1,6.519672E1,1.6633402E1,1.10295315E1,1.3133423E1,3.887382E1,1.1779527E1,1.0743009E1,4.0373814E1],"tree_param":{"num_deleted":"0","num_feature":"222","num_nodes":"111","size_leaf_vector":"1"}},{"base_weights":[7.73792E-3,-3.9031E-1,5.686011E-1,-9.606424E-2,-7.7938354E-1,7.876149E-2,9.5505834E-1,7.542986E-2,-3.520319E-1,-9.9000645E-1,-1.3070981E-1,1.481617E-1,-2.3725634E-2,1.3001285E0,5.794391E-1,4.1206792E-1,-8.453999E-2,-4.572916E-1,7.0390716E-2,-3.398003E-1,-1.1630713E0,7.1612376E-1,-6.6032195E-1,4.7544323E-2,6.6170454E-1,8.159489E-3,1.3795406E0,-3.1588206E-1,8.4813344E-1,8.367785E-1,-7.786814E-2,2.097493E-2,-1.5539871E-1,-4.285644E-2,-3.271728E-1,-1.4633313E-2,1.6138537E-2,6.16712E-1,-1.0750943E0,-9.309404E-1,-4.625269E-2,5.2106953E-3,3.8154673E-2,8.090807E-3,-9.580432E-1,-4.6870586E-2,1.765972E-2,-2.7966013E-3,3.179472E-2,1.4711611E0,1.8138032E-2,-2.6823787E-2,1.3180673E-2,4.7089002E-1,1.2795489E0,1.4071542E-2,3.4887396E-2,2.742659E-1,-1.8983109E-2,-3.8425153E-1,1.3142957E-1,1.7182646E-2,-6.228754E-1,4.204396E-3,2.8583769E-2,-1.7180435E-2,-4.210625E-2,-1.2247149E0,-4.6844447E-1,-4.096057E-2,-1.1785304E-2,6.0218126E-2,-3.4111333E-1,1.6298076E0,1.0097821E0,7.74098E-1,-5.0870185E-3,4.466452E-2,2.2303488E-2,1.638804E-2,-0E0,-1.6634343E-2,-2.0731622E-4,-1.9088857E-3,2.245296E-2,-1.2345792E-2,6.208583E-3,-2.3560941E-2,-4.633162E-3,-2.2459053E-2,-4.362778E-2,1.0993254E-3,-2.816234E-2,1.7995775E-2,-4.7314563E-4,-2.2359772E-2,4.0176595E-3,2.7422454E-2,5.2404936E-2,1.0685141E-2,3.926061E-2,-7.4871694E-4,3.5465088E-2],"categories":[],"categories_nodes":[],"categories_segments":[],"categories_sizes":[],"default_left":[0,0,0,0,0,0,0,0,0,0,0,0,0,0,0,0,0,0,0,0,0,0,0,0,0,0,0,0,0,0,0,0,0,0,0,0,0,0,0,0,0,0,0,0,0,0,0,0,0,0,0,0,0,0,0,0,0,0,0,0,0,0,0,0,0,0,0,0,0,0,0,0,0,0,0,0,0,0,0,0,0,0,0,0,0,0,0,0,0,0,0,0,0,0,0,0,0,0,0,0,0,0,0],"id":1,"left_children":[1,3,5,7,9,11,13,15,17,19,21,23,-1,25,27,29,31,33,35,37,39,41,43,45,47,-1,49,51,53,55,57,-1,59,-1,61,-1,-1,63,65,67,-1,-1,-1,-1,69,71,-1,-1,-1,73,-1,-1,-1,75,77,-1,-1,79,-1,81,83,85,87,-1,-1,-1,-1,89,91,-1,-1,93,95,97,99,101,-1,-1,-1,-1,-1,-1,-1,-1,-1,-1,-1,-1,-1,-1,-1,-1,-1,-1,-1,-1,-1,-1,-1,-1,-1,-1,-1],"loss_changes":[2.5556621E2,7.598219E1,8.935246E1,1.7040615E1,3.8391388E1,1.2735714E1,3.191037E1,1.2636686E1,7.1726284E0,2.2737335E1,3.3761528E1,9.864073E0,0E0,9.51561E0,3.2368767E1,1.6228119E1,8.651863E0,1.4074108E1,8.850781E0,3.586971E1,1.0746506E1,7.5085382E0,1.3724457E1,8.978076E0,1.0187287E1,0E0,6.070099E0,1.4689694E1,1.45039215E1,3.0317612E0,7.6309714E0,0E0,9.811274E0,0E0,1.1922737E1,0E0,0E0,2.7389593E0,2.1252937E0,1.3036407E1,0E0,0E0,0E0,0E0,6.3446617E0,4.7586155E0,0E0,0E0,0E0,3.4374237E0,0E0,0E0,0E0,1.1856351E1,1.8032532E0,0E0,0E0,1.9106674E0,0E0,5.0229826E0,8.298437E0,4.4440365E0,4.0155373E0,0E0,0E0,0E0,0E0,3.906601E0,1.1653972E1,0E0,0E0,4.696769E0,8.244622E0,1.9891052E0,4.9168053E0,1.3795494E1,0E0,0E0,0E0,0E0,0E0,0E0,0E0,0E0,0E0,0E0,0E0,0E0,0E0,0E0,0E0,0E0,0E0,0E0,0E0,0E0,0E0,0E0,0E0,0E0,0E0,0E0,0E0],"parents":[2147483647,0,0,1,1,2,2,3,3,4,4,5,5,6,6,7,7,8,8,9,9,10,10,11,11,13,13,14,14,15,15,16,16,17,17,18,18,19,19,20,20,21,21,22,22,23,23,24,24,26,26,27,27,28,28,29,29,30,30,32,32,34,34,37,37,38,38,39,39,44,44,45,45,49,49,53,53,54,54,57,57,59,59,60,60,61,61,62,62,67,67,68,68,71,71,72,72,73,73,74,74,75,75],"right_children":[2,4,6,8,10,12,14,16,18,20,22,24,-1,26,28,30,32,34,36,38,40,42,44,46,48,-1,50,52,54,56,58,-1,60,-1,62,-1,-1,64,66,68,-1,-1,-1,-1,70,72,-1,-1,-1,74,-1,-1,-1,76,78,-1,-1,80,-1,82,84,86,88,-1,-1,-1,-1,90,92,-1,-1,94,96,98,100,102,-1,-1,-1,-1,-1,-1,-1,-1,-1,-1,-1,-1,-1,-1,-1,-1,-1,-1,-1,-1,-1,-1,-1,-1,-1,-1,-1],"split_conditions":[1.67E0,6.65995E3,6.51868E3,3.14E0,-4.94E0,7.04665E3,2.4853E2,6.689E3,9.2E-1,-2.77E0,-1.43952E3,1.6405642E0,-2.3725634E-2,3.27E0,6.9E0,6.839E1,3.2551724E-1,-1.1427782E3,-1.61E0,-2.85873E3,3.653769E-1,1.7043277E0,-1.7234749E3,6.99E3,6.1064845E-1,8.159489E-3,2.6185005E1,6.81588E3,7.5584054E-1,-1.1076835E6,3.474124E-6,2.097493E-2,6.93668E3,-4.285644E-2,-8.35E0,-1.4633313E-2,1.6138537E-2,-9.5E0,3.018E2,7.4751945E0,-4.625269E-2,5.2106953E-3,3.8154673E-2,8.090807E-3,9.7875E-1,1.1485175E3,1.765972E-2,-2.7966013E-3,3.179472E-2,2.1425173E3,1.8138032E-2,-2.6823787E-2,1.3180673E-2,6.716449E0,2.0930178E1,1.4071542E-2,3.4887396E-2,6.66465E3,-1.8983109E-2,5.791031E-1,6.92906E3,-2.6661664E4,1.41E1,4.204396E-3,2.8583769E-2,-1.7180435E-2,-4.210625E-2,-2.14557E3,-1.291583E3,-4.096057E-2,-1.1785304E-2,3.8494936E-1,4.962343E-1,1.6256798E2,8.233651E-2,6.71138E3,-5.0870185E-3,4.466452E-2,2.2303488E-2,1.638804E-2,-0E0,-1.6634343E-2,-2.0731622E-4,-1.9088857E-3,2.245296E-2,-1.2345792E-2,6.208583E-3,-2.3560941E-2,-4.633162E-3,-2.2459053E-2,-4.362778E-2,1.0993254E-3,-2.816234E-2,1.7995775E-2,-4.7314563E-4,-2.2359772E-2,4.0176595E-3,2.7422454E-2,5.2404936E-2,1.0685141E-2,3.926061E-2,-7.4871694E-4,3.5465088E-2],"split_indices":[107,22,20,70,107,9,68,2,115,13,68,162,0,107,105,74,111,162,13,68,214,77,162,9,60,0,192,8,60,74,154,0,9,0,14,0,0,130,179,154,0,0,0,0,86,89,0,0,0,162,0,0,0,154,204,0,0,2,0,50,94,99,193,0,0,0,0,68,162,0,0,60,213,157,214,8,0,0,0,0,0,0,0,0,0,0,0,0,0,0,0,0,0,0,0,0,0,0,0,0,0,0,0],"split_type":[0,0,0,0,0,0,0,0,0,0,0,0,0,0,0,0,0,0,0,0,0,0,0,0,0,0,0,0,0,0,0,0,0,0,0,0,0,0,0,0,0,0,0,0,0,0,0,0,0,0,0,0,0,0,0,0,0,0,0,0,0,0,0,0,0,0,0,0,0,0,0,0,0,0,0,0,0,0,0,0,0,0,0,0,0,0,0,0,0,0,0,0,0,0,0,0,0,0,0,0,0,0,0],"sum_hessian":[1.1403638E3,6.668284E2,4.7353537E2,3.8183554E2,2.849929E2,2.1046704E2,2.6306833E2,2.283213E2,1.5351425E2,2.1376175E2,7.1231155E1,1.9698106E2,1.3485973E1,1.3385031E2,1.2921802E2,7.353956E1,1.5478174E2,1.2370729E2,2.9806961E1,4.6789417E1,1.6697232E2,2.6773203E1,4.4457947E1,1.673511E2,2.962996E1,1.0683074E1,1.23167244E2,2.9317286E1,9.990073E1,3.9180157E1,3.4359406E1,1.0778637E1,1.4400311E2,1.1803235E1,1.1190405E2,1.306011E1,1.6746851E1,2.0180292E1,2.6609127E1,1.08623856E2,5.834847E1,1.5332039E1,1.1441164E1,1.0419277E1,3.403867E1,1.4325783E2,2.4093287E1,1.0325766E1,1.9304193E1,1.0796104E2,1.5206207E1,1.6770939E1,1.2546345E1,5.6146458E1,4.3754272E1,2.1428448E1,1.7751709E1,2.108778E1,1.3271624E1,8.068807E1,6.3315033E1,5.1788055E1,6.0115997E1,1.0133139E1,1.00471525E1,1.3289781E1,1.3319347E1,6.3751873E1,4.4871983E1,1.7622814E1,1.6415857E1,1.0495221E2,3.830561E1,7.576156E1,3.219948E1,3.835272E1,1.779374E1,2.8242702E1,1.5511567E1,1.0222736E1,1.0865044E1,5.4043827E1,2.6644249E1,4.885378E1,1.4461253E1,1.4364774E1,3.7423283E1,4.283653E1,1.7279467E1,2.4220045E1,3.9531826E1,2.2012363E1,2.285962E1,1.2064932E1,9.288728E1,2.0649399E1,1.7656212E1,1.372334E1,6.2038216E1,1.2004777E1,2.01947E1,1.318576E1,2.516696E1],"tree_param":{"num_deleted":"0","num_feature":"222","num_nodes":"103","size_leaf_vector":"1"}},{"base_weights":[5.8957445E-3,-3.3049047E-1,5.3659445E-1,-5.990712E-2,-6.86108E-1,8.40072E-3,9.625241E-1,-1.7826416E-2,-2.8078122E-2,-8.6723024E-1,1.2862471E-1,-9.6597806E-2,5.8091515E-1,3.2697612E-1,1.1345576E0,2.751696E-1,-1.374605E-1,-3.3186147E-1,-1.0155898E0,6.070621E-1,-2.0323189E-2,-6.6898304E-1,2.9537955E-3,3.5921354E-2,-6.852576E-4,6.1014843E-1,-8.854273E-3,1.2163392E0,-0E0,-1.2667698E-2,4.2461827E-1,-4.996711E-1,-3.6666382E-2,-4.6977315E-2,-3.6773127E-2,-4.4314098E-2,-8.2695496E-1,-0E0,9.66551E-1,4.2994056E-4,-4.1629575E-2,1.5652674E-1,-3.1520948E-1,8.9368016E-1,-1.1699649E-4,6.478697E-3,1.2759441E0,2.708534E-1,2.9414447E-2,-8.6150527E-1,-1.1559249E-1,3.4433535E-1,-1.5998457E-1,-6.0320735E-1,4.7009885E-1,3.215137E-1,-1.0262405E0,4.124935E-2,1.1281429E-2,2.599097E-2,3.7156593E-2,-4.6979004E-1,-6.934145E-4,3.8776636E-2,4.716044E-3,1.4001797E0,8.4232736E-1,-0E0,1.4478802E-2,-1.12250205E-2,-3.5001446E-2,4.520445E-3,-1.1290363E-2,-1.1284711E-3,2.6288766E-2,-8.554141E-3,9.690903E-3,-0E0,-3.3473708E-2,3.1779833E-2,-2.261928E-3,2.661171E-2,-7.6913764E-3,-1.5672196E-2,-3.5917554E-2,-1.9739785E-3,1.6580392E-2,-2.0087816E-2,-3.8782023E-3,4.7515064E-2,3.4721173E-2,3.4342024E-2,1.3618E-3],"categories":[],"categories_nodes":[],"categories_segments":[],"categories_sizes":[],"default_left":[0,0,0,0,0,0,0,0,0,0,0,0,0,0,0,0,0,0,0,0,0,0,0,0,0,0,0,0,0,0,0,0,0,0,0,0,0,0,0,0,0,0,0,0,0,0,0,0,0,0,0,0,0,0,0,0,0,0,0,0,0,0,0,0,0,0,0,0,0,0,0,0,0,0,0,0,0,0,0,0,0,0,0,0,0,0,0,0,0,0,0,0,0],"id":2,"left_children":[1,3,5,7,9,11,13,15,-1,17,19,21,23,25,27,29,31,33,35,37,-1,39,41,-1,-1,43,-1,45,-1,-1,47,49,51,53,-1,-1,55,-1,57,-1,-1,59,61,63,-1,-1,65,67,-1,69,71,73,75,77,79,81,83,-1,-1,-1,85,87,-1,-1,-1,89,91,-1,-1,-1,-1,-1,-1,-1,-1,-1,-1,-1,-1,-1,-1,-1,-1,-1,-1,-1,-1,-1,-1,-1,-1,-1,-1],"loss_changes":[2.039276E2,6.6733406E1,9.927632E1,1.4217806E1,4.4969482E1,1.2408808E1,2.5312439E1,1.3459733E1,0E0,1.825418E1,2.2358566E1,1.0048294E1,1.2589537E1,1.0315282E1,1.8033722E1,1.1900966E1,9.737537E0,1.3828409E1,1.308107E1,8.110986E0,0E0,1.3495878E1,7.17387E0,0E0,0E0,7.315586E0,0E0,9.357605E0,0E0,0E0,6.7729683E0,7.462016E0,1.0280561E1,1.3840857E1,0E0,0E0,3.334787E1,0E0,3.661089E0,0E0,0E0,8.054929E0,1.8662829E0,6.957779E0,0E0,0E0,5.5572815E0,4.1291738E0,0E0,2.7019825E0,2.4082918E0,1.1264658E1,1.0283044E1,7.4625807E0,8.512308E0,7.9741926E0,8.335396E0,0E0,0E0,0E0,5.0550275E0,1.4474459E0,0E0,0E0,0E0,6.0343933E-1,9.730656E0,0E0,0E0,0E0,0E0,0E0,0E0,0E0,0E0,0E0,0E0,0E0,0E0,0E0,0E0,0E0,0E0,0E0,0E0,0E0,0E0,0E0,0E0,0E0,0E0,0E0,0E0],"parents":[2147483647,0,0,1,1,2,2,3,3,4,4,5,5,6,6,7,7,9,9,10,10,11,11,12,12,13,13,14,14,15,15,16,16,17,17,18,18,19,19,21,21,22,22,25,25,27,27,30,30,31,31,32,32,33,33,36,36,38,38,41,41,42,42,43,43,46,46,47,47,49,49,50,50,51,51,52,52,53,53,54,54,55,55,56,56,60,60,61,61,65,65,66,66],"right_children":[2,4,6,8,10,12,14,16,-1,18,20,22,24,26,28,30,32,34,36,38,-1,40,42,-1,-1,44,-1,46,-1,-1,48,50,52,54,-1,-1,56,-1,58,-1,-1,60,62,64,-1,-1,66,68,-1,70,72,74,76,78,80,82,84,-1,-1,-1,86,88,-1,-1,-1,90,92,-1,-1,-1,-1,-1,-1,-1,-1,-1,-1,-1,-1,-1,-1,-1,-1,-1,-1,-1,-1,-1,-1,-1,-1,-1,-1],"split_conditions":[3E0,6.65995E3,6.5603E3,5.791E1,-1.42E0,1.0928643E-3,8.22E0,6.68119E3,-2.8078122E-2,-1.85E0,6.144118E2,9.970833E-1,5.123E1,1.6539333E2,1.0670572E1,6.63562E3,-3.37E0,6.91552E3,-2.704E1,1.9293826E2,-2.0323189E-2,7.3177546E-1,5.003333E-1,3.5921354E-2,-6.852576E-4,8.024E0,-8.854273E-3,6.72508E3,-0E0,-1.2667698E-2,2.25E2,1.6489981E0,6.751E3,6.7993E3,-3.6773127E-2,-4.4314098E-2,-9.565833E0,-0E0,6.80225E3,4.2994056E-4,-4.1629575E-2,1.0345658E3,1.08369E3,4.0650974E2,-1.1699649E-4,6.478697E-3,3.5531E2,0E0,2.9414447E-2,-1.4685E1,-8.94E0,-2.0215547E4,6.93985E3,-3.36645E-1,-3.41E0,2.6316786E-1,6.76547E3,4.124935E-2,1.1281429E-2,2.599097E-2,6.764E3,1.955E1,-6.934145E-4,3.8776636E-2,4.716044E-3,4.4157E2,5.209925E1,-0E0,1.4478802E-2,-1.12250205E-2,-3.5001446E-2,4.520445E-3,-1.1290363E-2,-1.1284711E-3,2.6288766E-2,-8.554141E-3,9.690903E-3,-0E0,-3.3473708E-2,3.1779833E-2,-2.261928E-3,2.661171E-2,-7.6913764E-3,-1.5672196E-2,-3.5917554E-2,-1.9739785E-3,1.6580392E-2,-2.0087816E-2,-3.8782023E-3,4.7515064E-2,3.4721173E-2,3.4342024E-2,1.3618E-3],"split_indices":[106,22,18,67,106,221,106,95,0,13,162,86,49,186,152,0,163,19,106,182,0,54,60,0,0,102,0,7,0,0,15,78,2,36,0,0,155,0,42,0,0,216,117,100,0,0,25,167,0,193,69,160,36,141,117,214,20,0,0,0,41,43,0,0,0,123,175,0,0,0,0,0,0,0,0,0,0,0,0,0,0,0,0,0,0,0,0,0,0,0,0,0,0],"split_type":[0,0,0,0,0,0,0,0,0,0,0,0,0,0,0,0,0,0,0,0,0,0,0,0,0,0,0,0,0,0,0,0,0,0,0,0,0,0,0,0,0,0,0,0,0,0,0,0,0,0,0,0,0,0,0,0,0,0,0,0,0,0,0,0,0,0,0,0,0,0,0,0,0,0,0,0,0,0,0,0,0,0,0,0,0,0,0,0,0,0,0,0,0],"sum_hessian":[1.1377611E3,6.9625104E2,4.415101E2,3.9752438E2,2.9872668E2,1.9852875E2,2.4298137E2,3.8179602E2,1.57283745E1,2.4479205E2,5.3934612E1,1.6842838E2,3.010037E1,5.3615593E1,1.8936578E2,1.08728714E2,2.730673E2,5.5252464E1,1.895396E2,3.4544735E1,1.9389877E1,2.4002928E1,1.4442545E2,1.43302555E1,1.5770116E1,3.742355E1,1.6192043E1,1.7668681E2,1.2678964E1,1.7952763E1,9.0775955E1,5.6642666E1,2.1642462E2,4.391988E1,1.1332584E1,5.025789E1,1.3928171E2,1.3446758E1,2.1097977E1,1.2952252E1,1.1050676E1,9.9153175E1,4.5272266E1,2.5536E1,1.188755E1,1.0927032E1,1.6575978E2,7.414088E1,1.6635077E1,2.7215492E1,2.9427174E1,5.105303E1,1.653716E2,2.1464203E1,2.2455679E1,2.0042507E1,1.192392E2,1.0400599E1,1.0697378E1,1.1869066E1,8.728411E1,2.7689955E1,1.7582312E1,1.5144687E1,1.0391312E1,1.2448292E2,4.1276863E1,3.4432865E1,3.970801E1,1.2825961E1,1.4389531E1,1.40284395E1,1.5398734E1,3.025107E1,2.080196E1,1.3281303E2,3.255855E1,1.0612477E1,1.0851726E1,1.0330102E1,1.2125576E1,1.0026003E1,1.0016504E1,3.3012135E1,8.622706E1,7.340011E1,1.3884003E1,1.5307093E1,1.2382862E1,6.3413006E1,6.1069912E1,2.883486E1,1.2442004E1],"tree_param":{"num_deleted":"0","num_feature":"222","num_nodes":"93","size_leaf_vector":"1"}},{"base_weights":[8.727184E-3,-3.4530598E-1,5.478536E-1,-9.79163E-2,-6.916115E-1,1.2417881E-1,8.782575E-1,7.1074285E-2,-3.5181424E-1,-8.7289315E-1,-4.1428894E-2,1.6887452E-2,6.165463E-1,5.7791E-1,1.2055955E0,7.1571076E-1,-3.513963E-2,-8.3800566E-1,-2.2649221E-1,-6.8814254E-1,-1.3856899E0,3.406838E-1,-3.1057576E-2,-6.9505936E-1,1.455075E-1,-1.5616058E-3,3.5610557E-2,1.086929E0,1.5119466E-1,1.3147696E0,1.1543887E-2,7.1557527E-3,3.226981E-2,-1.5529202E-1,3.5408416E-1,-3.646676E-2,-1.4691463E-2,-3.0797344E-1,1.0390637E-2,-4.1697645E-1,-1.1752261E0,-4.7140017E-2,-1.9180756E-2,1.0173287E0,-4.647189E-1,-3.7475333E-2,-2.72737E-3,4.4691607E-1,1.9675374E-2,1.3065617E0,3.7334168E-3,7.356707E-1,-3.627061E-1,1.4230909E0,1.8659715E-2,1.3669481E-2,-2.2591466E-1,-6.7985198E-3,5.347704E-1,-1.6132654E-1,-6.70807E-1,2.7845496E-1,-7.4297863E-1,-1.436628E0,-3.7853026E-3,4.0888887E-2,1.1373382E-2,7.922791E-3,-3.4907743E-2,2.343464E-2,-5.5728964E-5,4.3186468E-1,-9.292072E-2,2.0225417E-2,1.4581288E0,9.836687E-1,7.1772E-4,4.7238846E-3,-3.217867E-2,4.5463283E-2,2.5509851E-2,-2.6862543E-2,-3.6073793E-3,1.0060932E-2,2.1505922E-2,-7.6399827E-3,7.3275347E-3,-2.5024336E-2,-8.307763E-3,-3.4176356E-3,3.3777058E-2,-3.1185193E-2,-7.757248E-3,-2.1916755E-2,-4.9258642E-2,3.7105877E-3,1.8216597E-2,2.4680712E-3,-1.4598763E-2,2.3945644E-2,4.873585E-2,3.7289154E-2,1.5238713E-2,2.1079792E-2,-1.3284395E-2],"categories":[],"categories_nodes":[],"categories_segments":[],"categories_sizes":[],"default_left":[0,0,0,0,0,0,0,0,0,0,0,0,0,0,0,0,0,0,0,0,0,0,0,0,0,0,0,0,0,0,0,0,0,0,0,0,0,0,0,0,0,0,0,0,0,0,0,0,0,0,0,0,0,0,0,0,0,0,0,0,0,0,0,0,0,0,0,0,0,0,0,0,0,0,0,0,0,0,0,0,0,0,0,0,0,0,0,0,0,0,0,0,0,0,0,0,0,0,0,0,0,0,0,0,0],"id":3,"left_children":[1,3,5,7,9,11,13,15,17,19,21,23,25,27,29,31,33,35,37,39,41,43,-1,45,47,-1,-1,49,51,53,-1,-1,-1,55,57,-1,-1,59,-1,61,63,-1,-1,65,67,-1,-1,69,71,73,-1,75,77,79,-1,-1,81,-1,83,85,87,89,91,93,-1,-1,-1,-1,-1,-1,-1,95,97,-1,99,101,-1,103,-1,-1,-1,-1,-1,-1,-1,-1,-1,-1,-1,-1,-1,-1,-1,-1,-1,-1,-1,-1,-1,-1,-1,-1,-1,-1,-1],"loss_changes":[2.1534332E2,5.7741425E1,6.193004E1,1.7349388E1,3.273828E1,1.0179627E1,2.233876E1,1.686349E1,8.918043E0,1.7899734E1,2.5447678E1,1.5160915E1,1.3938002E1,2.8429958E1,8.641296E0,4.8058453E0,9.728367E0,2.099533E0,6.3472695E0,2.0205902E1,4.586334E0,2.7130169E1,0E0,7.5412245E0,5.1783657E0,0E0,0E0,1.181633E1,2.3677443E1,4.867676E0,0E0,0E0,0E0,7.0441256E0,5.5003295E0,0E0,0E0,5.605255E0,0E0,2.5736261E1,1.4695045E1,0E0,0E0,4.0073147E0,1.2647245E1,0E0,0E0,6.5272455E0,5.0881476E0,1.6534805E0,0E0,5.9581985E0,1.13836975E1,7.9429626E-1,0E0,0E0,9.642778E0,0E0,3.8563156E-1,3.4270399E0,1.0495176E0,1.2828549E1,9.784985E0,3.0347672E0,0E0,0E0,0E0,0E0,0E0,0E0,0E0,7.6374006E-1,5.977831E0,0E0,2.6689148E-1,1.1647549E0,0E0,9.782414E0,0E0,0E0,0E0,0E0,0E0,0E0,0E0,0E0,0E0,0E0,0E0,0E0,0E0,0E0,0E0,0E0,0E0,0E0,0E0,0E0,0E0,0E0,0E0,0E0,0E0,0E0,0E0],"parents":[2147483647,0,0,1,1,2,2,3,3,4,4,5,5,6,6,7,7,8,8,9,9,10,10,11,11,12,12,13,13,14,14,15,15,16,16,17,17,18,18,19,19,20,20,21,21,23,23,24,24,27,27,28,28,29,29,33,33,34,34,37,37,39,39,40,40,43,43,44,44,47,47,48,48,49,49,51,51,52,52,53,53,56,56,58,58,59,59,60,60,61,61,62,62,63,63,71,71,72,72,74,74,75,75,77,77],"right_children":[2,4,6,8,10,12,14,16,18,20,22,24,26,28,30,32,34,36,38,40,42,44,-1,46,48,-1,-1,50,52,54,-1,-1,-1,56,58,-1,-1,60,-1,62,64,-1,-1,66,68,-1,-1,70,72,74,-1,76,78,80,-1,-1,82,-1,84,86,88,90,92,94,-1,-1,-1,-1,-1,-1,-1,96,98,-1,100,102,-1,104,-1,-1,-1,-1,-1,-1,-1,-1,-1,-1,-1,-1,-1,-1,-1,-1,-1,-1,-1,-1,-1,-1,-1,-1,-1,-1,-1],"split_conditions":[3.05E0,5E0,1.3880562E0,9.6E-1,-1.67E0,6.611438E-2,6.604698E-1,6.65443E3,3.9983052E-1,3.461E2,8.270597E2,9.970833E-1,8.30413E2,-5.0088E2,2.5424503E1,3.3150214E-1,7.579439E-1,1.794413E1,4.8224686E2,4.283861E-1,8.655833E0,-3.1368E2,-3.1057576E-2,-5.176E1,8.67E0,-1.5616058E-3,3.5610557E-2,1.4289649E0,-6.286667E0,3.22126E3,1.1543887E-2,7.1557527E-3,3.226981E-2,2.8846416E-1,-4.7088056E5,-3.646676E-2,-1.4691463E-2,6.185103E3,1.0390637E-2,-9.309889E-1,1.4719704E1,-4.7140017E-2,-1.9180756E-2,7.3358375E-1,-7.410623E2,-3.7475333E-2,-2.72737E-3,2.75175E3,-1.536E1,5.95E0,3.7334168E-3,2.810897E1,2.002E1,5.853E2,1.8659715E-2,1.3669481E-2,2.7256757E-1,-6.7985198E-3,-6.964E1,1.02682E3,5.9E-1,-1.7050618E-1,6.839315E3,7.706082E-3,-3.7853026E-3,4.0888887E-2,1.1373382E-2,7.922791E-3,-3.4907743E-2,2.343464E-2,-5.5728964E-5,6.66325E3,1.539E1,2.0225417E-2,6.65443E3,8.3024E2,7.1772E-4,1.0037E2,-3.217867E-2,4.5463283E-2,2.5509851E-2,-2.6862543E-2,-3.6073793E-3,1.0060932E-2,2.1505922E-2,-7.6399827E-3,7.3275347E-3,-2.5024336E-2,-8.307763E-3,-3.4176356E-3,3.3777058E-2,-3.1185193E-2,-7.757248E-3,-2.1916755E-2,-4.9258642E-2,3.7105877E-3,1.8216597E-2,2.4680712E-3,-1.4598763E-2,2.3945644E-2,4.873585E-2,3.7289154E-2,1.5238713E-2,2.1079792E-2,-1.3284395E-2],"split_indices":[105,135,171,70,14,221,110,2,110,68,162,86,98,68,194,109,53,141,157,214,197,68,0,12,14,0,0,221,191,68,0,0,0,111,74,0,0,84,0,221,168,0,0,221,162,0,0,70,75,105,0,144,129,25,0,0,53,0,12,70,115,58,153,56,0,0,0,0,0,0,0,37,43,0,8,66,0,68,0,0,0,0,0,0,0,0,0,0,0,0,0,0,0,0,0,0,0,0,0,0,0,0,0,0,0],"split_type":[0,0,0,0,0,0,0,0,0,0,0,0,0,0,0,0,0,0,0,0,0,0,0,0,0,0,0,0,0,0,0,0,0,0,0,0,0,0,0,0,0,0,0,0,0,0,0,0,0,0,0,0,0,0,0,0,0,0,0,0,0,0,0,0,0,0,0,0,0,0,0,0,0,0,0,0,0,0,0,0,0,0,0,0,0,0,0,0,0,0,0,0,0,0,0,0,0,0,0,0,0,0,0,0,0],"sum_hessian":[1.1237152E3,6.7816797E2,4.4554727E2,3.979176E2,2.8025037E2,1.9708783E2,2.4845943E2,2.3858795E2,1.5932965E2,2.1801115E2,6.2239193E1,1.6435703E2,3.2730797E1,1.3325255E2,1.1520688E2,3.2792645E1,2.057953E2,2.9504087E1,1.2982556E2,1.6442938E2,5.3581776E1,4.5540672E1,1.6698523E1,2.3206636E1,1.4115039E2,1.550261E1,1.7228188E1,5.882063E1,7.443192E1,1.00082184E2,1.5124695E1,1.6127201E1,1.6665442E1,1.5915211E2,4.6643196E1,1.107877E1,1.8425318E1,1.15232574E2,1.4592986E1,1.0866998E2,5.5759403E1,4.0601665E1,1.2980108E1,2.4799963E1,2.0740707E1,1.0559029E1,1.2647608E1,3.8898647E1,1.0225174E2,4.688685E1,1.193378E1,3.4876083E1,3.955584E1,8.4102104E1,1.5980085E1,1.4627665E1,1.4452444E2,1.0291632E1,3.6351566E1,8.5103485E1,3.0129086E1,3.4286854E1,7.4383125E1,4.3663746E1,1.2095657E1,1.410605E1,1.0693913E1,1.0411734E1,1.0328975E1,2.2083853E1,1.6814796E1,2.1674784E1,8.057696E1,1.1809454E1,3.5077396E1,2.4776478E1,1.00996065E1,2.6910307E1,1.2645531E1,6.883805E1,1.5264047E1,1.7018427E1,1.2750602E2,2.1374348E1,1.4977217E1,7.07891E1,1.4314391E1,1.8819824E1,1.1309261E1,2.4215826E1,1.0071027E1,4.407718E1,3.0305948E1,1.2439274E1,3.1224474E1,1.0131395E1,1.1543387E1,5.597945E1,2.4597507E1,1.0003191E1,2.5074203E1,1.3267678E1,1.15088E1,1.0504931E1,1.6405376E1],"tree_param":{"num_deleted":"0","num_feature":"222","num_nodes":"105","size_leaf_vector":"1"}},{"base_weights":[-2.7197013E-2,-3.9162353E-1,4.7088975E-1,-1.3397376E-1,-7.4670947E-1,2.1764383E-2,8.3343744E-1,-3.5486785E-1,1.3440145E-2,-3.12626E-1,-1.0527215E0,-7.875528E-2,5.951388E-1,3.82673E-1,1.0797057E0,-2.9552635E-2,-2.5847754E-1,-4.8947486E-1,1.1567316E-1,-9.913732E-1,8.052025E-2,-6.4584625E-1,-1.2516049E0,4.1007E-3,-6.75402E-1,-0E0,8.669353E-1,7.96067E-1,-3.092306E-1,1.2366606E-3,1.14359E0,-3.9287704E-1,8.358334E-2,-6.948423E-1,-1.0945748E-3,3.040754E-4,3.0960029E-2,-1.146837E-2,-3.8072225E-2,6.2180173E-1,-2.1999577E-1,-4.006096E-2,-1.4434224E-1,-1.3776594E0,-6.355397E-1,-4.2900985E-1,1.067612E-1,-3.3434506E-3,-3.137186E-2,9.88566E-3,3.691136E-2,1.8284423E-3,1.0559773E0,-3.436017E-2,3.383863E-1,1.2163063E0,8.430966E-3,-2.2779262E-1,-3.3831455E-2,-1.21747535E-2,3.9792094E-1,-3.090956E-2,-7.912352E-3,2.8494152E-1,-2.6076955E-1,3.484921E-2,-1.3306343E-3,-5.395997E-1,1.7660275E-2,-5.3649443E-1,1.5304961E-2,-1.995261E-2,-4.46159E-2,-2.6734583E-2,-6.8921586E-3,-0E0,-2.1664482E-2,-1.007848E-1,3.9586794E-1,3.8163237E-2,9.019679E-3,-9.488067E-4,2.0660756E-2,7.0109373E-1,1.3591895E0,3.407803E-3,-1.4989975E-2,1.8886888E-2,-0E0,1.468852E-2,-4.0745703E-3,-1.1658265E-2,1.1055852E-2,-5.161458E-3,-3.385847E-2,-3.5565384E-2,2.0069168E-3,8.598684E-4,-2.3847098E-2,1.7139293E-2,-0E0,3.1486508E-2,1.219278E-3,4.2812258E-2,1.8619284E-2],"categories":[],"categories_nodes":[],"categories_segments":[],"categories_sizes":[],"default_left":[0,0,0,0,0,0,0,0,0,0,0,0,0,0,0,0,0,0,0,0,0,0,0,0,0,0,0,0,0,0,0,0,0,0,0,0,0,0,0,0,0,0,0,0,0,0,0,0,0,0,0,0,0,0,0,0,0,0,0,0,0,0,0,0,0,0,0,0,0,0,0,0,0,0,0,0,0,0,0,0,0,0,0,0,0,0,0,0,0,0,0,0,0,0,0,0,0,0,0,0,0,0,0,0,0],"id":4,"left_children":[1,3,5,7,9,11,13,15,17,19,21,23,25,27,29,-1,31,33,35,37,39,41,43,45,47,-1,49,51,53,-1,55,57,59,61,-1,63,-1,-1,-1,65,67,-1,69,71,73,75,77,-1,-1,-1,-1,-1,79,-1,81,83,-1,85,-1,-1,87,-1,-1,89,91,-1,-1,93,-1,95,-1,-1,-1,-1,-1,-1,-1,97,99,-1,-1,-1,-1,101,103,-1,-1,-1,-1,-1,-1,-1,-1,-1,-1,-1,-1,-1,-1,-1,-1,-1,-1,-1,-1],"loss_changes":[2.0662366E2,5.9557243E1,7.7779274E1,1.2702696E1,3.5244965E1,1.2876291E1,2.7884201E1,8.30604E0,1.1813992E1,3.1943336E1,1.0383682E1,9.53199E0,5.6876183E0,2.862923E1,1.057164E1,0E0,6.571069E0,3.176116E0,2.0055037E1,5.591831E0,1.2792148E1,1.8756712E1,5.3595276E0,7.2445445E0,4.079011E0,0E0,2.9606323E0,1.1169968E1,2.1463251E1,0E0,8.561615E0,1.1009241E1,6.4059143E0,2.5263443E0,0E0,1.3188952E1,0E0,0E0,0E0,1.0784849E1,1.3423602E1,0E0,9.787373E0,3.532135E0,1.3267307E0,3.7104745E0,8.358434E0,0E0,0E0,0E0,0E0,0E0,5.831257E0,0E0,3.2648044E0,7.79805E0,0E0,8.213068E0,0E0,0E0,2.1223888E0,0E0,0E0,7.6943665E0,7.6634407E0,0E0,0E0,6.975587E0,0E0,1.0090097E1,0E0,0E0,0E0,0E0,0E0,0E0,0E0,7.5692067E0,4.192642E0,0E0,0E0,0E0,0E0,7.7808723E0,2.7831573E0,0E0,0E0,0E0,0E0,0E0,0E0,0E0,0E0,0E0,0E0,0E0,0E0,0E0,0E0,0E0,0E0,0E0,0E0,0E0,0E0],"parents":[2147483647,0,0,1,1,2,2,3,3,4,4,5,5,6,6,7,7,8,8,9,9,10,10,11,11,12,12,13,13,14,14,16,16,17,17,18,18,19,19,20,20,21,21,22,22,23,23,24,24,26,26,27,27,28,28,30,30,31,31,32,32,33,33,35,35,39,39,40,40,42,42,43,43,44,44,45,45,46,46,52,52,54,54,55,55,57,57,60,60,63,63,64,64,67,67,69,69,77,77,78,78,83,83,84,84],"right_children":[2,4,6,8,10,12,14,16,18,20,22,24,26,28,30,-1,32,34,36,38,40,42,44,46,48,-1,50,52,54,-1,56,58,60,62,-1,64,-1,-1,-1,66,68,-1,70,72,74,76,78,-1,-1,-1,-1,-1,80,-1,82,84,-1,86,-1,-1,88,-1,-1,90,92,-1,-1,94,-1,96,-1,-1,-1,-1,-1,-1,-1,98,100,-1,-1,-1,-1,102,104,-1,-1,-1,-1,-1,-1,-1,-1,-1,-1,-1,-1,-1,-1,-1,-1,-1,-1,-1,-1],"split_conditions":[9.7E-1,5E0,5.769674E0,-7.69E0,-1.96645E3,9.047734E1,9.89E0,3.470073E-1,-3.23E0,-3.002E1,-1.6500671E3,5.76938E2,6.726E3,2.9789E2,6.68267E3,-2.9552635E-2,7E-2,6.723E3,4.7E2,2.056217E-3,1.880949E1,-2.449E1,-1.29E0,-2.52E0,6.8774E3,-0E0,9.827122E3,-1.548E1,6.86072E3,1.2366606E-3,3.008E1,2.8333692E-2,-2.386083E-2,-4.988333E0,-1.0945748E-3,6.76215E3,3.0960029E-2,-1.146837E-2,-3.8072225E-2,6.013E1,1.729E1,-4.006096E-2,9.201513E0,-4.511E1,2.0246852E2,-8.929513E3,6.69625E3,-3.3434506E-3,-3.137186E-2,9.88566E-3,3.691136E-2,1.8284423E-3,7.330288E0,-3.436017E-2,4.417139E3,-2.047E1,8.430966E-3,-1.7108333E0,-3.3831455E-2,-1.21747535E-2,5.530428E2,-3.090956E-2,-7.912352E-3,3.3938568E0,6.9296484E3,3.484921E-2,-1.3306343E-3,3.9301E2,1.7660275E-2,-1.6434242E-1,1.5304961E-2,-1.995261E-2,-4.46159E-2,-2.6734583E-2,-6.8921586E-3,-0E0,-2.1664482E-2,6.849858E-1,6.24E0,3.8163237E-2,9.019679E-3,-9.488067E-4,2.0660756E-2,-2.496E1,1.3536284E2,3.407803E-3,-1.4989975E-2,1.8886888E-2,-0E0,1.468852E-2,-4.0745703E-3,-1.1658265E-2,1.1055852E-2,-5.161458E-3,-3.385847E-2,-3.5565384E-2,2.0069168E-3,8.598684E-4,-2.3847098E-2,1.7139293E-2,-0E0,3.1486508E-2,1.219278E-3,4.2812258E-2,1.8619284E-2],"split_indices":[107,134,187,72,68,162,106,110,163,106,162,215,40,68,1,0,114,41,15,55,171,14,106,163,2,0,97,119,36,0,75,55,55,165,0,2,0,0,0,48,43,0,154,129,215,220,41,0,0,0,0,0,154,0,3,195,0,167,0,0,215,0,0,78,151,0,0,66,0,58,0,0,0,0,0,0,0,54,195,0,0,0,0,137,144,0,0,0,0,0,0,0,0,0,0,0,0,0,0,0,0,0,0,0,0],"split_type":[0,0,0,0,0,0,0,0,0,0,0,0,0,0,0,0,0,0,0,0,0,0,0,0,0,0,0,0,0,0,0,0,0,0,0,0,0,0,0,0,0,0,0,0,0,0,0,0,0,0,0,0,0,0,0,0,0,0,0,0,0,0,0,0,0,0,0,0,0,0,0,0,0,0,0,0,0,0,0,0,0,0,0,0,0,0,0,0,0,0,0,0,0,0,0,0,0,0,0,0,0,0,0,0,0],"sum_hessian":[1.1345083E3,6.5598584E2,4.7852246E2,3.8256213E2,2.7342374E2,2.1530324E2,2.6321924E2,1.533501E2,2.2921202E2,1.1540163E2,1.580221E2,1.8391408E2,3.1389164E1,9.5519806E1,1.6769942E2,1.720877E1,1.3614133E2,3.661675E1,1.9259528E2,4.1676964E1,7.372466E1,5.549642E1,1.0252568E2,1.6249652E2,2.141756E1,1.0086515E1,2.1302649E1,6.0058186E1,3.546162E1,1.0362757E1,1.5733667E2,9.857481E1,3.756653E1,2.3700352E1,1.2916397E1,1.7331996E2,1.9275309E1,1.5103484E1,2.6573479E1,2.6149841E1,4.757482E1,2.1547825E1,3.3948597E1,8.2384705E1,2.0140972E1,2.898491E1,1.3351161E2,1.0055918E1,1.1361643E1,1.0687869E1,1.0614779E1,1.6835144E1,4.322304E1,1.5144381E1,2.031724E1,1.438129E2,1.3523768E1,8.318692E1,1.5387882E1,1.3842179E1,2.3724348E1,1.1112713E1,1.2587639E1,8.3746765E1,8.95732E1,1.4037298E1,1.2112542E1,3.501853E1,1.2556292E1,2.1932285E1,1.2016313E1,1.3469544E1,6.891516E1,1.0133627E1,1.0007345E1,1.2934606E1,1.6050303E1,7.747012E1,5.604148E1,3.2028053E1,1.1194989E1,1.0071375E1,1.0245865E1,3.4548782E1,1.09264114E2,3.6579723E1,4.6607197E1,1.3631681E1,1.0092667E1,5.691965E1,2.6827112E1,7.574532E1,1.382787E1,2.3676966E1,1.1341566E1,1.0036263E1,1.1896022E1,6.6302376E1,1.1167744E1,3.871266E1,1.7328821E1,2.134941E1,1.3199373E1,9.7738625E1,1.1525495E1],"tree_param":{"num_deleted":"0","num_feature":"222","num_nodes":"105","size_leaf_vector":"1"}},{"base_weights":[-5.9598056E-3,-3.3701706E-1,5.1422155E-1,-8.6717755E-2,-6.698749E-1,-2.2999195E-2,8.0365485E-1,-6.8270685E-3,-5.201451E-1,-8.3828515E-1,1.1097192E-1,1.1363317E-1,-3.829739E-1,1.2573693E0,5.7504827E-1,2.9797373E-2,-2.3405874E-2,-1.8123044E-2,-4.0080193E-3,-5.6480014E-1,-1.1310675E0,3.8075984E-1,-1.7387912E-2,3.3919796E-1,-1.4991075E-1,-2.705978E-2,-1.2335051E-1,1.8891914E-2,1.3695698E0,1.6668549E-1,1.0981325E0,5.822212E-1,-2.2253195E-2,-2.9069063E-1,-1.2476968E0,-6.6113734E-1,-1.3091602E0,-0E0,2.8341118E-2,4.9637297E-1,-3.8353137E-3,7.7399304E-3,-4.5629874E-1,-1.4000105E-2,7.782796E-3,4.5690138E-2,9.3092823E-1,-8.982502E-2,6.9177675E-1,1.2955348E0,5.573937E-1,2.9166974E-2,-2.781132E-3,-2.4258228E-2,1.9864403E-2,3.753875E-1,-5.887907E-1,-4.2697817E-2,-2.1492284E-2,-9.8561585E-1,1.6100286E-5,-4.3870363E-2,-1.7346766E-2,-1.3469165E-2,1.0922336E-2,6.248213E-4,6.453579E-1,-2.5404228E-2,-0E0,1.0873715E-2,3.6434267E-2,3.745869E-1,-4.6511185E-1,9.858655E-1,-6.6870113E-4,2.334322E-2,4.2841695E-2,2.775859E-2,4.668157E-3,-2.2185403E-3,1.0317849E-2,3.2621007E-2,-3.3050007E-3,-2.5606925E-2,1.0269277E-3,-1.1579101E-2,-3.9235927E-2,3.0257732E-2,1.2058534E-2,-3.1630385E-3,2.6430784E-2,-2.6544832E-2,-1.2450154E-3,1.7191073E-2,3.7352756E-2],"categories":[],"categories_nodes":[],"categories_segments":[],"categories_sizes":[],"default_left":[0,0,0,0,0,0,0,0,0,0,0,0,0,0,0,0,0,0,0,0,0,0,0,0,0,0,0,0,0,0,0,0,0,0,0,0,0,0,0,0,0,0,0,0,0,0,0,0,0,0,0,0,0,0,0,0,0,0,0,0,0,0,0,0,0,0,0,0,0,0,0,0,0,0,0,0,0,0,0,0,0,0,0,0,0,0,0,0,0,0,0,0,0,0,0],"id":5,"left_children":[1,3,5,7,9,11,13,15,17,19,21,23,25,27,29,31,-1,-1,-1,33,35,37,-1,39,41,-1,43,-1,45,47,49,51,53,55,57,59,61,63,-1,65,-1,-1,67,-1,-1,-1,69,71,73,75,77,-1,-1,-1,79,81,83,-1,-1,85,-1,-1,-1,-1,-1,-1,87,-1,-1,-1,-1,89,91,93,-1,-1,-1,-1,-1,-1,-1,-1,-1,-1,-1,-1,-1,-1,-1,-1,-1,-1,-1,-1,-1],"loss_changes":[1.9683586E2,5.7771523E1,6.94878E1,1.3661014E1,3.9871277E1,7.9361334E0,2.7644623E1,1.0128922E1,1.469389E0,1.7630371E1,1.0456377E1,6.9868517E0,5.277087E0,3.930954E0,4.103772E1,9.7524805E0,0E0,0E0,0E0,2.3297806E1,7.0155945E0,8.808805E0,0E0,4.949414E0,6.9640093E0,0E0,4.643037E0,0E0,1.1734924E0,1.5700501E1,6.743248E0,8.303734E0,1.0406724E1,1.9936014E1,3.239441E-1,8.387938E0,6.4154663E0,4.62652E0,0E0,3.0752068E0,0E0,0E0,5.9378715E0,0E0,0E0,0E0,2.5462875E0,1.3869702E1,8.524357E0,8.1349945E-1,3.165782E0,0E0,0E0,0E0,8.92257E0,1.1407252E1,1.180901E1,0E0,0E0,3.0089626E0,0E0,0E0,0E0,0E0,0E0,0E0,1.671401E0,0E0,0E0,0E0,0E0,9.098955E0,7.3310995E0,6.088619E-1,0E0,0E0,0E0,0E0,0E0,0E0,0E0,0E0,0E0,0E0,0E0,0E0,0E0,0E0,0E0,0E0,0E0,0E0,0E0,0E0,0E0],"parents":[2147483647,0,0,1,1,2,2,3,3,4,4,5,5,6,6,7,7,8,8,9,9,10,10,11,11,12,12,13,13,14,14,15,15,19,19,20,20,21,21,23,23,24,24,26,26,28,28,29,29,30,30,31,31,32,32,33,33,34,34,35,35,36,36,37,37,39,39,42,42,46,46,47,47,48,48,49,49,50,50,54,54,55,55,56,56,59,59,66,66,71,71,72,72,73,73],"right_children":[2,4,6,8,10,12,14,16,18,20,22,24,26,28,30,32,-1,-1,-1,34,36,38,-1,40,42,-1,44,-1,46,48,50,52,54,56,58,60,62,64,-1,66,-1,-1,68,-1,-1,-1,70,72,74,76,78,-1,-1,-1,80,82,84,-1,-1,86,-1,-1,-1,-1,-1,-1,88,-1,-1,-1,-1,90,92,94,-1,-1,-1,-1,-1,-1,-1,-1,-1,-1,-1,-1,-1,-1,-1,-1,-1,-1,-1,-1,-1],"split_conditions":[3E0,6.65995E3,1.05E2,7.0268655E-1,-1.42E0,1.908E1,-1.9242E2,7.492E1,8.169966E-1,-8.5191E2,1.43286E3,1.4465E2,4.15E2,-7.1E-1,1.3518018E-1,9.8125E-1,-2.3405874E-2,-1.8123044E-2,-4.0080193E-3,5.083103E-1,6.77597E3,3.7586957E-1,-1.7387912E-2,9.1177644E5,4.1541383E-1,-2.705978E-2,6.726E3,1.8891914E-2,4.781E0,6.9069123E-1,1.2437226E0,1.9166666E0,-1.4579206E0,-1.96E0,-6.345818E-1,6.79583E3,2.0378652E0,6.88076E3,2.8341118E-2,1.3716E2,-3.8353137E-3,7.7399304E-3,6.2915885E-1,-1.4000105E-2,7.782796E-3,4.5690138E-2,2.1429858E2,-1.104E1,1.1966667E0,-1.393846E2,1.9800947E1,2.9166974E-2,-2.781132E-3,-2.4258228E-2,3.8211605E-1,-4.22651E3,7.1811056E0,-4.2697817E-2,-2.1492284E-2,-1.310925E0,1.6100286E-5,-4.3870363E-2,-1.7346766E-2,-1.3469165E-2,1.0922336E-2,6.248213E-4,4.8E2,-2.5404228E-2,-0E0,1.0873715E-2,3.6434267E-2,7.2E0,-4.28E0,2.358905E0,-6.6870113E-4,2.334322E-2,4.2841695E-2,2.775859E-2,4.668157E-3,-2.2185403E-3,1.0317849E-2,3.2621007E-2,-3.3050007E-3,-2.5606925E-2,1.0269277E-3,-1.1579101E-2,-3.9235927E-2,3.0257732E-2,1.2058534E-2,-3.1630385E-3,2.6430784E-2,-2.6544832E-2,-1.2450154E-3,1.7191073E-2,3.7352756E-2],"split_indices":[106,22,15,60,106,43,68,67,50,68,68,44,16,140,214,86,0,0,0,214,20,51,0,188,60,0,40,0,4,110,221,170,221,13,58,94,77,18,0,44,0,0,50,0,0,0,182,139,163,220,199,0,0,0,51,68,154,0,0,144,0,0,0,0,0,0,16,0,0,0,0,106,72,150,0,0,0,0,0,0,0,0,0,0,0,0,0,0,0,0,0,0,0,0,0],"split_type":[0,0,0,0,0,0,0,0,0,0,0,0,0,0,0,0,0,0,0,0,0,0,0,0,0,0,0,0,0,0,0,0,0,0,0,0,0,0,0,0,0,0,0,0,0,0,0,0,0,0,0,0,0,0,0,0,0,0,0,0,0,0,0,0,0,0,0,0,0,0,0,0,0,0,0,0,0,0,0,0,0,0,0,0,0,0,0,0,0,0,0,0,0,0,0],"sum_hessian":[1.1395021E3,6.973533E2,4.4214877E2,4.0033575E2,2.9701752E2,1.5484767E2,2.873011E2,3.4071854E2,5.961721E1,2.4472856E2,5.228896E1,1.1222942E2,4.261824E1,9.250981E1,1.9479129E2,3.265314E2,1.4187136E1,4.69916E1,1.2625608E1,1.304461E2,1.14282455E2,3.8765537E1,1.3523421E1,6.118491E1,5.104451E1,1.1918124E1,3.0700117E1,1.6711075E1,7.579874E1,1.1140922E2,8.338207E1,2.7190239E1,2.9934116E2,9.564033E1,3.4805775E1,3.4769344E1,7.9513115E1,2.427312E1,1.4492416E1,4.648585E1,1.4699061E1,2.1330368E1,2.9714144E1,1.6641743E1,1.4058374E1,5.164832E1,2.4150421E1,7.532037E1,3.6088844E1,5.836055E1,2.5021519E1,1.7143526E1,1.0046712E1,1.3970961E1,2.853702E2,2.8890734E1,6.6749596E1,2.292975E1,1.1876025E1,2.317906E1,1.1590284E1,6.3516346E1,1.5996767E1,1.0732536E1,1.3540585E1,1.2433847E1,3.4052002E1,1.5488945E1,1.4225198E1,1.0140389E1,1.4010033E1,3.306917E1,4.2251198E1,2.5518133E1,1.0570709E1,1.5470903E1,4.288965E1,1.10518E1,1.3969719E1,2.2130394E2,6.406628E1,1.1126528E1,1.7764206E1,4.688622E1,1.9863377E1,1.0181051E1,1.2998008E1,1.0316037E1,2.3735966E1,1.7283543E1,1.5785631E1,1.9536491E1,2.2714708E1,1.3063642E1,1.2454491E1],"tree_param":{"num_deleted":"0","num_feature":"222","num_nodes":"95","size_leaf_vector":"1"}},{"base_weights":[1.5623028E-2,-3.0196726E-1,5.1118E-1,-4.654092E-2,-6.544305E-1,6.749372E-2,8.746491E-1,9.537565E-2,-2.8015763E-1,-2.3354045E-1,-9.6053326E-1,1.4588381E-1,-2.563756E-2,4.089276E-2,6.556662E-1,3.212161E-1,-7.4013725E-2,-3.5059115E-1,1.234435E-2,-9.376658E-1,1.398504E-1,-5.475452E-1,-1.1557066E0,5.3181365E-2,5.978898E-1,3.1355256E-1,1.1241676E0,-1.4193401E-2,4.3429843E-1,-1.8874146E-1,1.7302444E-2,-1.8079418E-1,-7.7362543E-1,-2.0898913E-3,-1.1926447E0,4.094761E-1,-3.979937E-1,-4.4016544E-2,-2.0134862E-1,-1.3215943E-2,-1.2455633E0,1.8425165E-1,-2.4380413E-1,-4.7689723E-3,2.9995413E-2,9.466768E-2,3.5698418E-2,1.7507521E-2,1.2750593E0,2.6586974E-1,3.4875248E-2,-3.1384954E-1,1.270837E-2,-3.49863E-2,-6.422818E-1,-7.3978654E-3,-1.0477021E0,-2.3748722E-2,-4.626852E-2,-6.345561E-2,6.954769E-1,3.8848945E-3,-2.4981672E-2,3.423608E-1,-2.5041109E-2,-7.2605324E-1,-1.3736613E0,2.9306287E-1,-2.2615565E-1,-5.100001E-1,8.160351E-2,-1.3493155E-1,5.803497E-1,2.0326395E-2,4.2669788E-2,1.7221136E-2,2.5599324E-3,2.6409767E-4,-1.5632233E-2,-8.019984E-3,3.981091E-3,-3.3614706E-2,-2.6609101E-3,-4.293182E-2,-1.4028404E-2,-1.1431399E-2,6.609509E-3,-0E0,3.0971184E-2,-6.1069904E-3,2.6818281E-2,-3.2630753E-2,-5.330911E-3,-4.4618193E-2,-1.7514912E-2,3.276473E-3,1.5273698E-2,6.6574533E-3,-1.8776065E-2,1.6394698E-3,-3.9079662E-2,-2.5051723E-3,8.176918E-3,5.507032E-3,-1.926301E-2,3.174539E-2,2.7861835E-3],"categories":[],"categories_nodes":[],"categories_segments":[],"categories_sizes":[],"default_left":[0,0,0,0,0,0,0,0,0,0,0,0,0,0,0,0,0,0,0,0,0,0,0,0,0,0,0,0,0,0,0,0,0,0,0,0,0,0,0,0,0,0,0,0,0,0,0,0,0,0,0,0,0,0,0,0,0,0,0,0,0,0,0,0,0,0,0,0,0,0,0,0,0,0,0,0,0,0,0,0,0,0,0,0,0,0,0,0,0,0,0,0,0,0,0,0,0,0,0,0,0,0,0,0,0,0,0],"id":6,"left_children":[1,3,5,7,9,11,13,15,17,19,21,23,-1,-1,25,27,29,31,-1,33,35,37,39,41,43,45,47,-1,49,51,-1,53,55,-1,57,59,61,-1,63,-1,65,67,69,-1,-1,71,-1,-1,73,75,-1,77,-1,79,81,-1,83,-1,-1,85,87,-1,-1,89,-1,91,93,95,97,99,101,103,105,-1,-1,-1,-1,-1,-1,-1,-1,-1,-1,-1,-1,-1,-1,-1,-1,-1,-1,-1,-1,-1,-1,-1,-1,-1,-1,-1,-1,-1,-1,-1,-1,-1,-1],"loss_changes":[1.784076E2,6.1697483E1,7.086369E1,1.3506223E1,3.6175217E1,1.4518096E1,2.3169693E1,9.767448E0,7.7663145E0,3.3518456E1,1.12573395E1,7.5162587E0,0E0,0E0,2.6173172E1,1.0195937E1,1.0752451E1,9.415518E0,0E0,8.947636E0,1.2359782E1,1.700101E1,5.132065E0,6.2753177E0,1.0167716E1,1.8872192E1,3.3964615E0,0E0,1.0582245E1,9.735489E0,0E0,6.6487503E0,4.4852448E0,0E0,1.0832825E0,8.094024E0,7.008936E0,0E0,1.6230932E1,0E0,3.3477478E0,5.216052E0,4.5058136E0,0E0,0E0,9.854259E0,0E0,0E0,1.7137756E0,4.1370234E0,0E0,7.2897444E0,0E0,3.3470373E0,5.590811E0,0E0,3.1581974E0,0E0,0E0,2.2849212E0,8.171162E0,0E0,0E0,8.260528E0,0E0,3.7429466E0,3.871872E0,3.2030883E0,4.7539487E0,1.3228521E1,8.570047E-1,9.933655E0,5.831568E0,0E0,0E0,0E0,0E0,0E0,0E0,0E0,0E0,0E0,0E0,0E0,0E0,0E0,0E0,0E0,0E0,0E0,0E0,0E0,0E0,0E0,0E0,0E0,0E0,0E0,0E0,0E0,0E0,0E0,0E0,0E0,0E0,0E0,0E0],"parents":[2147483647,0,0,1,1,2,2,3,3,4,4,5,5,6,6,7,7,8,8,9,9,10,10,11,11,14,14,15,15,16,16,17,17,19,19,20,20,21,21,22,22,23,23,24,24,25,25,26,26,28,28,29,29,31,31,32,32,34,34,35,35,36,36,38,38,40,40,41,41,42,42,45,45,48,48,49,49,51,51,53,53,54,54,56,56,59,59,60,60,63,63,65,65,66,66,67,67,68,68,69,69,70,70,71,71,72,72],"right_children":[2,4,6,8,10,12,14,16,18,20,22,24,-1,-1,26,28,30,32,-1,34,36,38,40,42,44,46,48,-1,50,52,-1,54,56,-1,58,60,62,-1,64,-1,66,68,70,-1,-1,72,-1,-1,74,76,-1,78,-1,80,82,-1,84,-1,-1,86,88,-1,-1,90,-1,92,94,96,98,100,102,104,106,-1,-1,-1,-1,-1,-1,-1,-1,-1,-1,-1,-1,-1,-1,-1,-1,-1,-1,-1,-1,-1,-1,-1,-1,-1,-1,-1,-1,-1,-1,-1,-1,-1,-1],"split_conditions":[2.94E0,5E0,1.3880562E0,5.9E0,-1.73523E3,7.04665E3,-5.944E2,6.75559E3,6.93827E3,-3.002E1,-1.6500671E3,1.6405642E0,-2.563756E-2,4.089276E-2,6.733981E-1,-4.8075E0,6.96506E3,6.91132E3,1.234435E-2,-4.7283325E-2,5.0875E0,-2.534E1,6.71725E3,4.1071313E3,-1.793334E3,2.905E1,1.0969655E-1,-1.4193401E-2,-8.2498125E3,1.3E2,1.7302444E-2,3.431873E-2,1.25E-1,-2.0898913E-3,9.263333E0,1.0769184E2,-9.571117E1,-4.4016544E-2,6.76967E3,-1.3215943E-2,-7.80259E2,6.444465E-2,4.55E2,-4.7689723E-3,2.9995413E-2,6.791E3,3.5698418E-2,1.7507521E-2,2.7583727E1,-4.979E1,3.4875248E-2,-1.9819582E4,1.270837E-2,-5.744118E-2,6.73294E3,-7.3978654E-3,4.55E2,-2.3748722E-2,-4.626852E-2,6.74661E3,-1.794601E4,3.8848945E-3,-2.4981672E-2,6.77774E3,-2.5041109E-2,-4.5725E0,1.489E1,3E0,4.32E-1,-1.488E1,1.884088E0,1.13277E3,3.992E1,2.0326395E-2,4.2669788E-2,1.7221136E-2,2.5599324E-3,2.6409767E-4,-1.5632233E-2,-8.019984E-3,3.981091E-3,-3.3614706E-2,-2.6609101E-3,-4.293182E-2,-1.4028404E-2,-1.1431399E-2,6.609509E-3,-0E0,3.0971184E-2,-6.1069904E-3,2.6818281E-2,-3.2630753E-2,-5.330911E-3,-4.4618193E-2,-1.7514912E-2,3.276473E-3,1.5273698E-2,6.6574533E-3,-1.8776065E-2,1.6394698E-3,-3.9079662E-2,-2.5051723E-3,8.176918E-3,5.507032E-3,-1.926301E-2,3.174539E-2,2.7861835E-3],"split_indices":[107,134,171,70,68,9,68,10,10,106,162,162,0,0,213,167,36,7,0,55,174,107,38,220,156,107,192,0,160,15,0,55,102,0,193,178,162,0,24,0,100,55,16,0,0,37,0,0,201,126,0,158,0,55,36,0,16,0,0,24,156,0,0,93,0,71,132,212,101,195,77,68,134,0,0,0,0,0,0,0,0,0,0,0,0,0,0,0,0,0,0,0,0,0,0,0,0,0,0,0,0,0,0,0,0,0,0],"split_type":[0,0,0,0,0,0,0,0,0,0,0,0,0,0,0,0,0,0,0,0,0,0,0,0,0,0,0,0,0,0,0,0,0,0,0,0,0,0,0,0,0,0,0,0,0,0,0,0,0,0,0,0,0,0,0,0,0,0,0,0,0,0,0,0,0,0,0,0,0,0,0,0,0,0,0,0,0,0,0,0,0,0,0,0,0,0,0,0,0,0,0,0,0,0,0,0,0,0,0,0,0,0,0,0,0,0,0],"sum_hessian":[1.1289548E3,6.8788104E2,4.4107376E2,4.0097876E2,2.869023E2,2.0030669E2,2.4076707E2,2.4885097E2,1.5212779E2,1.22973526E2,1.6392879E2,1.8666342E2,1.364327E1,7.058782E1,1.7017924E2,1.0715046E2,1.4170052E2,1.3961868E2,1.2509102E1,4.2030586E1,8.094294E1,5.587328E1,1.08055504E2,1.5766849E2,2.899493E1,1.009028E2,6.927645E1,1.2008617E1,9.5141846E1,1.22323456E2,1.9377058E1,1.0251003E2,3.7108658E1,1.0566687E1,3.14639E1,5.4852104E1,2.6090834E1,1.3114382E1,4.27589E1,1.3999799E1,9.405571E1,1.11085335E2,4.658315E1,1.0045374E1,1.8949556E1,8.296768E1,1.7935122E1,1.7964775E1,5.1311672E1,8.0044945E1,1.5096895E1,1.0305921E2,1.9264242E1,8.035636E1,2.2153667E1,1.4619729E1,2.248893E1,1.83619E1,1.3101999E1,2.0598452E1,3.425365E1,1.1902592E1,1.4188243E1,2.307737E1,1.968153E1,2.2014313E1,7.20414E1,8.9220474E1,2.1864864E1,2.584387E1,2.0739277E1,5.6617466E1,2.6350216E1,1.3032232E1,3.827944E1,2.6936821E1,5.3108128E1,4.0109776E1,6.2949436E1,3.4435963E1,4.59204E1,1.0302572E1,1.1851096E1,1.1255028E1,1.1233902E1,1.0227968E1,1.0370483E1,1.2133953E1,2.2119698E1,1.1776751E1,1.1300618E1,1.1530852E1,1.0483461E1,6.0884468E1,1.1156925E1,5.108072E1,3.813975E1,1.0138516E1,1.1726349E1,1.5811704E1,1.00321665E1,1.032183E1,1.0417447E1,3.495571E1,2.1661753E1,1.1606378E1,1.4743838E1],"tree_param":{"num_deleted":"0","num_feature":"222","num_nodes":"107","size_leaf_vector":"1"}},{"base_weights":[1.5391973E-3,-3.1763726E-1,4.4377697E-1,-7.744279E-2,-6.278559E-1,5.1078696E-2,7.6214534E-1,7.666105E-2,-2.943406E-1,-1.1154176E0,-4.1833365E-1,-3.0618321E-2,7.226277E-1,3.1076628E-1,1.0097439E0,2.8391686E-1,-1.3535918E-1,-8.5547674E-1,-1.8446422E-1,-1.2540492E0,-8.731603E-3,1.9460592E-2,-7.0375496E-1,2.988404E-2,-2.1278415E-2,3.6360897E-2,1.1269593E-3,7.4164647E-1,-2.1003784E-1,1.120968E0,-1.0088349E-2,1.3116114E-1,3.206362E-2,-3.10522E-2,-2.1479368E-2,-3.6829196E-2,-9.986903E-3,-2.9270813E-1,2.3747009E-1,-4.4680182E-2,-8.35227E-1,5.945995E-1,-3.5848445E-1,-1.6645646E-1,-1.0243877E0,1.7617235E-1,-2.0883822E-1,3.989182E-2,6.53822E-2,2.7104065E-1,-6.771688E-1,1.1979405E0,6.475308E-3,-1.9368028E-2,2.7456844E-1,4.1520822E-1,-1.7662112E-1,5.3628865E-3,-3.493835E-1,-1.9221498E-3,1.5085049E-2,-3.5786778E-2,-9.600402E-3,9.9290603E-1,-5.3454484E-3,-9.0672016E-1,8.557895E-2,-6.386204E-1,1.3729613E-2,-1.1993165E0,-8.399509E-3,4.361528E-2,5.6896174E-1,-2.6415147E-2,-0E0,1.997643E-2,-1.420363E-2,1.980658E-2,-4.074491E-3,-3.2831263E-3,-3.1580456E-2,1.3534245E0,8.10122E-1,1.1394678E-2,-8.846659E-3,2.7990326E-2,-5.2760444E-3,-2.4357686E-2,-4.994194E-4,-1.3700081E-2,-1.4863943E-3,3.898468E-2,1.4930273E-2,-1.2169677E-2,-3.744463E-2,1.7414391E-2,-1.9787239E-2,-3.059882E-2,-0E0,-3.9530702E-2,-1.785387E-2,2.0883754E-2,-2.8004574E-3,8.322802E-3,2.5426645E-2,-8.536822E-3,3.4835164E-3,4.3009676E-2,2.3635214E-2,1.2434482E-2,3.6200937E-2],"categories":[],"categories_nodes":[],"categories_segments":[],"categories_sizes":[],"default_left":[0,0,0,0,0,0,0,0,0,0,0,0,0,0,0,0,0,0,0,0,0,0,0,0,0,0,0,0,0,0,0,0,0,0,0,0,0,0,0,0,0,0,0,0,0,0,0,0,0,0,0,0,0,0,0,0,0,0,0,0,0,0,0,0,0,0,0,0,0,0,0,0,0,0,0,0,0,0,0,0,0,0,0,0,0,0,0,0,0,0,0,0,0,0,0,0,0,0,0,0,0,0,0,0,0,0,0,0,0,0,0],"id":7,"left_children":[1,3,5,7,9,11,13,15,17,19,21,23,25,27,29,31,33,35,37,39,-1,41,43,45,-1,-1,-1,47,49,51,-1,53,-1,55,-1,-1,-1,57,59,-1,61,63,65,67,69,71,73,-1,75,77,79,81,-1,-1,83,85,87,-1,89,-1,-1,-1,-1,91,-1,93,95,97,-1,99,-1,101,103,-1,105,-1,-1,-1,-1,-1,-1,107,109,-1,-1,-1,-1,-1,-1,-1,-1,-1,-1,-1,-1,-1,-1,-1,-1,-1,-1,-1,-1,-1,-1,-1,-1,-1,-1,-1,-1],"loss_changes":[1.6063943E2,4.8735092E1,5.92175E1,1.2695692E1,2.7604637E1,1.22765875E1,2.8091446E1,9.801085E0,8.882448E0,8.1321335E0,2.5930492E1,8.36467E0,7.412195E0,2.2282429E1,2.6320526E1,1.2654202E1,6.1661663E0,3.1700878E0,6.3370547E0,3.350998E0,0E0,1.8365658E1,2.0524658E1,6.3341527E0,0E0,0E0,0E0,2.0563702E1,1.0643547E1,9.653046E0,0E0,1.1008657E1,0E0,6.1974707E0,0E0,0E0,0E0,3.1323795E0,2.503893E0,0E0,4.1693134E0,1.1161348E1,1.278639E1,1.5269967E1,8.621605E0,5.570825E0,9.378083E0,0E0,9.647036E0,4.080811E0,4.271261E0,5.3444977E0,0E0,0E0,5.3066835E0,7.780996E0,7.065878E0,0E0,2.8942509E0,0E0,0E0,0E0,0E0,1.3042259E0,0E0,2.1192856E0,1.1441826E1,7.641364E0,0E0,1.854599E0,0E0,8.316065E0,1.2092218E0,0E0,1.878406E0,0E0,0E0,0E0,0E0,0E0,0E0,1.0831299E0,5.533499E0,0E0,0E0,0E0,0E0,0E0,0E0,0E0,0E0,0E0,0E0,0E0,0E0,0E0,0E0,0E0,0E0,0E0,0E0,0E0,0E0,0E0,0E0,0E0,0E0,0E0,0E0,0E0,0E0],"parents":[2147483647,0,0,1,1,2,2,3,3,4,4,5,5,6,6,7,7,8,8,9,9,10,10,11,11,12,12,13,13,14,14,15,15,16,16,17,17,18,18,19,19,21,21,22,22,23,23,27,27,28,28,29,29,31,31,33,33,37,37,38,38,40,40,41,41,42,42,43,43,44,44,45,45,46,46,48,48,49,49,50,50,51,51,54,54,55,55,56,56,58,58,63,63,65,65,66,66,67,67,69,69,71,71,72,72,74,74,81,81,82,82],"right_children":[2,4,6,8,10,12,14,16,18,20,22,24,26,28,30,32,34,36,38,40,-1,42,44,46,-1,-1,-1,48,50,52,-1,54,-1,56,-1,-1,-1,58,60,-1,62,64,66,68,70,72,74,-1,76,78,80,82,-1,-1,84,86,88,-1,90,-1,-1,-1,-1,92,-1,94,96,98,-1,100,-1,102,104,-1,106,-1,-1,-1,-1,-1,-1,108,110,-1,-1,-1,-1,-1,-1,-1,-1,-1,-1,-1,-1,-1,-1,-1,-1,-1,-1,-1,-1,-1,-1,-1,-1,-1,-1,-1,-1],"split_conditions":[1.67E0,6.65965E3,6.57838E3,3.14E0,-3.663806E-1,5.5941668E0,1.5710257E-1,6.75585E3,-7.191667E-1,-1.525E-1,-7.4446195E-1,7.04665E3,3.3491383E1,6.9759727E-1,1.0518693E1,2.3933271E1,3.2869534E0,-2.6E0,3.14565E3,5.008E1,-8.731603E-3,-5.944E2,-1.96645E3,5.723E1,-2.1278415E-2,3.6360897E-2,1.1269593E-3,1.0037E2,4.339E1,2.4923462E3,-1.0088349E-2,-4.8075E0,3.206362E-2,3.6E2,-2.1479368E-2,-3.6829196E-2,-9.986903E-3,1.4E2,9.2964426E-2,-4.4680182E-2,2.0524493E2,1.018E1,-8.223E1,6.77725E3,1.91E0,2.386145E-1,3.5E2,3.989182E-2,1.7535384E0,6.83301E3,3.9661567E0,2.56982E1,6.475308E-3,-1.9368028E-2,1.6108073E0,-1.7428162E4,4.4E2,5.3628865E-3,4E-1,-1.9221498E-3,1.5085049E-2,-3.5786778E-2,-9.600402E-3,4.360635E-1,-5.3454484E-3,6.0785E2,6.455004E-1,1.2802191E1,1.3729613E-2,2.4567E2,-8.399509E-3,1.75E2,-1.3149163E4,-2.6415147E-2,2.837905E3,1.997643E-2,-1.420363E-2,1.980658E-2,-4.074491E-3,-3.2831263E-3,-3.1580456E-2,1.33478E3,1.848E0,1.1394678E-2,-8.846659E-3,2.7990326E-2,-5.2760444E-3,-2.4357686E-2,-4.994194E-4,-1.3700081E-2,-1.4863943E-3,3.898468E-2,1.4930273E-2,-1.2169677E-2,-3.744463E-2,1.7414391E-2,-1.9787239E-2,-3.059882E-2,-0E0,-3.9530702E-2,-1.785387E-2,2.0883754E-2,-2.8004574E-3,8.322802E-3,2.5426645E-2,-8.536822E-3,3.4835164E-3,4.3009676E-2,2.3635214E-2,1.2434482E-2,3.6200937E-2],"split_indices":[14,22,18,70,58,155,58,10,155,155,221,1,196,221,152,196,154,69,220,135,0,68,68,49,0,0,0,68,133,157,0,167,0,16,0,0,0,16,51,0,180,62,28,37,132,54,16,0,77,20,152,144,0,0,203,158,16,0,69,0,0,0,0,51,0,177,54,196,0,28,0,16,158,0,186,0,0,0,0,0,0,66,220,0,0,0,0,0,0,0,0,0,0,0,0,0,0,0,0,0,0,0,0,0,0,0,0,0,0,0,0],"split_type":[0,0,0,0,0,0,0,0,0,0,0,0,0,0,0,0,0,0,0,0,0,0,0,0,0,0,0,0,0,0,0,0,0,0,0,0,0,0,0,0,0,0,0,0,0,0,0,0,0,0,0,0,0,0,0,0,0,0,0,0,0,0,0,0,0,0,0,0,0,0,0,0,0,0,0,0,0,0,0,0,0,0,0,0,0,0,0,0,0,0,0,0,0,0,0,0,0,0,0,0,0,0,0,0,0,0,0,0,0,0,0],"sum_hessian":[1.1336167E3,6.580877E2,4.7552905E2,3.732222E2,2.848655E2,2.146526E2,2.6087643E2,2.176043E2,1.5561789E2,8.2305534E1,2.0255998E2,1.924094E2,2.224322E1,9.472315E1,1.6615329E2,1.1088809E2,1.0671621E2,2.2514534E1,1.3310336E2,6.9045334E1,1.3260199E1,7.998564E1,1.2257435E2,1.7773923E2,1.4670165E1,1.1651315E1,1.0591905E1,5.189801E1,4.2825138E1,1.5412366E2,1.2029634E1,9.530968E1,1.5578413E1,9.2980576E1,1.373563E1,1.101492E1,1.1499613E1,1.0735885E2,2.5744507E1,4.0171505E1,2.8873827E1,3.1788246E1,4.819739E1,4.7527737E1,7.504661E1,1.1182916E2,6.5910065E1,2.632971E1,2.55683E1,2.0983896E1,2.1841244E1,1.4093869E2,1.3184959E1,1.3218996E1,8.209068E1,2.1113865E1,7.1866714E1,1.0111644E1,9.724721E1,1.18789835E1,1.3865522E1,1.4917104E1,1.3956723E1,2.1027552E1,1.07606945E1,2.1140182E1,2.705721E1,2.7487219E1,2.004052E1,5.9233368E1,1.5813243E1,8.622523E1,2.5603935E1,1.3916484E1,5.1993576E1,1.2308093E1,1.3260207E1,1.0716504E1,1.0267392E1,1.025352E1,1.1587724E1,9.612953E1,4.4809162E1,7.058781E1,1.1502874E1,1.108871E1,1.0025155E1,1.2188096E1,5.9678616E1,6.962185E1,2.7625357E1,1.0357721E1,1.0669829E1,1.0934336E1,1.0205847E1,1.6927584E1,1.0129626E1,1.6905067E1,1.0582152E1,4.686255E1,1.2370819E1,1.4175796E1,7.204943E1,1.5338868E1,1.0265066E1,1.4645521E1,3.7348057E1,8.0724594E1,1.5404939E1,2.5109783E1,1.9699379E1],"tree_param":{"num_deleted":"0","num_feature":"222","num_nodes":"111","size_leaf_vector":"1"}},{"base_weights":[1.9073451E-2,-2.7734673E-1,5.009733E-1,-3.6511764E-2,-5.9897506E-1,4.312999E-3,7.676375E-1,1.0215354E-1,-2.667586E-1,-1.5411125E-1,-8.821332E-1,1.874688E-1,-5.2125335E-1,1.2800995E0,5.8966416E-1,3.2177678E-1,-6.781278E-2,-7.284683E-1,-1.7670994E-1,-8.4570044E-1,3.0570853E-1,-1.0311689E0,-3.0151618E-1,2.7718428E-1,-1.6908685E-2,-3.0208264E-2,1.0548478E-3,1.7727625E-2,4.2668607E-2,2.7823756E-3,8.665488E-1,-1.7155556E-2,4.42873E-1,-2.9507555E-2,3.619424E-2,-7.873881E-3,-3.0279046E-2,-2.4124849E-1,1.3701205E-2,-6.7201713E-3,-1.1531135E0,5.157125E-1,-1.2304423E-2,-6.371855E-1,-1.2868735E0,-0E0,-2.669059E-2,3.551877E-1,-6.6987057E-3,-2.5097883E-1,2.5172751E-2,-1.286521E-3,9.444392E-1,3.0954182E-1,2.92541E-2,-5.0499525E-2,2.3206137E-2,-2.547308E-2,-5.847609E-1,-4.265497E-2,-1.5020318E-2,4.3531407E-2,9.141852E-1,-2.0428959E-1,-3.945408E-2,-8.920145E-1,-4.4119824E-2,-1.5668303E-2,1.0212597E-2,5.895768E-1,1.7156042E-1,-2.7277924E-2,1.9364065E-2,5.457126E-1,1.152939E0,1.2368435E-2,-9.085835E-3,-4.9586925E-3,8.187192E-3,-7.8986E-3,4.1129417E-3,-2.788235E-2,-8.963796E-3,1.8005013E-2,-1.3618541E-2,3.9639425E-2,1.45722125E-2,1.3198984E-2,-2.0860042E-2,-1.1194058E-2,-3.5371736E-2,2.1954399E-2,5.227725E-3,1.2737226E-3,1.4784776E-2,8.045794E-3,-1.6916463E-2,2.6386636E-3,3.4625333E-2,1.8472282E-2,3.7687294E-2],"categories":[],"categories_nodes":[],"categories_segments":[],"categories_sizes":[],"default_left":[0,0,0,0,0,0,0,0,0,0,0,0,0,0,0,0,0,0,0,0,0,0,0,0,0,0,0,0,0,0,0,0,0,0,0,0,0,0,0,0,0,0,0,0,0,0,0,0,0,0,0,0,0,0,0,0,0,0,0,0,0,0,0,0,0,0,0,0,0,0,0,0,0,0,0,0,0,0,0,0,0,0,0,0,0,0,0,0,0,0,0,0,0,0,0,0,0,0,0,0,0],"id":8,"left_children":[1,3,5,7,9,11,13,15,17,19,21,23,25,27,29,31,33,35,37,39,41,43,45,47,-1,-1,-1,-1,-1,49,51,-1,53,-1,55,-1,-1,57,-1,-1,59,61,-1,63,65,67,-1,69,-1,71,-1,-1,73,75,-1,77,-1,79,81,-1,-1,83,85,87,-1,89,-1,-1,-1,91,93,-1,95,97,99,-1,-1,-1,-1,-1,-1,-1,-1,-1,-1,-1,-1,-1,-1,-1,-1,-1,-1,-1,-1,-1,-1,-1,-1,-1,-1],"loss_changes":[1.6200957E2,5.3951324E1,5.685636E1,1.3034363E1,3.6900627E1,1.4821279E1,2.3146042E1,9.585495E0,5.682351E0,3.878432E1,1.4436996E1,7.9950266E0,1.1241535E1,4.16156E0,3.4122406E1,1.2525968E1,1.41223545E1,1.9157572E0,5.5171413E0,8.098877E0,1.1420544E1,1.1813889E1,7.075509E0,4.350168E0,0E0,0E0,0E0,0E0,0E0,1.57330475E1,1.0726944E1,0E0,5.847849E0,0E0,8.714517E0,0E0,0E0,8.708311E0,0E0,0E0,3.147194E0,1.0300914E1,0E0,1.6620184E1,2.2940826E0,5.542547E0,0E0,3.4227142E0,0E0,1.0334259E1,0E0,0E0,8.962921E0,5.565461E0,0E0,4.3836875E0,0E0,3.1478102E0,3.3725863E0,0E0,0E0,8.673304E0,3.1551552E0,1.3418271E1,0E0,3.205597E0,0E0,0E0,0E0,1.5878277E0,2.0215063E0,0E0,6.057241E0,1.3198438E1,2.2240143E0,0E0,0E0,0E0,0E0,0E0,0E0,0E0,0E0,0E0,0E0,0E0,0E0,0E0,0E0,0E0,0E0,0E0,0E0,0E0,0E0,0E0,0E0,0E0,0E0,0E0,0E0],"parents":[2147483647,0,0,1,1,2,2,3,3,4,4,5,5,6,6,7,7,8,8,9,9,10,10,11,11,12,12,13,13,14,14,15,15,16,16,17,17,18,18,19,19,20,20,21,21,22,22,23,23,29,29,30,30,32,32,34,34,37,37,40,40,41,41,43,43,44,44,45,45,47,47,49,49,52,52,53,53,55,55,57,57,58,58,61,61,62,62,63,63,65,65,69,69,70,70,72,72,73,73,74,74],"right_children":[2,4,6,8,10,12,14,16,18,20,22,24,26,28,30,32,34,36,38,40,42,44,46,48,-1,-1,-1,-1,-1,50,52,-1,54,-1,56,-1,-1,58,-1,-1,60,62,-1,64,66,68,-1,70,-1,72,-1,-1,74,76,-1,78,-1,80,82,-1,-1,84,86,88,-1,90,-1,-1,-1,92,94,-1,96,98,100,-1,-1,-1,-1,-1,-1,-1,-1,-1,-1,-1,-1,-1,-1,-1,-1,-1,-1,-1,-1,-1,-1,-1,-1,-1,-1],"split_conditions":[3.27E0,5E0,3.474124E-6,3.61E0,-1.96645E3,6.3679536E3,-6.7936E2,6.76175E3,3.974627E-1,-2.385E1,-1.79E0,5.006639E-1,4.962343E-1,6.69152E3,-2.797563E3,-4.8075E0,-6.8830365E-1,2.5302084E1,2.9064514E3,2.056217E-3,9.476587E2,-1.4783237E3,1.9471904E2,3.16685E3,-1.6908685E-2,-3.0208264E-2,1.0548478E-3,1.7727625E-2,4.2668607E-2,2.905E1,-6.4769E2,-1.7155556E-2,-7.9620103E3,-2.9507555E-2,2.7978735E0,-7.873881E-3,-3.0279046E-2,6.8008E3,1.3701205E-2,-6.7201713E-3,-1.3621283E4,-7.61E0,-1.2304423E-2,3.5192737E-1,6.77597E3,9.7625E-1,-2.669059E-2,5.5E-1,-6.6987057E-3,6.36893E0,2.5172751E-2,-1.286521E-3,6.658228E-1,1.6108073E0,2.92541E-2,-3.1827E2,2.3206137E-2,-5.744118E-2,1.5160297E0,-4.265497E-2,-1.5020318E-2,-3.45E1,-4.96E0,6.84955E3,-3.945408E-2,0E0,-4.4119824E-2,-1.5668303E-2,1.0212597E-2,2.69E0,3.998E0,-2.7277924E-2,8.270597E2,6.953375E1,2.1123726E3,1.2368435E-2,-9.085835E-3,-4.9586925E-3,8.187192E-3,-7.8986E-3,4.1129417E-3,-2.788235E-2,-8.963796E-3,1.8005013E-2,-1.3618541E-2,3.9639425E-2,1.45722125E-2,1.3198984E-2,-2.0860042E-2,-1.1194058E-2,-3.5371736E-2,2.1954399E-2,5.227725E-3,1.2737226E-3,1.4784776E-2,8.045794E-3,-1.6916463E-2,2.6386636E-3,3.4625333E-2,1.8472282E-2,3.7687294E-2],"split_indices":[107,133,154,118,68,89,68,10,110,106,107,213,213,35,3,167,221,89,71,55,162,162,200,70,0,0,0,0,0,107,28,0,160,0,152,0,0,95,0,0,3,14,0,214,20,86,0,69,0,173,0,0,50,203,0,118,0,55,78,0,0,63,31,20,0,132,0,0,0,12,4,0,162,89,160,0,0,0,0,0,0,0,0,0,0,0,0,0,0,0,0,0,0,0,0,0,0,0,0,0,0],"split_type":[0,0,0,0,0,0,0,0,0,0,0,0,0,0,0,0,0,0,0,0,0,0,0,0,0,0,0,0,0,0,0,0,0,0,0,0,0,0,0,0,0,0,0,0,0,0,0,0,0,0,0,0,0,0,0,0,0,0,0,0,0,0,0,0,0,0,0,0,0,0,0,0,0,0,0,0,0,0,0,0,0,0,0,0,0,0,0,0,0,0,0,0,0,0,0,0,0,0,0,0,0],"sum_hessian":[1.1294364E3,6.9917816E2,4.302583E2,4.0196716E2,2.9721097E2,1.5167395E2,2.7858435E2,2.5021637E2,1.5175081E2,1.174858E2,1.7972517E2,1.1413629E2,3.7537655E1,6.789387E1,2.1069049E2,1.09666016E2,1.4055035E2,2.1545877E1,1.3020493E2,4.66824E1,7.0803406E1,1.4109505E2,3.8630127E1,1.03679695E2,1.0456593E1,1.9657791E1,1.7879864E1,1.3976837E1,5.391703E1,6.87643E1,1.419262E2,1.1706256E1,9.795976E1,1.3099957E1,1.2745039E2,1.0226291E1,1.1319587E1,1.2000527E2,1.019965E1,1.712785E1,2.955455E1,5.571612E1,1.5087281E1,5.9050526E1,8.204452E1,2.7024685E1,1.1605441E1,9.106591E1,1.261379E1,5.337167E1,1.5392628E1,1.0761116E1,1.3116508E2,8.161726E1,1.6342497E1,1.1510209E2,1.2348305E1,7.592026E1,4.408502E1,1.8719614E1,1.0834936E1,2.7089256E1,2.8626867E1,3.8077103E1,2.0973421E1,3.0641083E1,5.1403435E1,1.0411646E1,1.6613039E1,3.6865265E1,5.420064E1,1.4699973E1,3.8671696E1,4.8344933E1,8.2820145E1,7.115073E1,1.0466536E1,8.681256E1,2.828953E1,3.157216E1,4.4348095E1,1.7157766E1,2.6927254E1,1.3064062E1,1.4025195E1,1.1943044E1,1.6683823E1,1.6118843E1,2.195826E1,1.3172077E1,1.7469006E1,2.542861E1,1.1436657E1,4.1388863E1,1.2811777E1,2.8465244E1,1.0206453E1,2.9364466E1,1.8980467E1,1.6383694E1,6.6436455E1],"tree_param":{"num_deleted":"0","num_feature":"222","num_nodes":"101","size_leaf_vector":"1"}},{"base_weights":[-4.694629E-3,-3.225578E-1,4.504248E-1,-6.941282E-2,-6.688453E-1,7.02625E-2,7.698602E-1,-4.2245656E-1,-3.4103624E-3,-4.0466473E-1,-9.807176E-1,1.2442041E-1,-1.9032644E-2,2.2378609E-1,9.283744E-1,4.5041693E-3,-6.7600465E-1,-6.9463864E-2,4.4676945E-1,-9.0689176E-1,-7.558509E-2,-5.9567165E-1,-1.1679156E0,-3.3646718E-1,2.076712E-1,7.796108E-1,-2.8479186E-1,5.264265E-3,9.991458E-1,-1.0475756E0,-2.819056E-3,-1.22231156E-1,4.1898105E-1,8.493227E-1,-1.3899095E-2,-2.0326558E-3,-1.1493709E0,2.1197273E-1,-6.2381434E-1,-9.451749E-1,9.756629E-3,-1.2574228E0,-1.5135708E-2,2.9437644E-3,-2.656474E-2,2.98722E-2,1.10799536E-1,4.6933456E-3,3.163924E-2,-2.2727968E-2,7.969465E-3,1.2545922E0,7.603158E-1,-9.548586E-3,-4.507931E-2,-2.1911041E-1,1.2082563E-1,2.5405552E-2,-1.1813308E-3,3.6841638E-3,3.8082436E-2,-7.850571E-1,-4.4654783E-2,2.3058325E-2,-5.6291413E-2,-1.7227882E-1,-3.638974E-2,-4.005239E-2,-1.1731801E-2,-1.4065439E0,-1.685937E-2,-7.5485714E-2,2.9534712E-1,1.3626887E0,1.8978374E-2,4.0190656E-2,5.0264686E-1,9.725384E-3,-8.045278E-3,-6.393166E-4,1.7464058E-2,-3.5334524E-2,-5.1499777E-3,-1.1908766E-2,1.6049175E-2,-1.848996E-2,8.064534E-3,-2.1486564E-2,-4.568006E-2,-1.3767166E-2,4.281387E-4,1.18363565E-2,-4.7298004E-3,4.4124216E-2,2.3011252E-2,-4.9813726E-4,2.7987963E-2],"categories":[],"categories_nodes":[],"categories_segments":[],"categories_sizes":[],"default_left":[0,0,0,0,0,0,0,0,0,0,0,0,0,0,0,0,0,0,0,0,0,0,0,0,0,0,0,0,0,0,0,0,0,0,0,0,0,0,0,0,0,0,0,0,0,0,0,0,0,0,0,0,0,0,0,0,0,0,0,0,0,0,0,0,0,0,0,0,0,0,0,0,0,0,0,0,0,0,0,0,0,0,0,0,0,0,0,0,0,0,0,0,0,0,0,0,0],"id":9,"left_children":[1,3,5,7,9,11,13,15,17,19,21,23,-1,25,27,-1,29,31,33,35,37,39,41,43,45,47,49,-1,51,53,-1,55,57,59,-1,-1,61,63,65,67,-1,69,-1,-1,-1,-1,71,-1,-1,-1,-1,73,75,-1,-1,77,79,-1,-1,-1,-1,81,-1,-1,83,85,-1,-1,-1,87,-1,89,91,93,-1,-1,95,-1,-1,-1,-1,-1,-1,-1,-1,-1,-1,-1,-1,-1,-1,-1,-1,-1,-1,-1,-1],"loss_changes":[1.6472034E2,5.8384346E1,5.6275978E1,8.892086E0,2.1782936E1,8.165301E0,2.0931503E1,9.228245E0,9.7610035E0,2.534886E1,6.898964E0,7.8787603E0,0E0,1.7743824E1,9.449432E0,0E0,8.488647E0,7.4972076E0,1.6310585E1,1.173642E1,1.5879011E1,1.5917643E1,2.75885E0,7.954612E0,1.2541298E1,4.1766796E0,9.105616E0,0E0,7.8931274E0,6.563246E0,0E0,6.379858E0,5.973967E0,8.17873E0,0E0,0E0,2.3422356E0,1.0149941E1,8.129824E0,5.583864E0,0E0,4.7808E0,0E0,0E0,0E0,0E0,5.5911026E0,0E0,0E0,0E0,0E0,2.7588043E0,1.2309402E1,0E0,0E0,5.285453E0,5.275236E0,0E0,0E0,0E0,0E0,5.5793056E0,0E0,0E0,9.444729E0,4.9073744E0,0E0,0E0,0E0,1.2210693E0,0E0,2.952229E0,3.8915687E0,9.413681E-1,0E0,0E0,1.6438725E1,0E0,0E0,0E0,0E0,0E0,0E0,0E0,0E0,0E0,0E0,0E0,0E0,0E0,0E0,0E0,0E0,0E0,0E0,0E0,0E0],"parents":[2147483647,0,0,1,1,2,2,3,3,4,4,5,5,6,6,7,7,8,8,9,9,10,10,11,11,13,13,14,14,16,16,17,17,18,18,19,19,20,20,21,21,22,22,23,23,24,24,25,25,26,26,28,28,29,29,31,31,32,32,33,33,36,36,37,37,38,38,39,39,41,41,46,46,51,51,52,52,55,55,56,56,61,61,64,64,65,65,69,69,71,71,72,72,73,73,76,76],"right_children":[2,4,6,8,10,12,14,16,18,20,22,24,-1,26,28,-1,30,32,34,36,38,40,42,44,46,48,50,-1,52,54,-1,56,58,60,-1,-1,62,64,66,68,-1,70,-1,-1,-1,-1,72,-1,-1,-1,-1,74,76,-1,-1,78,80,-1,-1,-1,-1,82,-1,-1,84,86,-1,-1,-1,88,-1,90,92,94,-1,-1,96,-1,-1,-1,-1,-1,-1,-1,-1,-1,-1,-1,-1,-1,-1,-1,-1,-1,-1,-1,-1],"split_conditions":[1.67E0,5E0,1.3880562E0,0E0,-8.5191E2,7.04665E3,7.22E0,1.63E-1,8.462828E4,-2.409E1,-1.7234749E3,4.6347517E-1,-1.9032644E-2,-2.6304E2,6.69681E3,4.5041693E-3,4.861E0,7.908029E-1,5.52E0,-4.7283325E-2,4.758333E0,-1.073E1,1.5349E2,1.4498E2,-7.8E-1,-7.0248726E3,6.89082E3,5.264265E-3,5.697729E0,2.3933271E1,-2.819056E-3,6.58E0,-1.8784536E-2,-1.4305159E-2,-1.3899095E-2,-2.0326558E-3,-6.42587E0,-2.0812E3,3.048451E2,1.1343448E1,9.756629E-3,-1.37E0,-1.5135708E-2,2.9437644E-3,-2.656474E-2,2.98722E-2,6.663E3,4.6933456E-3,3.163924E-2,-2.2727968E-2,7.969465E-3,4.64E0,-9.4445E2,-9.548586E-3,-4.507931E-2,2.4781539E-1,6.4E-1,2.5405552E-2,-1.1813308E-3,3.6841638E-3,3.8082436E-2,-4.7899E2,-4.4654783E-2,2.3058325E-2,-4.5817E2,4.577355E1,-3.638974E-2,-4.005239E-2,-1.1731801E-2,6.7438E3,-1.685937E-2,-1.2479517E4,4.00412E4,5.882194E1,1.8978374E-2,4.0190656E-2,2.015E1,9.725384E-3,-8.045278E-3,-6.393166E-4,1.7464058E-2,-3.5334524E-2,-5.1499777E-3,-1.1908766E-2,1.6049175E-2,-1.848996E-2,8.064534E-3,-2.1486564E-2,-4.568006E-2,-1.3767166E-2,4.281387E-4,1.18363565E-2,-4.7298004E-3,4.4124216E-2,2.3011252E-2,-4.9813726E-4,2.7987963E-2],"split_indices":[107,134,171,221,68,1,107,102,89,105,162,109,0,68,1,0,103,51,191,55,172,14,44,44,96,160,20,0,154,196,0,75,55,55,0,0,76,25,162,218,0,107,0,0,0,0,41,0,0,0,0,113,68,0,0,60,167,0,0,0,0,122,0,0,25,199,0,0,0,36,0,160,84,185,0,0,14,0,0,0,0,0,0,0,0,0,0,0,0,0,0,0,0,0,0,0,0],"split_type":[0,0,0,0,0,0,0,0,0,0,0,0,0,0,0,0,0,0,0,0,0,0,0,0,0,0,0,0,0,0,0,0,0,0,0,0,0,0,0,0,0,0,0,0,0,0,0,0,0,0,0,0,0,0,0,0,0,0,0,0,0,0,0,0,0,0,0,0,0,0,0,0,0,0,0,0,0,0,0,0,0,0,0,0,0,0,0,0,0,0,0,0,0,0,0,0,0],"sum_hessian":[1.1350607E3,6.6929486E2,4.6576584E2,3.8886755E2,2.8042734E2,2.1449684E2,2.51269E2,5.835468E1,3.3051288E2,1.5517776E2,1.25249565E2,2.0137662E2,1.3120222E1,5.832386E1,1.9294513E2,1.7554495E1,4.0800186E1,2.9066635E2,3.9846523E1,5.9436813E1,9.574095E1,4.458274E1,8.0666824E1,2.8960152E1,1.7241646E2,2.7827967E1,3.0495893E1,1.778319E1,1.7516194E2,2.340178E1,1.7398407E1,2.6460403E2,2.6062325E1,2.8099955E1,1.1746567E1,1.4360609E1,4.5076206E1,6.300708E1,3.2733868E1,3.267277E1,1.1909969E1,6.883479E1,1.18320265E1,1.6573141E1,1.2387011E1,1.6277405E1,1.5613905E2,1.0038441E1,1.7789526E1,1.6488543E1,1.4007351E1,7.951504E1,9.564691E1,1.07198305E1,1.2681949E1,1.908056E2,7.379844E1,1.3166915E1,1.289541E1,1.1678223E1,1.6421734E1,2.5638002E1,1.9438202E1,1.9883383E1,4.31237E1,2.0475351E1,1.2258517E1,1.6993858E1,1.5678914E1,5.4404976E1,1.4429817E1,7.6943596E1,7.9195465E1,6.50279E1,1.4487138E1,2.6260578E1,6.938633E1,1.4031686E1,1.7677391E2,5.7045597E1,1.6752838E1,1.4011084E1,1.1626919E1,2.8313349E1,1.481035E1,1.0372411E1,1.0102941E1,1.0518275E1,4.3886703E1,1.4091835E1,6.285176E1,6.6086E1,1.3109467E1,5.1840202E1,1.3187695E1,3.178737E1,3.759896E1],"tree_param":{"num_deleted":"0","num_feature":"222","num_nodes":"97","size_leaf_vector":"1"}},{"base_weights":[-1.230292E-2,-3.115284E-1,3.9267763E-1,-9.526367E-2,-6.21298E-1,6.3109183E-1,-3.0642828E-2,-5.3816263E-2,-6.076188E-1,-7.525026E-1,4.290372E-2,1.01863205E-1,8.035892E-1,7.009568E-2,-5.2647316E-1,-9.28491E-2,1.9006211E-2,-7.2631175E-3,-2.4692299E-2,-5.9449935E-1,-1.2336817E0,-5.4091775E-1,2.5260326E-2,-4.4954666E-1,3.4583986E-1,5.658286E-1,1.0571078E0,-1.5017105E-2,1.4978008E-1,5.7487004E-4,-2.6740044E-2,-1.2777227E-1,2.3408974E-2,-3.2946616E-1,-1.033066E0,-4.304871E-2,-1.4137454E-2,-2.6573233E-2,-2.4393394E-4,-1.9217547E-2,-4.3076803E-3,6.167768E-1,-9.344206E-3,6.964096E-1,-1.6881308E-2,1.1359338E0,1.1478812E-2,2.174612E-1,-1.26957735E-2,-6.560286E-2,-5.158128E-1,1.5510318E-1,-7.493667E-1,-1.2074753E0,-4.2667263E-3,3.801051E-2,1.8644336E-1,8.819293E-1,-6.383537E-3,3.9438188E-2,8.462088E-1,3.976284E-1,-3.141923E-2,-7.737521E-3,2.6458534E-3,-2.7232304E-2,3.1492635E-4,1.7089924E-2,-1.8671773E-2,-1.2984922E-3,-3.060668E-2,-2.0627828E-2,-4.0780492E-2,-1.9419117E-2,2.3231694E-2,-0E0,3.0740317E-2,4.6051187E-3,3.3614628E-2,1.8759983E-2,7.846697E-3,-6.0052215E-3,6.2244427E-3],"categories":[],"categories_nodes":[],"categories_segments":[],"categories_sizes":[],"default_left":[0,0,0,0,0,0,0,0,0,0,0,0,0,0,0,0,0,0,0,0,0,0,0,0,0,0,0,0,0,0,0,0,0,0,0,0,0,0,0,0,0,0,0,0,0,0,0,0,0,0,0,0,0,0,0,0,0,0,0,0,0,0,0,0,0,0,0,0,0,0,0,0,0,0,0,0,0,0,0,0,0,0,0],"id":10,"left_children":[1,3,5,7,9,11,13,15,17,19,21,23,25,27,29,31,-1,-1,-1,33,35,37,-1,39,41,43,45,-1,47,-1,-1,49,-1,51,53,-1,-1,-1,-1,-1,-1,55,-1,57,-1,59,-1,61,-1,63,65,67,69,71,-1,-1,73,75,-1,-1,77,79,81,-1,-1,-1,-1,-1,-1,-1,-1,-1,-1,-1,-1,-1,-1,-1,-1,-1,-1,-1,-1],"loss_changes":[1.3745216E2,4.3280357E1,4.8927162E1,7.8422422E0,2.3706482E1,2.7576218E1,9.0232935E0,9.559831E0,1.2690191E0,1.4639908E1,2.2215132E1,1.0875929E1,1.1970779E1,6.6157374E0,6.5536184E0,1.0392942E1,0E0,0E0,0E0,1.8767273E1,5.781578E0,4.509858E0,0E0,8.529291E-1,1.0593512E1,1.927034E1,4.161949E0,0E0,5.140353E0,0E0,0E0,7.698895E0,0E0,2.3235304E1,8.861069E0,0E0,0E0,0E0,0E0,0E0,0E0,1.0328517E1,0E0,1.9824215E1,0E0,1.655777E0,0E0,5.5341644E0,0E0,8.745482E0,9.692136E0,1.7736929E1,1.0985012E1,1.2475433E0,0E0,0E0,1.45946665E1,1.1578224E1,0E0,0E0,7.2339478E0,1.4049215E0,2.1180272E0,0E0,0E0,0E0,0E0,0E0,0E0,0E0,0E0,0E0,0E0,0E0,0E0,0E0,0E0,0E0,0E0,0E0,0E0,0E0,0E0],"parents":[2147483647,0,0,1,1,2,2,3,3,4,4,5,5,6,6,7,7,8,8,9,9,10,10,11,11,12,12,13,13,14,14,15,15,19,19,20,20,21,21,23,23,24,24,25,25,26,26,28,28,31,31,33,33,34,34,41,41,43,43,45,45,47,47,49,49,50,50,51,51,52,52,53,53,56,56,57,57,60,60,61,61,62,62],"right_children":[2,4,6,8,10,12,14,16,18,20,22,24,26,28,30,32,-1,-1,-1,34,36,38,-1,40,42,44,46,-1,48,-1,-1,50,-1,52,54,-1,-1,-1,-1,-1,-1,56,-1,58,-1,60,-1,62,-1,64,66,68,70,72,-1,-1,74,76,-1,-1,78,80,82,-1,-1,-1,-1,-1,-1,-1,-1,-1,-1,-1,-1,-1,-1,-1,-1,-1,-1,-1,-1],"split_conditions":[1.37E0,5E0,2.9E2,6.96548E3,-2.16E0,6.9E0,1.5649227E5,6.94625E3,-5.217202E-4,4.8297E2,3.8211605E-1,1.4149E2,3.452438E3,-3.59E0,-4.4E-1,5.6676924E-1,1.9006211E-2,-7.2631175E-3,-2.4692299E-2,3.9644435E-1,8.655833E0,6.90167E3,2.5260326E-2,2.0097183E-14,3.1658332E0,2.36395E3,7.461086E2,-1.5017105E-2,1.5285E2,5.7487004E-4,-2.6740044E-2,1.843603E3,2.3408974E-2,-2.8516667E0,7.8878E2,-4.304871E-2,-1.4137454E-2,-2.6573233E-2,-2.4393394E-4,-1.9217547E-2,-4.3076803E-3,-5.0088E2,-9.344206E-3,2.735979E3,-1.6881308E-2,5.145E1,1.1478812E-2,4.715E1,-1.26957735E-2,8.8350825E-2,4.2E-1,2.756207E1,-1.12E1,-4.39E0,-4.2667263E-3,3.801051E-2,6.88837E3,-7.06E-1,-6.383537E-3,3.9438188E-2,7.6036966E-1,2E0,2E0,-7.737521E-3,2.6458534E-3,-2.7232304E-2,3.1492635E-4,1.7089924E-2,-1.8671773E-2,-1.2984922E-3,-3.060668E-2,-2.0627828E-2,-4.0780492E-2,-1.9419117E-2,2.3231694E-2,-0E0,3.0740317E-2,4.6051187E-3,3.3614628E-2,1.8759983E-2,7.846697E-3,-6.0052215E-3,6.2244427E-3],"split_indices":[105,135,16,95,105,105,202,93,56,68,51,44,99,114,113,213,0,0,0,214,197,7,0,192,155,74,187,0,44,0,0,161,0,155,26,0,0,0,0,0,0,68,0,162,0,49,0,118,0,214,113,173,128,108,0,0,7,4,0,0,60,212,212,0,0,0,0,0,0,0,0,0,0,0,0,0,0,0,0,0,0,0,0],"split_type":[0,0,0,0,0,0,0,0,0,0,0,0,0,0,0,0,0,0,0,0,0,0,0,0,0,0,0,0,0,0,0,0,0,0,0,0,0,0,0,0,0,0,0,0,0,0,0,0,0,0,0,0,0,0,0,0,0,0,0,0,0,0,0,0,0,0,0,0,0,0,0,0,0,0,0,0,0,0,0,0,0,0,0],"sum_hessian":[1.1305919E3,6.5116547E2,4.7942648E2,3.859469E2,2.6521857E2,3.0682312E2,1.7260335E2,3.6000958E2,2.5937323E1,2.2187657E2,4.3341988E1,7.691735E1,2.2990578E2,1.4404616E2,2.85572E1,3.4298953E2,1.702004E1,1.2054825E1,1.3882498E1,1.7117764E2,5.0698936E1,2.5056442E1,1.8285545E1,2.2448078E1,5.4469276E1,1.22993385E2,1.069124E2,1.5586155E1,1.2845999E2,1.1653882E1,1.6903316E1,3.319909E2,1.0998619E1,1.0959194E2,6.1585693E1,3.8195683E1,1.2503253E1,1.3836785E1,1.1219658E1,1.14667E1,1.0981378E1,3.9196815E1,1.5272461E1,1.1132147E2,1.1671913E1,9.383621E1,1.3076182E1,1.1677928E2,1.16807165E1,2.892722E2,4.2718723E1,5.0910828E1,5.8681118E1,5.0438667E1,1.1147024E1,1.35986395E1,2.5598175E1,9.2962524E1,1.835895E1,5.2598343E1,4.1237873E1,6.82129E1,4.8566387E1,1.2938348E2,1.5988872E2,2.4198917E1,1.8519806E1,3.3973732E1,1.6937096E1,1.742422E1,4.1256897E1,1.4647123E1,3.5791546E1,1.0151021E1,1.5447155E1,1.3588267E1,7.937425E1,1.3098711E1,2.8139162E1,2.1450912E1,4.6761982E1,2.9878159E1,1.8688229E1],"tree_param":{"num_deleted":"0","num_feature":"222","num_nodes":"83","size_leaf_vector":"1"}},{"base_weights":[1.196644E-2,-2.8391135E-1,4.3267775E-1,-3.358418E-2,-6.413172E-1,1.0887718E0,2.4215394E-1,-1.4753697E-3,-2.1749238E-2,-2.4475814E-1,-8.646366E-1,7.7322346E-1,1.2878615E0,7.090702E-2,7.8666246E-1,1.17710605E-1,-1.9916655E-1,-1.0919579E0,5.2940395E-2,-6.873052E-1,-1.1733738E0,4.1046736E-1,3.5874862E-2,4.1490342E-2,2.091788E-2,-2.3970766E-1,2.1388143E-1,-4.3469656E-4,9.594228E-1,3.0032158E-2,5.89753E-1,1.8028798E-2,-3.9957833E-1,-4.177388E-2,-1.7243477E-2,2.65375E-2,-1.540695E-1,-5.5723923E-1,-4.1324336E-2,-1.8401153E-2,-3.8559515E-2,2.6838884E-2,-2.5588772E-3,-6.9840455E-1,9.62387E-2,8.100176E-1,1.322583E-1,9.760613E-3,1.0932461E0,-2.2745544E-2,1.8643305E-2,1.2538404E-3,2.9511208E-2,-1.4212387E-2,1.9910127E-1,-3.0931141E-2,-2.3695128E-1,2.1323804E-2,-4.0200225E-1,1.2106523E-2,-7.0816267E-1,-3.1491697E-2,1.9478749E-3,-1.5850519E-1,1.654082E-2,3.1228937E-2,1.2431334E-2,-1.276627E-2,4.9500927E-1,1.2414166E0,8.921129E-3,-3.4688818E-3,1.2488541E-2,-9.64229E-3,1.05737625E-2,-1.8177493E-2,-2.7161927E-3,-2.3689635E-2,3.3264142E-4,-1.7613005E-2,2.0036949E-2,-3.0584475E-2,-6.4614452E-3,-1.3653651E-2,7.0305704E-4,2.8424927E-3,-1.6271273E-2,3.914568E-3,2.614466E-2,4.1451942E-2,1.9846786E-2],"categories":[],"categories_nodes":[],"categories_segments":[],"categories_sizes":[],"default_left":[0,0,0,0,0,0,0,0,0,0,0,0,0,0,0,0,0,0,0,0,0,0,0,0,0,0,0,0,0,0,0,0,0,0,0,0,0,0,0,0,0,0,0,0,0,0,0,0,0,0,0,0,0,0,0,0,0,0,0,0,0,0,0,0,0,0,0,0,0,0,0,0,0,0,0,0,0,0,0,0,0,0,0,0,0,0,0,0,0,0,0],"id":11,"left_children":[1,3,5,7,9,11,13,15,-1,17,19,21,23,25,27,29,31,33,35,37,39,41,-1,-1,-1,43,45,-1,47,49,51,53,55,-1,-1,-1,57,59,-1,-1,-1,-1,-1,61,63,65,67,-1,69,71,-1,-1,-1,-1,73,-1,75,-1,77,79,81,-1,-1,83,-1,-1,-1,85,87,89,-1,-1,-1,-1,-1,-1,-1,-1,-1,-1,-1,-1,-1,-1,-1,-1,-1,-1,-1,-1,-1],"loss_changes":[1.4150583E2,5.9241985E1,5.753338E1,8.400111E0,2.324858E1,3.5467148E0,3.3703194E1,9.041609E0,0E0,2.6398613E1,6.950821E0,5.3325157E0,4.105606E-1,1.2625402E1,1.2537144E1,9.453789E0,6.52795E0,1.6259117E0,1.3904389E1,7.9108315E0,1.198143E0,7.437589E0,0E0,0E0,0E0,1.4121758E1,8.825321E0,0E0,4.695816E0,6.653777E0,7.1952276E0,6.3224854E0,6.7672997E0,0E0,0E0,0E0,1.3909656E1,9.093409E0,0E0,0E0,0E0,0E0,0E0,1.0931774E1,6.4459925E0,4.573803E-1,9.462618E0,0E0,5.3346024E0,7.580681E0,0E0,0E0,0E0,0E0,4.522605E0,0E0,3.0167873E0,0E0,8.514596E0,9.688255E0,1.1372948E1,0E0,0E0,2.0959E0,0E0,0E0,0E0,7.50222E0,6.2746916E0,1.0357132E0,0E0,0E0,0E0,0E0,0E0,0E0,0E0,0E0,0E0,0E0,0E0,0E0,0E0,0E0,0E0,0E0,0E0,0E0,0E0,0E0,0E0],"parents":[2147483647,0,0,1,1,2,2,3,3,4,4,5,5,6,6,7,7,9,9,10,10,11,11,12,12,13,13,14,14,15,15,16,16,17,17,18,18,19,19,20,20,21,21,25,25,26,26,28,28,29,29,30,30,31,31,32,32,36,36,37,37,43,43,44,44,45,45,46,46,48,48,49,49,54,54,56,56,58,58,59,59,60,60,63,63,67,67,68,68,69,69],"right_children":[2,4,6,8,10,12,14,16,-1,18,20,22,24,26,28,30,32,34,36,38,40,42,-1,-1,-1,44,46,-1,48,50,52,54,56,-1,-1,-1,58,60,-1,-1,-1,-1,-1,62,64,66,68,-1,70,72,-1,-1,-1,-1,74,-1,76,-1,78,80,82,-1,-1,84,-1,-1,-1,86,88,90,-1,-1,-1,-1,-1,-1,-1,-1,-1,-1,-1,-1,-1,-1,-1,-1,-1,-1,-1,-1,-1],"split_conditions":[1.67E0,6.6717E3,-1.4677E2,4.3821667E1,-2.14557E3,-2.1183333E0,6.733981E-1,8.843333E0,-2.1749238E-2,-3.542E1,6.11E0,6.3596773E-1,3.6691456E1,-4.701E1,1.1306079E2,2.05E2,-1.146E1,-4.702E1,-4.05899E3,6.93845E3,2.44E-1,1.19166665E-1,3.5874862E-2,4.1490342E-2,2.091788E-2,5.000525E-1,4.2527273E-1,-4.3469656E-4,-4.1705E2,6.99964E3,6.5755E3,-2.7872355E4,-1.7E0,-4.177388E-2,-1.7243477E-2,2.65375E-2,1.5381853E2,-8.928333E0,-4.1324336E-2,-1.8401153E-2,-3.8559515E-2,2.6838884E-2,-2.5588772E-3,2.905E1,4.7758E2,4.7002625E-1,1.78E1,9.760613E-3,2.2685136E2,2.7175946E0,1.8643305E-2,1.2538404E-3,2.9511208E-2,-1.4212387E-2,-5.609597E2,-3.0931141E-2,-3.33E0,2.1323804E-2,1.6669906E0,-1.0297003E4,-4.84E0,-3.1491697E-2,1.9478749E-3,4.8E2,1.654082E-2,3.1228937E-2,1.2431334E-2,1.2848E3,1.1606855E0,3E0,8.921129E-3,-3.4688818E-3,1.2488541E-2,-9.64229E-3,1.05737625E-2,-1.8177493E-2,-2.7161927E-3,-2.3689635E-2,3.3264142E-4,-1.7613005E-2,2.0036949E-2,-3.0584475E-2,-6.4614452E-3,-1.3653651E-2,7.0305704E-4,2.8424927E-3,-1.6271273E-2,3.914568E-3,2.614466E-2,4.1451942E-2,1.9846786E-2],"split_indices":[107,22,68,190,68,172,213,170,0,105,129,53,196,12,157,15,107,105,27,22,4,169,0,0,0,111,60,0,28,7,41,3,114,0,0,0,182,155,0,0,0,0,0,107,73,111,14,0,143,77,0,0,0,0,89,0,107,0,77,3,14,0,0,16,0,0,0,68,196,212,0,0,0,0,0,0,0,0,0,0,0,0,0,0,0,0,0,0,0,0,0],"split_type":[0,0,0,0,0,0,0,0,0,0,0,0,0,0,0,0,0,0,0,0,0,0,0,0,0,0,0,0,0,0,0,0,0,0,0,0,0,0,0,0,0,0,0,0,0,0,0,0,0,0,0,0,0,0,0,0,0,0,0,0,0,0,0,0,0,0,0,0,0,0,0,0,0,0,0,0,0,0,0,0,0,0,0,0,0,0,0,0,0,0,0],"sum_hessian":[1.1322123E3,6.644088E2,4.6780347E2,3.9284613E2,2.7156268E2,1.02562454E2,3.6524103E2,3.7801807E2,1.4828063E1,1.0015088E2,1.7141179E2,4.442686E1,5.813559E1,2.8027405E2,8.496697E1,2.3476228E2,1.432558E2,2.509066E1,7.506022E1,1.1400301E2,5.7408775E1,2.6664377E1,1.7762486E1,4.7028862E1,1.1106729E1,8.6815475E1,1.9345857E2,1.48837385E1,7.008323E1,2.0067485E2,3.4087425E1,6.8425354E1,7.483045E1,1.3117227E1,1.1973433E1,1.4136641E1,6.092358E1,9.9576614E1,1.4426399E1,1.2467031E1,4.4941746E1,1.3186193E1,1.3478184E1,3.6419395E1,5.0396084E1,2.0411242E1,1.7304733E2,1.4060721E1,5.602251E1,1.8522314E2,1.54517145E1,1.5713113E1,1.8374313E1,1.6801132E1,5.1624218E1,1.2508246E1,6.23222E1,1.2292668E1,4.8630913E1,2.0556309E1,7.902031E1,2.4875353E1,1.1544042E1,3.2442184E1,1.79539E1,1.0030292E1,1.0380949E1,1.2401751E2,4.9029823E1,4.5756092E1,1.0266418E1,1.5503511E2,3.0188026E1,1.05077715E1,4.1116447E1,1.4951547E1,4.7370655E1,2.4771795E1,2.3859118E1,1.0452636E1,1.0103674E1,4.6494553E1,3.2525753E1,1.2237169E1,2.0205015E1,1.0366963E2,2.0347876E1,2.695353E1,2.2076294E1,3.3920017E1,1.1836076E1],"tree_param":{"num_deleted":"0","num_feature":"222","num_nodes":"91","size_leaf_vector":"1"}},{"base_weights":[2.4269163E-4,-2.7731764E-1,4.4559336E-1,-5.0363738E-2,-5.942302E-1,3.5097755E-2,7.789379E-1,9.667514E-2,-2.7599728E-1,-2.5069112E-1,-8.3210516E-1,9.580204E-2,-1.9325592E-2,1.1059636E0,4.7545204E-1,3.6619172E-1,2.2147002E-4,-6.969841E-1,-1.5393178E-1,-7.135546E-1,2.2049393E-1,-4.154673E-1,-1.0078422E0,-3.7762725E-1,1.9121718E-1,1.1850442E0,1.25995735E-2,-2.9578227E-1,6.9024664E-1,-2.9796785E-5,5.4020905E-1,1.8328588E-2,-5.6219786E-2,7.866962E-3,-3.4637112E-2,1.4454645E-1,-2.635003E-1,-8.8181543E-1,7.0189446E-4,5.4866797E-1,-3.672232E-1,-3.452835E-2,-6.3960895E-2,-1.1874089E0,-5.1543456E-1,-2.8089523E-2,6.260651E-4,3.519999E-2,1.00130334E-1,6.743263E-1,1.3080618E0,-2.1826547E-2,7.6207723E-3,1.0395105E-1,9.306559E-1,1.4544076E-3,7.029798E-1,-1.5647134E-1,4.156715E-1,-8.386482E-4,1.3279713E-2,-4.3182662E-1,-1.854974E-2,-2.8459334E-1,-3.954408E-2,7.903335E-1,-2.4872827E-3,1.7869823E-3,-2.2693722E-2,1.469996E-2,-1.7399058E-2,-8.306191E-1,-1.3932996E0,-3.406509E-2,-1.0351745E-1,2.717267E-1,-3.59646E-2,3.3439506E-2,1.5972777E-3,4.184474E-2,2.2287935E-2,-9.026369E-3,2.3363555E-2,9.400537E-3,1.075835E0,9.346676E-3,3.001636E-2,-1.845344E-2,-2.3586736E-3,2.457043E-2,-0E0,-1.5749961E-2,-1.8577562E-3,6.8037473E-3,-5.485037E-3,4.825919E-3,-2.3686228E-2,9.327762E-3,3.4866918E-2,-4.4534435E-3,-3.294609E-2,-2.0697627E-2,-4.6355356E-2,-1.6588261E-2,8.964897E-3,-3.3035406E-3,1.5134679E-2,1.7028527E-3,-1.3464671E-2,1.5582846E-2,3.6630213E-2],"categories":[],"categories_nodes":[],"categories_segments":[],"categories_sizes":[],"default_left":[0,0,0,0,0,0,0,0,0,0,0,0,0,0,0,0,0,0,0,0,0,0,0,0,0,0,0,0,0,0,0,0,0,0,0,0,0,0,0,0,0,0,0,0,0,0,0,0,0,0,0,0,0,0,0,0,0,0,0,0,0,0,0,0,0,0,0,0,0,0,0,0,0,0,0,0,0,0,0,0,0,0,0,0,0,0,0,0,0,0,0,0,0,0,0,0,0,0,0,0,0,0,0,0,0,0,0,0,0,0,0],"id":12,"left_children":[1,3,5,7,9,11,13,15,17,19,21,23,-1,25,27,29,31,33,35,37,39,41,43,45,47,49,-1,51,53,-1,55,-1,57,-1,-1,59,61,63,-1,65,67,-1,69,71,73,-1,-1,-1,75,77,79,-1,-1,81,83,-1,85,87,89,-1,-1,91,93,95,-1,97,-1,-1,-1,-1,-1,99,101,-1,103,105,107,-1,-1,-1,-1,-1,-1,-1,109,-1,-1,-1,-1,-1,-1,-1,-1,-1,-1,-1,-1,-1,-1,-1,-1,-1,-1,-1,-1,-1,-1,-1,-1,-1,-1],"loss_changes":[1.396913E2,4.9611095E1,5.8969498E1,1.3683486E1,2.2654205E1,7.989278E0,2.1869736E1,6.2438545E0,7.7304935E0,2.7155825E1,1.08255005E1,8.346064E0,0E0,4.315674E0,2.1846172E1,4.3469095E0,6.738469E0,1.6469349E1,4.3793955E0,8.223087E0,1.233995E1,1.33054285E1,8.236343E0,7.308123E0,1.29972E1,3.4832916E0,0E0,7.4489965E0,1.3581097E1,0E0,3.094592E0,0E0,8.082539E0,0E0,0E0,2.0273318E0,3.752192E0,1.1869221E1,0E0,6.7060184E0,4.2028E0,0E0,1.1868983E1,2.6838608E0,8.198012E0,0E0,0E0,0E0,3.5126257E0,5.913414E0,6.392517E-1,0E0,0E0,9.5434065E0,4.998966E0,0E0,2.482932E0,4.6704865E0,4.681189E0,0E0,0E0,1.57516E0,1.7839252E0,6.14158E0,0E0,3.93264E0,0E0,0E0,0E0,0E0,0E0,5.6726665E0,1.9745712E0,0E0,4.793841E0,6.1551704E0,3.3380327E0,0E0,0E0,0E0,0E0,0E0,0E0,0E0,2.3885117E0,0E0,0E0,0E0,0E0,0E0,0E0,0E0,0E0,0E0,0E0,0E0,0E0,0E0,0E0,0E0,0E0,0E0,0E0,0E0,0E0,0E0,0E0,0E0,0E0,0E0,0E0],"parents":[2147483647,0,0,1,1,2,2,3,3,4,4,5,5,6,6,7,7,8,8,9,9,10,10,11,11,13,13,14,14,15,15,16,16,17,17,18,18,19,19,20,20,21,21,22,22,23,23,24,24,25,25,27,27,28,28,30,30,32,32,35,35,36,36,37,37,39,39,40,40,42,42,43,43,44,44,48,48,49,49,50,50,53,53,54,54,56,56,57,57,58,58,61,61,62,62,63,63,65,65,71,71,72,72,74,74,75,75,76,76,84,84],"right_children":[2,4,6,8,10,12,14,16,18,20,22,24,-1,26,28,30,32,34,36,38,40,42,44,46,48,50,-1,52,54,-1,56,-1,58,-1,-1,60,62,64,-1,66,68,-1,70,72,74,-1,-1,-1,76,78,80,-1,-1,82,84,-1,86,88,90,-1,-1,92,94,96,-1,98,-1,-1,-1,-1,-1,100,102,-1,104,106,108,-1,-1,-1,-1,-1,-1,-1,110,-1,-1,-1,-1,-1,-1,-1,-1,-1,-1,-1,-1,-1,-1,-1,-1,-1,-1,-1,-1,-1,-1,-1,-1,-1,-1],"split_conditions":[3.27E0,5E0,6.5603E3,5.9E0,-1.96645E3,7.04665E3,1.296E2,6.689E3,9.9375E-1,-2.4543543E-1,-1.6500671E3,4.610959E-1,-1.9325592E-2,7.6058846E0,8.22E0,2.9396552E-1,2.8846416E-1,1.32E-1,6.59225E3,1.4719704E1,4.758333E0,-2.236E1,-1E-1,9.9666667E-1,-7.8E-1,6.689E3,1.25995735E-2,6.81588E3,-2.8534153E3,-2.9796785E-5,-7.2E0,1.8328588E-2,6.99679E3,7.866962E-3,-3.4637112E-2,-2.177E1,3.581E0,1.4492E2,7.0189446E-4,9.66E0,-2.11E0,-3.452835E-2,6.76852E3,2.2723139E1,9.7875E-1,-2.8089523E-2,6.260651E-4,3.519999E-2,5.56E1,6.63371E3,2.115E1,-2.1826547E-2,7.6207723E-3,2.85E1,-1.726E1,1.4544076E-3,-1.473331E6,-6.3765074E4,7.01967E3,-8.386482E-4,1.3279713E-2,5.1E0,8.974E1,-1.8E1,-3.954408E-2,-8.93E0,-2.4872827E-3,1.7869823E-3,-2.2693722E-2,1.469996E-2,-1.7399058E-2,-2.397E1,-1.9519333E2,-3.406509E-2,-1.235E0,-1.480625E1,1.2835872E4,3.3439506E-2,1.5972777E-3,4.184474E-2,2.2287935E-2,-9.026369E-3,2.3363555E-2,9.400537E-3,-4E-1,9.346676E-3,3.001636E-2,-1.845344E-2,-2.3586736E-3,2.457043E-2,-0E0,-1.5749961E-2,-1.8577562E-3,6.8037473E-3,-5.485037E-3,4.825919E-3,-2.3686228E-2,9.327762E-3,3.4866918E-2,-4.4534435E-3,-3.294609E-2,-2.0697627E-2,-4.6355356E-2,-1.6588261E-2,8.964897E-3,-3.3035406E-3,1.5134679E-2,1.7028527E-3,-1.3464671E-2,1.5582846E-2,3.6630213E-2],"split_indices":[107,134,18,70,68,1,68,2,86,58,162,50,0,152,106,111,111,102,41,168,172,107,105,86,96,2,0,8,160,0,191,0,7,0,0,106,4,11,0,137,113,0,24,175,86,0,0,0,49,17,137,0,0,106,117,0,216,89,7,0,0,113,11,12,0,131,0,0,0,0,0,131,183,0,197,85,89,0,0,0,0,0,0,0,34,0,0,0,0,0,0,0,0,0,0,0,0,0,0,0,0,0,0,0,0,0,0,0,0,0,0],"split_type":[0,0,0,0,0,0,0,0,0,0,0,0,0,0,0,0,0,0,0,0,0,0,0,0,0,0,0,0,0,0,0,0,0,0,0,0,0,0,0,0,0,0,0,0,0,0,0,0,0,0,0,0,0,0,0,0,0,0,0,0,0,0,0,0,0,0,0,0,0,0,0,0,0,0,0,0,0,0,0,0,0,0,0,0,0,0,0,0,0,0,0,0,0,0,0,0,0,0,0,0,0,0,0,0,0,0,0,0,0,0,0],"sum_hessian":[1.1254017E3,6.9307904E2,4.3232266E2,4.061291E2,2.8694992E2,1.9540393E2,2.3691873E2,2.452402E2,1.6088887E2,1.19940926E2,1.67009E2,1.8162683E2,1.3777097E1,1.1069825E2,1.2622049E2,6.1794212E1,1.83446E2,3.3125988E1,1.27762886E2,6.0521088E1,5.941984E1,5.2385868E1,1.1462314E2,2.859398E1,1.5303285E2,9.729769E1,1.34005575E1,2.682427E1,9.939622E1,1.9584751E1,4.220946E1,1.4606261E1,1.6883974E2,1.0621599E1,2.2504389E1,3.2910038E1,9.4852844E1,4.9503716E1,1.1017371E1,3.8760235E1,2.0659607E1,1.5009502E1,3.7376366E1,8.118063E1,3.34425E1,1.1302864E1,1.7291117E1,1.0505741E1,1.4252711E2,2.2192268E1,7.510542E1,1.5172224E1,1.1652045E1,3.034274E1,6.9053474E1,1.1906758E1,3.0302702E1,1.4123193E2,2.7607801E1,2.0932623E1,1.1977414E1,5.4105385E1,4.0747463E1,2.2777304E1,2.6726412E1,2.8242516E1,1.051772E1,1.0049664E1,1.0609943E1,1.7606625E1,1.9769743E1,3.4277634E1,4.6903E1,1.1461756E1,2.1980743E1,6.3784565E1,7.8742546E1,1.1584733E1,1.0607535E1,6.1796883E1,1.3308542E1,1.9195068E1,1.1147672E1,1.500646E1,5.4047016E1,1.5581201E1,1.47215E1,1.7558905E1,1.2367303E2,1.2605149E1,1.5002651E1,4.146958E1,1.2635804E1,1.4816379E1,2.5931084E1,1.2299508E1,1.0477796E1,1.4529402E1,1.3713114E1,1.1059916E1,2.321772E1,1.0882311E1,3.602069E1,1.0616344E1,1.1364399E1,2.3741907E1,4.0042656E1,6.472051E1,1.4022033E1,1.3790781E1,4.0256237E1],"tree_param":{"num_deleted":"0","num_feature":"222","num_nodes":"111","size_leaf_vector":"1"}},{"base_weights":[-8.733957E-4,-2.728563E-1,4.280115E-1,-4.283739E-2,-5.833673E-1,2.9219659E-2,6.4477867E-1,2.7616847E-2,-4.6033105E-1,-3.7231335E-1,-9.799448E-1,3.3471465E-2,-5.991169E-2,4.4385538E-1,1.0325578E0,-5.0704863E-2,5.701659E-1,-1.7683847E-2,-8.678673E-3,7.865701E-2,-7.1608937E-1,-4.260967E-3,-1.0760765E0,2.8431762E-2,-2.3010101E-2,9.701572E-1,1.7464745E-1,8.8441875E-3,1.1311902E0,-8.333751E-3,-2.3527537E-2,3.4385696E-2,2.82151E-1,-3.1043768E-1,4.9668083E-1,-1.0833371E0,-3.2796025E-1,-1.6358297E-2,-3.577802E-2,1.8626587E-1,-3.2855478E-1,5.616543E-1,3.8988553E-2,-2.300841E-2,2.7943328E-1,1.6129244E-2,1.2087302E0,-3.080712E-1,5.7928253E-2,-0E0,1.2451668E-2,-6.6223365E-1,6.1702956E-3,3.1380136E-2,6.3354924E-2,-1.5591277E-2,-1.219428E0,-7.289228E-1,7.593202E-2,2.889968E-1,-7.3806024E-3,-1.95883E-3,-1.6244205E-2,-0E0,2.5266735E-2,5.489064E-1,-8.621756E-2,3.8832046E-2,1.9562967E-2,-2.4968892E-2,3.630504E-3,7.7206525E-3,-1.587471E-3,-2.9869203E-3,-2.9402873E-2,-1.4404141E-2,2.290027E-2,-2.3256209E-2,-4.3289673E-2,-3.7144702E-2,-3.4380076E-3,-1.4891508E-2,2.2078386E-2,2.9245354E-3,1.6241133E-2,-3.2922805E-3,2.1868482E-2,8.455648E-3,-2.322222E-2],"categories":[],"categories_nodes":[],"categories_segments":[],"categories_sizes":[],"default_left":[0,0,0,0,0,0,0,0,0,0,0,0,0,0,0,0,0,0,0,0,0,0,0,0,0,0,0,0,0,0,0,0,0,0,0,0,0,0,0,0,0,0,0,0,0,0,0,0,0,0,0,0,0,0,0,0,0,0,0,0,0,0,0,0,0,0,0,0,0,0,0,0,0,0,0,0,0,0,0,0,0,0,0,0,0,0,0,0,0],"id":13,"left_children":[1,3,5,7,9,11,13,15,17,19,21,-1,23,25,27,29,31,-1,-1,33,35,-1,37,39,-1,41,43,-1,45,47,-1,-1,49,51,53,55,57,-1,-1,59,61,63,-1,-1,65,-1,67,69,71,-1,-1,73,-1,-1,75,-1,77,79,81,83,-1,-1,-1,-1,-1,85,87,-1,-1,-1,-1,-1,-1,-1,-1,-1,-1,-1,-1,-1,-1,-1,-1,-1,-1,-1,-1,-1,-1],"loss_changes":[1.3011949E2,4.847009E1,3.7006218E1,1.188532E1,2.2855782E1,1.5689744E1,2.0101875E1,1.4746329E1,5.070963E-1,3.0388805E1,7.0301895E0,0E0,9.4638195E0,2.5766972E1,5.383438E0,8.845084E0,5.9060593E0,0E0,0E0,1.418744E1,1.4330822E1,0E0,3.2512665E0,7.3816485E0,0E0,6.041641E0,1.2778623E1,0E0,1.5404282E0,5.804469E0,0E0,0E0,1.0424097E0,8.582084E0,9.369506E0,2.0996552E0,9.707092E0,0E0,0E0,4.2697945E0,1.8477559E0,4.9774914E0,0E0,0E0,1.1834879E1,0E0,6.296768E-1,1.2507551E1,5.2806373E0,0E0,0E0,4.1866417E0,0E0,0E0,1.0863324E1,0E0,8.5365677E-1,8.279227E0,1.2071555E1,3.2754426E0,0E0,0E0,0E0,0E0,0E0,8.569399E0,1.3467758E1,0E0,0E0,0E0,0E0,0E0,0E0,0E0,0E0,0E0,0E0,0E0,0E0,0E0,0E0,0E0,0E0,0E0,0E0,0E0,0E0,0E0,0E0],"parents":[2147483647,0,0,1,1,2,2,3,3,4,4,5,5,6,6,7,7,8,8,9,9,10,10,12,12,13,13,14,14,15,15,16,16,19,19,20,20,22,22,23,23,25,25,26,26,28,28,29,29,32,32,33,33,34,34,35,35,36,36,39,39,40,40,41,41,44,44,46,46,47,47,48,48,51,51,54,54,56,56,57,57,58,58,59,59,65,65,66,66],"right_children":[2,4,6,8,10,12,14,16,18,20,22,-1,24,26,28,30,32,-1,-1,34,36,-1,38,40,-1,42,44,-1,46,48,-1,-1,50,52,54,56,58,-1,-1,60,62,64,-1,-1,66,-1,68,70,72,-1,-1,74,-1,-1,76,-1,78,80,82,84,-1,-1,-1,-1,-1,86,88,-1,-1,-1,-1,-1,-1,-1,-1,-1,-1,-1,-1,-1,-1,-1,-1,-1,-1,-1,-1,-1,-1],"split_conditions":[3.05E0,6.66333E3,3.474124E-6,7.0268655E-1,2.6316786E-1,3.8494936E-1,6.8229073E-1,6.6426665E-1,-3.99076E1,-8.9566E2,-9.29E0,3.3471465E-2,5.76938E2,-6.7936E2,2.1123726E3,2.6953333E1,4.7E2,-1.7683847E-2,-8.678673E-3,6.8366333E3,-7.672E1,-4.260967E-3,-2.77E0,5.7409478E3,-2.3010101E-2,9.0679054E1,2.563077E-1,8.8441875E-3,6.66383E3,-3.23E0,-2.3527537E-2,3.4385696E-2,7.6073825E-1,8.74875E1,6.87944E3,-1.8842833E2,4.5118183E-1,-1.6358297E-2,-3.577802E-2,4.34E0,6.3679536E3,5.5E0,3.8988553E-2,-2.300841E-2,4.8E0,1.6129244E-2,3.0060525E3,6.595679E-7,1.7E-1,-0E0,1.2451668E-2,6.70925E3,6.1702956E-3,3.1380136E-2,8.051245E0,-1.5591277E-2,-1.88E1,5.192466E1,9.875E-1,3E0,-7.3806024E-3,-1.95883E-3,-1.6244205E-2,-0E0,2.5266735E-2,3.65E0,6.857E3,3.8832046E-2,1.9562967E-2,-2.4968892E-2,3.630504E-3,7.7206525E-3,-1.587471E-3,-2.9869203E-3,-2.9402873E-2,-1.4404141E-2,2.290027E-2,-2.3256209E-2,-4.3289673E-2,-3.7144702E-2,-3.4380076E-3,-1.4891508E-2,2.2078386E-2,2.9245354E-3,1.6241133E-2,-3.2922805E-3,2.1868482E-2,8.455648E-3,-2.322222E-2],"split_indices":[105,22,154,60,214,60,213,111,71,68,140,0,215,68,160,191,16,0,0,153,28,0,13,220,0,203,111,0,2,115,0,0,50,85,22,183,50,0,0,13,89,13,0,0,155,0,159,201,102,0,0,37,0,0,168,0,62,202,86,212,0,0,0,0,0,13,21,0,0,0,0,0,0,0,0,0,0,0,0,0,0,0,0,0,0,0,0,0,0],"split_type":[0,0,0,0,0,0,0,0,0,0,0,0,0,0,0,0,0,0,0,0,0,0,0,0,0,0,0,0,0,0,0,0,0,0,0,0,0,0,0,0,0,0,0,0,0,0,0,0,0,0,0,0,0,0,0,0,0,0,0,0,0,0,0,0,0,0,0,0,0,0,0,0,0,0,0,0,0,0,0,0,0,0,0,0,0,0,0,0,0],"sum_hessian":[1.1121382E3,6.817139E2,4.3042426E2,3.938475E2,2.878664E2,1.5318405E2,2.7724023E2,3.3755365E2,5.6293858E1,1.9123291E2,9.663349E1,1.0292661E1,1.4289139E2,1.8629318E2,9.094704E1,2.9575092E2,4.180273E1,2.7623365E1,2.8670492E1,8.275788E1,1.0847503E2,1.0990769E1,8.564272E1,1.2809923E2,1.4792152E1,6.0652565E1,1.25640625E2,1.2263744E1,7.86833E1,2.821573E2,1.3593631E1,1.1369228E1,3.0433502E1,4.250917E1,4.0248714E1,5.323423E1,5.5240795E1,1.8233612E1,6.740911E1,9.046091E1,3.763833E1,3.0170713E1,3.048185E1,1.0838351E1,1.1480227E2,1.1669783E1,6.701351E1,5.1127644E1,2.3102963E2,1.1394492E1,1.903901E1,2.5518019E1,1.6991152E1,1.5992936E1,2.4255777E1,1.29427595E1,4.0291473E1,2.753449E1,2.7706303E1,7.456131E1,1.5899595E1,1.9048147E1,1.859018E1,1.0846838E1,1.9323875E1,6.630366E1,4.849862E1,5.499942E1,1.2014089E1,2.269122E1,2.8436424E1,8.320221E1,1.4782742E2,1.0727681E1,1.4790337E1,1.3605714E1,1.06500635E1,1.7228893E1,2.3062578E1,1.3499447E1,1.4035045E1,1.4698836E1,1.3007467E1,4.509503E1,2.946628E1,1.3804963E1,5.249869E1,3.1888594E1,1.6610023E1],"tree_param":{"num_deleted":"0","num_feature":"222","num_nodes":"89","size_leaf_vector":"1"}},{"base_weights":[1.8317616E-3,-2.7915055E-1,4.0155688E-1,-5.0827652E-2,-6.0018516E-1,-2.3816698E-3,7.3877174E-1,-1.6526055E-1,1.6942684E-1,-2.7207652E-1,-8.2166654E-1,-4.06874E-1,8.564348E-2,3.3442932E-1,9.3273747E-1,1.7133822E-1,-2.657299E-1,2.7960485E-1,-3.645931E-1,-7.277536E-1,9.244573E-2,-9.008214E-1,-5.555651E-3,-2.8549787E-2,-4.7109272E-2,-2.3714056E-2,6.6067713E-1,7.4783E-1,-3.7076125E-1,1.2048669E-3,1.0272577E0,-1.0924495E-2,3.36796E-1,-3.3261362E-1,8.145594E-3,6.726851E-1,6.576973E-2,-1.6185649E-2,-2.937033E-3,-1.0410472E0,-0E0,6.797205E-1,-1.9263601E-1,-3.978481E-1,-1.0422696E0,1.0484391E-2,-1.7276177E-2,-2.5959444E-1,1.7115845E-1,3.0457187E-2,4.6867356E-3,9.698455E-1,1.806192E-4,-2.5416268E-2,1.0871952E-2,4.145838E-2,8.7573916E-1,-6.1716614E-3,5.328305E-1,-2.024245E-1,-7.929173E-1,3.521492E-2,3.99938E-3,-5.9199348E-2,1.578278E-2,-1.5578066E-2,-3.9799135E-2,2.0271167E-3,3.412447E-2,1.8658401E-2,-5.2874637E-1,9.397395E-3,-3.1822827E-2,-1.0961784E-2,-1.1582779E0,-9.6794225E-2,-2.6006715E-2,2.8962696E-1,-1.2944609E-2,1.2038E-2,1.1829163E0,1.0021797E0,5.0814324E-3,2.1635868E-2,6.776965E-3,-9.960167E-3,2.9132545E-3,-7.3708696E-3,-3.0774053E-2,-1.3899724E-2,1.0373136E-2,1.6027007E-3,-2.8279236E-2,-1.5226174E-2,-3.8299877E-2,6.7197294E-3,-8.081886E-3,3.4646923E-3,1.8173398E-2,1.9125503E-2,4.3185756E-2,3.399993E-2,8.476944E-3],"categories":[],"categories_nodes":[],"categories_segments":[],"categories_sizes":[],"default_left":[0,0,0,0,0,0,0,0,0,0,0,0,0,0,0,0,0,0,0,0,0,0,0,0,0,0,0,0,0,0,0,0,0,0,0,0,0,0,0,0,0,0,0,0,0,0,0,0,0,0,0,0,0,0,0,0,0,0,0,0,0,0,0,0,0,0,0,0,0,0,0,0,0,0,0,0,0,0,0,0,0,0,0,0,0,0,0,0,0,0,0,0,0,0,0,0,0,0,0,0,0,0,0],"id":14,"left_children":[1,3,5,7,9,11,13,15,17,19,21,23,25,27,29,31,33,35,37,39,41,43,-1,-1,45,47,49,51,53,-1,55,-1,57,59,-1,61,63,-1,-1,65,-1,67,69,71,73,-1,-1,75,77,-1,-1,79,-1,-1,-1,-1,81,-1,83,85,87,-1,-1,89,-1,-1,-1,-1,-1,-1,91,-1,-1,-1,93,95,-1,97,-1,-1,99,101,-1,-1,-1,-1,-1,-1,-1,-1,-1,-1,-1,-1,-1,-1,-1,-1,-1,-1,-1,-1,-1],"loss_changes":[1.26359795E2,4.7961872E1,6.3697685E1,9.847162E0,1.8848297E1,7.8086643E0,1.8667938E1,8.870354E0,7.948142E0,1.9377468E1,7.2401505E0,7.1337676E0,1.1382176E1,2.5906658E1,1.3704239E1,5.496877E0,7.425951E0,8.924189E0,6.359041E-1,1.2068102E1,1.12981E1,8.558426E0,0E0,0E0,6.0493956E0,6.9640026E0,4.254116E0,8.645197E0,1.2310549E1,0E0,4.667801E0,0E0,5.3974614E0,9.984907E0,0E0,9.382202E0,4.629264E0,0E0,0E0,3.106823E0,0E0,5.4313726E0,1.276266E1,1.7629215E1,6.941231E0,0E0,0E0,6.190501E0,5.9920473E0,0E0,0E0,3.3715744E0,0E0,0E0,0E0,0E0,9.218918E0,0E0,1.2744608E0,5.7736616E0,3.7302837E0,0E0,0E0,1.0229871E1,0E0,0E0,0E0,0E0,0E0,0E0,8.481099E0,0E0,0E0,0E0,4.8529434E0,3.3248231E0,0E0,3.349649E0,0E0,0E0,1.1894188E0,7.648628E0,0E0,0E0,0E0,0E0,0E0,0E0,0E0,0E0,0E0,0E0,0E0,0E0,0E0,0E0,0E0,0E0,0E0,0E0,0E0,0E0,0E0],"parents":[2147483647,0,0,1,1,2,2,3,3,4,4,5,5,6,6,7,7,8,8,9,9,10,10,11,11,12,12,13,13,14,14,15,15,16,16,17,17,18,18,19,19,20,20,21,21,24,24,25,25,26,26,27,27,28,28,30,30,32,32,33,33,35,35,36,36,39,39,41,41,42,42,43,43,44,44,47,47,48,48,51,51,56,56,58,58,59,59,60,60,63,63,70,70,74,74,75,75,77,77,80,80,81,81],"right_children":[2,4,6,8,10,12,14,16,18,20,22,24,26,28,30,32,34,36,38,40,42,44,-1,-1,46,48,50,52,54,-1,56,-1,58,60,-1,62,64,-1,-1,66,-1,68,70,72,74,-1,-1,76,78,-1,-1,80,-1,-1,-1,-1,82,-1,84,86,88,-1,-1,90,-1,-1,-1,-1,-1,-1,92,-1,-1,-1,94,96,-1,98,-1,-1,100,102,-1,-1,-1,-1,-1,-1,-1,-1,-1,-1,-1,-1,-1,-1,-1,-1,-1,-1,-1,-1,-1],"split_conditions":[1.67E0,5E0,5.769674E0,6.666667E-1,-1.96645E3,4.690129E-1,9.89E0,6.65443E3,6.3105E2,-2.385E1,-7.3E-1,9.9666667E-1,9.9260284E2,4.8297E2,6.69883E3,-1.4501459E2,1.0122222E0,6.75559E3,6.95881E3,1.2470273E1,1.861579E1,-9.231667E0,-5.555651E-3,-2.8549787E-2,1.08491E3,6.64825E3,7E-2,2.9582905E1,6.76925E3,1.2048669E-3,-6.7936E2,-1.0924495E-2,-4.568876E4,2.8975427E2,8.145594E-3,4.65E2,6.87981E3,-1.6185649E-2,-2.937033E-3,1.4492E2,-0E0,6.81581E3,2.2121066E-1,3.653769E-1,-4.511E1,1.0484391E-2,-1.7276177E-2,2.589E0,2.8866764E4,3.0457187E-2,4.6867356E-3,1.2046161E0,1.806192E-4,-2.5416268E-2,1.0871952E-2,4.145838E-2,3.1697855E1,-6.1716614E-3,4E0,7.762E0,-2.112E1,3.521492E-2,3.99938E-3,4.8E2,1.578278E-2,-1.5578066E-2,-3.9799135E-2,2.0271167E-3,3.412447E-2,1.8658401E-2,-8.384167E0,9.397395E-3,-3.1822827E-2,-1.0961784E-2,-3.18E0,3.2916668E-1,-2.6006715E-2,3E0,-1.2944609E-2,1.2038E-2,3.051E1,1.927E1,5.0814324E-3,2.1635868E-2,6.776965E-3,-9.960167E-3,2.9132545E-3,-7.3708696E-3,-3.0774053E-2,-1.3899724E-2,1.0373136E-2,1.6027007E-3,-2.8279236E-2,-1.5226174E-2,-3.8299877E-2,6.7197294E-3,-8.081886E-3,3.4646923E-3,1.8173398E-2,1.9125503E-2,4.3185756E-2,3.399993E-2,8.476944E-3],"split_indices":[107,134,187,163,68,109,106,2,123,14,107,86,159,68,1,89,53,2,0,168,171,155,0,0,74,37,140,196,37,0,68,0,84,159,0,16,8,0,0,11,0,94,60,214,130,0,0,101,84,0,0,150,0,0,0,0,196,0,70,4,138,0,0,16,0,0,0,0,0,0,195,0,0,0,163,174,0,212,0,0,64,131,0,0,0,0,0,0,0,0,0,0,0,0,0,0,0,0,0,0,0,0,0],"split_type":[0,0,0,0,0,0,0,0,0,0,0,0,0,0,0,0,0,0,0,0,0,0,0,0,0,0,0,0,0,0,0,0,0,0,0,0,0,0,0,0,0,0,0,0,0,0,0,0,0,0,0,0,0,0,0,0,0,0,0,0,0,0,0,0,0,0,0,0,0,0,0,0,0,0,0,0,0,0,0,0,0,0,0,0,0,0,0,0,0,0,0,0,0,0,0,0,0,0,0,0,0,0,0],"sum_hessian":[1.1205004E3,6.576001E2,4.6290024E2,3.8655362E2,2.710465E2,2.1084233E2,2.520579E2,2.562097E2,1.303439E2,1.1193592E2,1.5911058E2,3.74032E1,1.7343913E2,8.431673E1,1.6774118E2,5.742693E1,1.9878276E2,1.0961704E2,2.0726862E1,4.9471725E1,6.24642E1,1.400742E2,1.9036375E1,1.3014823E1,2.4388376E1,1.4660617E2,2.6832952E1,5.352633E1,3.0790398E1,1.6841629E1,1.5089955E2,1.227534E1,4.5151592E1,1.7828058E2,2.0502193E1,3.6285576E1,7.333147E1,1.014905E1,1.0577812E1,3.4288593E1,1.5183132E1,2.0081385E1,4.2382816E1,3.319541E1,1.0687879E2,1.3783125E1,1.0605251E1,6.718485E1,7.9421326E1,1.3986227E1,1.2846725E1,4.020467E1,1.332166E1,1.8887266E1,1.1903131E1,3.931836E1,1.115812E2,1.12813835E1,3.387021E1,1.420655E2,3.621506E1,1.710929E1,1.9176287E1,5.8190445E1,1.5141023E1,1.47419815E1,1.9546612E1,1.0041162E1,1.0040223E1,1.144843E1,3.0934385E1,1.6160755E1,1.7034658E1,1.7482508E1,8.939628E1,5.5459656E1,1.1725193E1,6.793508E1,1.1486244E1,1.3171013E1,2.7033655E1,9.332945E1,1.8251745E1,1.8306826E1,1.5563382E1,1.0017933E2,4.188618E1,1.26791525E1,2.353591E1,2.9599367E1,2.859108E1,1.3075986E1,1.78584E1,1.603775E1,7.335853E1,1.8179775E1,3.727988E1,4.6587032E1,2.1348053E1,1.1502784E1,1.5530872E1,7.7381805E1,1.5947645E1],"tree_param":{"num_deleted":"0","num_feature":"222","num_nodes":"103","size_leaf_vector":"1"}},{"base_weights":[4.4663805E-3,-2.5098786E-1,4.099825E-1,-5.6331236E-2,-5.1542E-1,4.7623936E-2,7.1099555E-1,-1.9451546E-2,-2.6647532E-2,-9.9928135E-1,-3.4135208E-1,1.0037455E-1,-1.571649E-2,9.9490803E-1,4.453703E-1,-7.917882E-2,4.0318474E-1,-1.0325577E-2,-3.5449877E-2,2.2645782E-1,-6.0726535E-1,2.739421E-1,-1.2920657E-1,1.075985E0,1.0464056E-2,-1.1101556E-2,8.164693E-1,-5.396874E-1,-4.007396E-2,6.639149E-1,-2.6715407E-3,-1.22904E-1,6.951312E-1,1.09498715E-2,-7.628748E-1,5.483608E-1,-0E0,6.773673E-2,-5.826178E-1,1.7158587E-2,1.1669232E0,-3.1494814E-1,2.8439319E-2,7.007794E-3,9.817051E-1,-2.9167121E-2,-0E0,-8.533455E-2,4.3063885E-1,1.7168312E-3,3.2690648E-2,2.5907941E-2,-5.403896E-1,3.2493476E-2,-0E0,-1.1348891E0,-5.266565E-1,3.020143E-1,